
//<![CDATA[

// a few things don't have var in front of them - they update already existing variables the game needs
lanesSide = 4;
patchesAhead = 30;
patchesBehind = 5;
trainIterations = 1000000;

var num_inputs = (lanesSide * 2 + 1) * (patchesAhead + patchesBehind);
var num_actions = 5;
var temporal_window = 3;
var network_size = num_inputs * temporal_window + num_actions * temporal_window + num_inputs;

var layer_defs = [];
layer_defs.push({
    type: 'input',
    out_sx: 1,
    out_sy: 1,
    out_depth: network_size
});
layer_defs.push({
    type: 'fc',
    num_neurons: 40,
    activation: 'relu'
});
layer_defs.push({
    type: 'fc',
    num_neurons: 20,
    activation: 'relu'
});
layer_defs.push({
    type: 'fc',
    num_neurons: 20,
    activation: 'relu'
});
layer_defs.push({
    type: 'fc',
    num_neurons: 20,
    activation: 'relu'
});
layer_defs.push({
    type: 'fc',
    num_neurons: 20,
    activation: 'relu'
});
layer_defs.push({
    type: 'fc',
    num_neurons: 20,
    activation: 'relu'
});
layer_defs.push({
    type: 'regression',
    num_neurons: num_actions
});

var tdtrainer_options = {
    learning_rate: 0.001,
    momentum: 0.3,
    batch_size: 64,
    l2_decay: 0.005
};

var opt = {};
opt.temporal_window = temporal_window;
opt.experience_size = 9000;
opt.start_learn_threshold = 2000;
opt.gamma = 0.7;
opt.learning_steps_total = 100000;
opt.learning_steps_burnin = 1000;
opt.epsilon_min = 0.02;
opt.epsilon_test_time = 0.0;
opt.layer_defs = layer_defs;
opt.tdtrainer_options = tdtrainer_options;

brain = new deepqlearn.Brain(num_inputs, num_actions, opt);

learn = function (state, lastReward) {
    brain.backward(lastReward);
    var action = brain.forward(state);

    draw_net();
    draw_stats();

    return action;
}

/*###########*/
if (brain) {
brain.value_net.fromJSON({"layers":[{"out_depth":1275,"out_sx":1,"out_sy":1,"layer_type":"input"},{"out_depth":40,"out_sx":1,"out_sy":1,"layer_type":"fc","num_inputs":1275,"l1_decay_mul":0,"l2_decay_mul":1,"filters":[{"sx":1,"sy":1,"depth":1275,"w":{"0":-0.001269927046296021,"1":-0.04001300324228904,"2":0.043693232921502935,"3":-0.16141480355164206,"4":-0.029376001834125927,"5":-0.21629923556008607,"6":-0.03971576320256939,"7":-0.034064209993911014,"8":-0.01066582106577687,"9":-0.025217750761630443,"10":0.008985360702364699,"11":0.047336330856620375,"12":-0.12893918899720894,"13":-0.01663069594854621,"14":-0.08760567117197368,"15":-0.024930089621301072,"16":-0.009673450362975818,"17":-0.037206547710290264,"18":-0.02541470360542563,"19":-0.02844149288137281,"20":0.003584487271705038,"21":-0.08898208930961865,"22":0.06392865150576994,"23":-0.15473688709501496,"24":-0.01914241114543314,"25":-0.0000782929505359888,"26":-0.023156155658902416,"27":-0.04063876959854963,"28":-0.04915711285599558,"29":0.003885765298975194,"30":-0.11429798424145748,"31":0.08651599090636862,"32":-0.0780572471440854,"33":0.013635186199002515,"34":-0.03589659499016651,"35":-0.046121087000675534,"36":-0.048278768717012574,"37":0.006676346909823987,"38":-0.01387766409072612,"39":-0.08589803067051537,"40":0.09459078117510962,"41":-0.04902803871232739,"42":0.001541046533296932,"43":-0.012655929580135443,"44":-0.009532934335006472,"45":-0.01946958099356012,"46":0.007731340556752684,"47":0.027089614995617618,"48":-0.05535628026146091,"49":0.11044458531463963,"50":-0.09128125693319372,"51":0.028606935992955575,"52":0.004280400939225177,"53":-0.03796824225153898,"54":-0.02299675683670619,"55":-0.006935664223416005,"56":0.057233854487451344,"57":-0.03446204364978402,"58":0.14672666113835062,"59":-0.08017222921561393,"60":0.048427918897574376,"61":-0.01903692327154192,"62":-0.05061919930251338,"63":0.008238781388975509,"64":0.030239766291270818,"65":0.017539355067424735,"66":0.002867997351811383,"67":0.16073874167843188,"68":-0.013121234753737028,"69":0.023120120507846783,"70":0.0012655935869819606,"71":-0.028964422304158157,"72":-0.04359655311207207,"73":0.0067977420702079626,"74":0.0017573279254603851,"75":-0.021631988962784322,"76":0.14677592663210606,"77":-0.0039988664823370455,"78":0.003564538515552918,"79":-0.025947361377532605,"80":-0.08840158661172588,"81":0.064361940217782,"82":0.014320306490242152,"83":0.03269903711181686,"84":0.03780538841332988,"85":0.18428112942205213,"86":-0.013359977567815576,"87":0.05403316046400382,"88":-0.0006048955366780892,"89":-0.00985238299102743,"90":0.000304824037588933,"91":-0.04667053342960031,"92":0.03951192659889222,"93":0.0024306908774003383,"94":0.25234873824980253,"95":-0.036405872447649944,"96":0.06949325937954812,"97":-0.034693475934138004,"98":-0.040571831010838465,"99":-0.030720729109111375,"100":0.004089802306024301,"101":0.03027915245515823,"102":-0.009241482313103233,"103":0.3021787539674788,"104":-0.02349908993386345,"105":0.039740423058688495,"106":-0.018767572694933985,"107":-0.054394333375042805,"108":-0.04776490904226069,"109":0.0024506884852798826,"110":0.0011518149670309012,"111":-0.03086231723278374,"112":0.3082065599508879,"113":-0.0049144584245187205,"114":0.0706213042206264,"115":0.012060634042441183,"116":-0.03127823711701316,"117":-0.04475863541372606,"118":-0.04178799161783325,"119":0.0743388207813311,"120":0.057096735604459374,"121":0.36756405841970563,"122":-0.024055993764592356,"123":-0.006932632480639811,"124":-0.023036359933160833,"125":-0.02716589269404415,"126":-0.023150074634655873,"127":-0.03772197045072469,"128":-0.035000378987442265,"129":-0.009446222626103807,"130":0.46372941762971753,"131":-0.015459107434797734,"132":-0.025106233939691375,"133":-0.03974024036339554,"134":-0.03150532535700097,"135":-0.03102172432429064,"136":-0.01005508933909188,"137":0.07138175858532168,"138":-0.012329789485938903,"139":0.7015197287754867,"140":0.046020576008951895,"141":-0.016030892814868115,"142":0.006008157930963362,"143":-0.05643944487560708,"144":-0.0019905303051816,"145":0.006727613455756197,"146":0.029158712476759923,"147":0.0362051478511759,"148":0.7137817046996751,"149":0.02067276019926344,"150":-0.04129362137514939,"151":-0.03182993519491139,"152":0.0010745568813977167,"153":0.02420416004023403,"154":-0.04180165590005466,"155":0.006872140496853807,"156":0.041626055322862426,"157":0.9047206025072915,"158":0.019657024242498825,"159":-0.01651465709266455,"160":-0.0013765540237355926,"161":-0.033946261662841024,"162":-0.014747039421983094,"163":-0.014255858548760629,"164":-0.02749700608669376,"165":-0.0008311765271293124,"166":1.1524896247988552,"167":0.0015714610714409546,"168":-0.019620311034690037,"169":-0.05218880851610226,"170":-0.02355939258056323,"171":-0.010158863043190233,"172":-0.05766615072594657,"173":-0.0028163695959281822,"174":0.06889839656957852,"175":1.1922416969391205,"176":0.05471386306474357,"177":-0.032610993741318796,"178":-0.03210331843397918,"179":-0.018230756805425366,"180":-0.010204745570732398,"181":-0.013237376257017265,"182":-0.038146872966182965,"183":0.1391260624816023,"184":1.2947053568374383,"185":0.024054757818191608,"186":-0.051860567614871664,"187":-0.024030259284796726,"188":-0.03502765856392221,"189":-0.028543522472169045,"190":-0.03676640580205876,"191":-0.017853339009195352,"192":0.15417152158047617,"193":1.7124130123556318,"194":0.1519649661391195,"195":0.01770475837820223,"196":-0.04241552824560873,"197":-0.048994064335021126,"198":-0.019458828953562428,"199":-0.06143490066868277,"200":-0.013442847433041147,"201":0.1687530141538872,"202":3.011720607839928,"203":0.26683656185139737,"204":0.03364749077443492,"205":-0.037489951092845995,"206":-0.022989425635052678,"207":-0.009319231455311936,"208":-0.03662710477267837,"209":-0.05282215737866667,"210":0.1039526145414053,"211":2.7983671852626633,"212":0.279493694205261,"213":-0.02589304710736301,"214":-0.0016013029106324,"215":-0.010225385005524721,"216":-0.05713582283501906,"217":-0.053084081787727125,"218":-0.026763753206190857,"219":0.1721814982868855,"220":2.475507114098074,"221":0.3069003342733476,"222":-0.025460283584341187,"223":-0.026031041629351565,"224":-0.0683297948428414,"225":-0.05693867788078572,"226":0.00674477023627065,"227":-0.06858181102302796,"228":0.132914752303421,"229":1.8349497749766517,"230":0.21103367079578642,"231":-0.01779492953968801,"232":-0.008775285719130842,"233":-0.029191283457763655,"234":-0.035472819943970724,"235":0.008070437511862144,"236":-0.05052090404062149,"237":0.1264659885234649,"238":0.06063959914910209,"239":0.22181479248670152,"240":0.010962601703567597,"241":-0.02063979128275187,"242":-0.052447687249332825,"243":0.021093123454712454,"244":-0.021800291821056517,"245":-0.06082918003736183,"246":0.1585938106120105,"247":0.0378539351516495,"248":0.23775914072809629,"249":-0.04207186181782909,"250":-0.04481392689540426,"251":-0.06979241289123597,"252":-0.015122708685165789,"253":-0.038786750254908554,"254":-0.09256445426246708,"255":0.07527159534707899,"256":0.012737939746620259,"257":0.2524252417571527,"258":-0.031856916254412296,"259":-0.006029030017739784,"260":-0.004047323572558791,"261":-0.018865596980692557,"262":0.026229816418024465,"263":-0.07585625115604716,"264":0.07262910586515045,"265":-0.023741928236473524,"266":0.2886482770289184,"267":-0.04421423863740906,"268":0.0135187219220033,"269":-0.017463310365432954,"270":-0.003994230285210661,"271":-0.004929274747360382,"272":0.014273848358758428,"273":0.07291280581350147,"274":0.6679145717710292,"275":0.14467992110837594,"276":-0.039678227942365,"277":-0.03733298192996487,"278":-0.010286974669360448,"279":-0.041381193577192096,"280":-0.021405536807168394,"281":-0.046531926980448335,"282":0.011765341363044253,"283":0.6616882987461715,"284":0.05156333700830235,"285":-0.01290378701448692,"286":0.0167523023890678,"287":-0.004746554942731151,"288":0.0049951644613852415,"289":-0.0020539581953209866,"290":-0.07322713947384331,"291":-0.10233669141077603,"292":0.6467763371500811,"293":0.033243280037529487,"294":-0.033140942532883175,"295":-0.05099066116957819,"296":-0.004636947115824106,"297":-0.051480086669466754,"298":-0.016339292356526043,"299":-0.11443959294583507,"300":-0.07926742902263094,"301":0.7019330420178472,"302":-0.011306957960625058,"303":-0.03013126067069475,"304":0.02762109868141149,"305":-0.028060888916552725,"306":-0.03420849413577214,"307":0.03265952147511004,"308":0.0037874721920386468,"309":-0.06824931442733193,"310":-0.018697511829110284,"311":0.04765526636606398,"312":0.017354059540557815,"313":-0.022435281638462614,"314":-0.037877649720104836,"315":-0.025479081338742694,"316":-0.02493275958003032,"317":-0.0343286730759891,"318":-0.052137269997655784,"319":0.06461394248875804,"320":-0.09404771393278667,"321":-0.06581671835543948,"322":-0.015418453193728256,"323":-0.030849093790812857,"324":0.002274673599681881,"325":-0.01853590191666977,"326":0.006995047787645938,"327":-0.09715110961983851,"328":0.09569619180878157,"329":-0.06965739161575983,"330":-0.04373945671508414,"331":-0.015370465513737459,"332":-0.02910147777196914,"333":-0.014270206184295354,"334":0.006795032438851403,"335":0.01572594348636985,"336":-0.048350326838765084,"337":0.1443407589317767,"338":-0.10202648539424503,"339":-0.04769503824791244,"340":-0.032475854139751535,"341":-0.0488022265864096,"342":-0.060187147981230045,"343":0.0015845695163633079,"344":0.003474571043519972,"345":-0.04836961326145475,"346":0.09820981198441671,"347":0.014392508893789456,"348":-0.06930582911960402,"349":-0.03211022090856978,"350":-0.04061274976604305,"351":-0.021134638955862622,"352":-0.0011430912346640173,"353":0.026889123700285664,"354":-0.020143353803731927,"355":0.12724916635212194,"356":-0.01825331593028493,"357":-0.07967489086665713,"358":0.02368406274768243,"359":-0.028047433550454692,"360":0.02181011167791074,"361":-0.012568151821504045,"362":-0.015410324324978396,"363":-0.046917628525907105,"364":0.15003970194447466,"365":0.001132024649718393,"366":-0.026851718008143663,"367":0.03932790865944307,"368":-0.024235510151758455,"369":-0.03386579719493204,"370":0.0002297078120331928,"371":-0.029028857796898642,"372":-0.027035619322262654,"373":0.15622344678207756,"374":0.016048538686503515,"375":-0.016216009482012364,"376":-0.035168721974579334,"377":-0.013932298908135871,"378":-0.02572304729904398,"379":0.031897752210466014,"380":0.036739660222349035,"381":0.017803890665993135,"382":0.17399265880271853,"383":-0.025797773047004376,"384":-0.022012579233386818,"385":0.004403877830372392,"386":0.009359150859499801,"387":-0.019800557575973605,"388":0.016127632334347893,"389":-0.03814645193669105,"390":0.010889994559592628,"391":0.22283010674791937,"392":0.02106663234282177,"393":0.011609443837068217,"394":0.021607936783112968,"395":-0.03652268580812409,"396":-0.01386673090646445,"397":0.0005199480732720988,"398":-0.005678306045421558,"399":0.014976014262110305,"400":0.22217745945115838,"401":0.047157472176358496,"402":-0.007820748822791348,"403":-0.08106834985321947,"404":0.005362894068585129,"405":-0.025920023128521607,"406":-0.01832059994788228,"407":0.013170546108543546,"408":0.016611333776200943,"409":0.18481923728826086,"410":0.04165639472505709,"411":0.023367207893507533,"412":-0.04083123387745132,"413":-0.04382922802388582,"414":0.03573434728084326,"415":0.002925154976053681,"416":-0.008268702583534198,"417":0.029390814804302688,"418":0.22010043678169527,"419":0.049210047948484395,"420":-0.04530134580309031,"421":-0.04393141901837972,"422":-0.037114966264798245,"423":0.003477690867324258,"424":0.032942337561235345,"425":0.0025760961267436216,"426":0.11688897218131261,"427":0.31439340598973536,"428":0.07542104063192494,"429":-0.013097805535338307,"430":-0.028950896341946572,"431":-0.06899977806249037,"432":-0.05330699773275552,"433":0.009194380736836658,"434":-0.02332955279384186,"435":0.14568759716806814,"436":0.45569264483743793,"437":0.14236730472339035,"438":0.010208504220200204,"439":-0.004914361011562293,"440":-0.0034968479116861276,"441":-0.008511533497347266,"442":-0.027386948054539687,"443":0.044441547768276586,"444":0.1807533479687326,"445":0.49116615890069304,"446":0.153700355288584,"447":-0.015512787950525568,"448":-0.07832532148188909,"449":-0.014452523805238138,"450":0.0009865221734125318,"451":-0.0017541360751104197,"452":0.020202740321317973,"453":0.1527311231182604,"454":0.5386664149698248,"455":0.19555522380047471,"456":0.04984486117242214,"457":0.01391179277004993,"458":0.01889593156919934,"459":-0.014438946073370313,"460":-0.03577338769027663,"461":0.07061851363924326,"462":0.21789719727970133,"463":0.5419731873725142,"464":0.19245764933314202,"465":-0.0016735181543426725,"466":-0.028003230978977667,"467":-0.005203592073260751,"468":-0.043454472741087526,"469":0.034644516914736134,"470":-0.003564477233174369,"471":0.1623566723232866,"472":0.4998290735831086,"473":0.263731198433607,"474":0.050624932982583096,"475":0.0073011927009853225,"476":0.004162854134560674,"477":0.02982446763143386,"478":0.008541992047540206,"479":0.05888133522432268,"480":0.20497040960390286,"481":0.4945560192824371,"482":0.18051164359630698,"483":0.0419537716800082,"484":0.02725892176204569,"485":0.019043797384412135,"486":-0.025213688480367247,"487":-0.03424894042659611,"488":-0.013781339213840577,"489":0.17570381998432094,"490":0.5716630807710027,"491":0.20628671704879628,"492":0.022944851495459738,"493":-0.006039365544644804,"494":0.020208979228461803,"495":-0.0070899825421155615,"496":0.01040410554853441,"497":0.009002375770679518,"498":0.22379487729483968,"499":0.45216734453915863,"500":0.1579999281143689,"501":0.003520847357587579,"502":0.007200116886838301,"503":0.010980627265744988,"504":-0.02048378162854029,"505":0.020488401904062366,"506":0.01984009367083411,"507":0.13711530898427265,"508":0.3145161507158412,"509":0.17594083131315247,"510":0.05766248005143993,"511":-0.03187427612917474,"512":0.025696721294444533,"513":-0.04162071001087042,"514":0.007642901930238044,"515":0.021844729460354713,"516":0.14116325249209863,"517":0.3460522759401535,"518":0.14835148459245945,"519":0.013679982698954976,"520":0.007279409253495201,"521":-0.022118447008250997,"522":0.028271119458037876,"523":0.0022028839292287964,"524":0.0447015669054983,"525":0.1412996516046849,"526":0.3931476172429863,"527":0.09949899771608187,"528":0.03291259031715542,"529":-0.004117688532365602,"530":-0.04179769967576622,"531":-0.0700218275810192,"532":-0.03238445390987094,"533":-0.018418510955538224,"534":0.03018375834243429,"535":0.295799454080047,"536":0.042887834033989804,"537":-0.0047090699209763895,"538":0.01765960376443838,"539":-0.0058990885564828765,"540":-0.020735268158985302,"541":-0.031775800970858734,"542":0.004892612175809,"543":-0.0468395414749614,"544":0.25912178895195936,"545":-0.023204752600168636,"546":0.04194152370129562,"547":-0.032631256433393103,"548":-0.011342242701060195,"549":-0.03579857434923501,"550":-0.026795442059363326,"551":-0.03795991233708172,"552":-0.049350545423914205,"553":0.13717628769301657,"554":-0.00011588498147674257,"555":0.009084702228902251,"556":0.013545939648983804,"557":0.02658304772077258,"558":0.016954119002276065,"559":-0.00989000998149016,"560":0.03171068746222965,"561":-0.09815805343941389,"562":-0.019188282904436162,"563":-0.06153491909367368,"564":0.011645494781642677,"565":-0.018796678242820827,"566":0.008962010548562912,"567":0.027015744856993536,"568":-0.02910209140127552,"569":-0.022714847540545376,"570":-0.14297299466677266,"571":-0.005508370663414442,"572":-0.032433208792709854,"573":-0.022003354411988914,"574":-0.017829765251421565,"575":-0.0025095239582986974,"576":0.014095950194243532,"577":0.01829210993031035,"578":0.020500935322903324,"579":-0.1568700371100845,"580":-0.05762388425525308,"581":0.01401305527041672,"582":-0.010399292838686338,"583":-0.012235497590900335,"584":-0.003847700803322321,"585":0.023841320653033026,"586":0.006927038278654976,"587":0.03640607304876037,"588":-0.14484736858463018,"589":0.007976509030591793,"590":-0.08091733849930466,"591":-0.02432329784328865,"592":0.0077775326361766255,"593":-0.06782127679589978,"594":0.0024952494934253285,"595":-0.03343964378790194,"596":-0.046488664475204604,"597":-0.13157651303428475,"598":-0.0013615213869406782,"599":-0.07015398075535917,"600":0.008056053730477443,"601":-0.012911778154496857,"602":-0.05441980589901674,"603":0.0038379252426487317,"604":-0.013673008677240387,"605":-0.03769831634960232,"606":-0.13364579391826611,"607":-0.005654727997636744,"608":-0.14406276098471524,"609":-0.028098854408668075,"610":-0.05708632827885802,"611":0.03932300040567625,"612":-0.02449209331976964,"613":0.01801099218130561,"614":-0.05711639640643342,"615":-0.15101529156258497,"616":-0.0004355379397657787,"617":-0.10575761660731506,"618":-0.022288728152111404,"619":-0.03488889931001331,"620":-0.002001390632784663,"621":-0.0424852919748873,"622":-0.011550184356224246,"623":-0.02850216518430408,"624":-0.20910904645937864,"625":0.008867076804018574,"626":-0.23345409955747784,"627":-0.019355049499772067,"628":-0.034309832736510566,"629":-0.03266625710922451,"630":-0.036424001775491224,"631":-0.044193395277953115,"632":0.06081348387556963,"633":-0.04007156587671287,"634":-0.042076903141258316,"635":-0.0015593322531419764,"636":0.010423903758382043,"637":-0.04609077195925561,"638":0.053526034866987905,"639":0.13307006835169563,"640":0.02815412710922041,"641":-0.006898360900358393,"642":-0.07804481175886062,"643":-0.047653511093973165,"644":-0.013590336104860636,"645":-0.0037551170518735923,"646":0.0027422565959528307,"647":0.062183512311460895,"648":0.2087276129003822,"649":0.07522135286773855,"650":-0.0119567440878673,"651":-0.03697814287084458,"652":-0.033743385867526475,"653":0.003005974827398455,"654":-0.006529945982589546,"655":0.036433715352776036,"656":0.0365108464127899,"657":0.1427710623582584,"658":0.06877840901509719,"659":0.02416618293083143,"660":0.03930897396899528,"661":0.05149653779921575,"662":0.019487966081209198,"663":-0.00837699669493891,"664":0.02373841484954761,"665":0.0867455370454353,"666":0.14168425803577064,"667":0.055419225164123884,"668":-0.017563344336763438,"669":0.011424142067757692,"670":0.03580406070165837,"671":-0.039477527695076176,"672":-0.02663667715451319,"673":0.03719277234524735,"674":0.10003802838898607,"675":0.12171734822564466,"676":0.06451529067437552,"677":0.027184790617437733,"678":0.0012245088959293674,"679":-0.05168674995045002,"680":-0.02664771664272543,"681":-0.0032371993841663707,"682":0.041809174406110435,"683":0.036714841582413796,"684":0.11441253024556164,"685":0.03139190635891061,"686":-0.01972815380054111,"687":0.017468269329694634,"688":0.020956045809820217,"689":-0.029987157938669476,"690":0.027239939495919796,"691":0.03630953444069308,"692":0.07411787333915315,"693":0.148775854949678,"694":0.0789483176091714,"695":-0.004302833141236708,"696":-0.004291250308452772,"697":-0.0024114154667200364,"698":-0.03750526460168239,"699":0.002196728882902095,"700":0.03719637197462102,"701":0.111940871921678,"702":0.21381629888689344,"703":0.11060489888443381,"704":0.03102447597343183,"705":0.03238462832064909,"706":-0.02116795574349403,"707":-0.06941951276650704,"708":0.0053570448201067595,"709":-0.005320337794880071,"710":0.11154724527854125,"711":0.205718360172577,"712":0.1012953085226519,"713":0.026380023487097615,"714":-0.029012119104959776,"715":-0.0440721022949421,"716":0.002743251383253962,"717":0.014643107599481692,"718":0.005180672682350366,"719":0.17657681983547915,"720":0.17211819904040104,"721":0.12583367775026424,"722":0.040178683023960465,"723":-0.007716399630685432,"724":-0.0028304043978621997,"725":0.034120011296830545,"726":-0.0033571019218825724,"727":0.019336670266058828,"728":0.12833644438894953,"729":0.24337041209526947,"730":0.16463624598651302,"731":0.03695386128751341,"732":-0.011769002765637526,"733":-0.033970559163883876,"734":0.00757222263928162,"735":0.028274274546625688,"736":0.07205874206842593,"737":0.11775408799716035,"738":0.1947898746042171,"739":0.16036604647967617,"740":0.045033899549159886,"741":-0.0025107071157342265,"742":-0.04286027628683775,"743":0.014828184271107414,"744":-0.00172646062851074,"745":0.046424668671918884,"746":0.13090996138931982,"747":0.1772915792090239,"748":0.12492464924375354,"749":0.07880499061624656,"750":-0.009407737960892597,"751":-0.02587312493549008,"752":0.004341308670353003,"753":-0.003246598468172762,"754":0.06702033114553603,"755":0.08204549185156518,"756":0.11702946364905263,"757":0.09835159207678673,"758":0.01927283293279833,"759":-0.022558033568340203,"760":0.02437570003070498,"761":0.02681671011304126,"762":-0.011148876193016882,"763":0.013645183330434525,"764":0.040961925341128885,"765":0.04777327202938247,"766":0.10892433920065614,"767":0.02216869880243633,"768":0.007694140144992784,"769":-0.039639273639258565,"770":0.02185672075314957,"771":-0.04589047329029163,"772":0.04729603475908262,"773":0.03117211736320662,"774":-0.021858187672264398,"775":0.07448718930237418,"776":0.07199232815683612,"777":-0.04427970697926725,"778":-0.003224109806778405,"779":0.01557071054675734,"780":0.058188141711042904,"781":0.015487299721360892,"782":0.09438379277976257,"783":0.0007537353204337462,"784":0.093556546167296,"785":0.024470892291518668,"786":0.012542966652242622,"787":-0.04900773598390166,"788":-0.04682053145799228,"789":0.0007483049619148618,"790":0.05263639975988299,"791":0.036251874152980534,"792":0.052220585029633504,"793":0.07242292783447728,"794":0.03533653091660321,"795":-0.041833742521762314,"796":-0.002447359071485078,"797":-0.018064604734499695,"798":-0.061623846678708835,"799":0.024480394636222817,"800":0.013532134530554785,"801":0.08758447001621822,"802":0.0819800938547761,"803":0.03301341630513449,"804":0.016137121906607408,"805":0.004129875410125067,"806":-0.023068900518782676,"807":0.04126733551703489,"808":0.030718829667828313,"809":0.034180004448461976,"810":0.09723096650448665,"811":0.03442536254596082,"812":0.02408135081334946,"813":0.02291577117413592,"814":-0.054114185141420565,"815":-0.04227808680095757,"816":-0.0028118911934511626,"817":0.004592000321955244,"818":-0.052577351821553285,"819":0.07066530889610427,"820":-0.049987651231306156,"821":0.044497638497833024,"822":0.018271360823316776,"823":-0.035558794133116106,"824":0.0013829378848443181,"825":-0.022761531102662252,"826":0.015213375743389644,"827":-0.05880250820928749,"828":0.06743905506073761,"829":-0.008685267551336513,"830":0.034458781279313226,"831":0.018828594743575938,"832":-0.0069067964705939,"833":-0.03184224409114223,"834":0.01860406374354532,"835":0.00850120258136417,"836":-0.05082636945864154,"837":0.005359934133353994,"838":-0.010347365431873534,"839":0.04362542489068094,"840":0.0033807826522174187,"841":-0.02064137521870408,"842":-0.0007237190552369065,"843":-0.0016435946842963166,"844":-0.023252714569446803,"845":-0.040053039812354405,"846":0.13956436085146737,"847":-0.06075675303708628,"848":0.0009448782714427238,"849":0.05010437423896687,"850":-0.008228167806554667,"851":0.03218076180157202,"852":-0.004981897548013048,"853":-0.012828258186240253,"854":0.0002602742242208784,"855":0.1601999302181289,"856":0.018662199921045057,"857":-0.006582662069807204,"858":0.02905620749165981,"859":0.04130251272755767,"860":-0.015459720148299503,"861":-0.03628840309564127,"862":-0.020326405534674293,"863":-0.0511407863823206,"864":0.13710982050452358,"865":-0.011548056661953748,"866":-0.0042943853277064336,"867":-0.015015359152332288,"868":-0.0028291161763265684,"869":0.020193782122619068,"870":0.025899363952420273,"871":-0.032198556182653916,"872":-0.10594850422311067,"873":0.09297958319530429,"874":-0.07846296448828673,"875":0.025899398628187086,"876":0.012823445946553526,"877":-0.018448256681303524,"878":-0.027229256063271385,"879":0.009533205084396078,"880":-0.011877130106329126,"881":-0.04459803664080701,"882":-0.008899675260124723,"883":-0.0540511645557138,"884":0.00998187161440859,"885":-0.02004973701936986,"886":0.021000997216908977,"887":-0.0437451650817001,"888":0.03883279382308276,"889":-0.026000949678154656,"890":-0.06304688828119484,"891":0.008564062203907196,"892":-0.09267126976977638,"893":-0.036757243787584444,"894":-0.05826382805209546,"895":-0.030306848913744237,"896":-0.026457814505169402,"897":-0.0543481234928433,"898":0.0010915648758921587,"899":-0.12516784766647263,"900":-0.006415103908102012,"901":-0.05286982743727982,"902":-0.013617508410855395,"903":0.0000612524857221524,"904":-0.005388140095434775,"905":0.011154025003194071,"906":-0.022882004715129533,"907":0.017057044936438434,"908":-0.07439098462604297,"909":-0.07021820503178071,"910":-0.1374030505240701,"911":-0.020864632672837453,"912":-0.04500845215668069,"913":-0.04153744920831895,"914":0.0036612117257132535,"915":-0.02880245620170962,"916":-0.04364437358465497,"917":-0.14173880910054307,"918":0.019520798545025846,"919":-0.07397769957196905,"920":-0.06060083946260077,"921":-0.02220377350944756,"922":-0.025684008037592788,"923":-0.050398671810834246,"924":0.01868902105922985,"925":0.006165460978188266,"926":-0.10311602360112149,"927":0.021789768237349297,"928":-0.12060102030021158,"929":-0.0692986842985752,"930":-0.10153513316618712,"931":0.025226549419776284,"932":-0.021326797663848825,"933":-0.0018002525389810196,"934":0.014221979192961936,"935":-0.12386456375149352,"936":0.0029789438002962207,"937":-0.1558770131969894,"938":-0.015155439479569746,"939":-0.025477410794222218,"940":-0.02949131241401051,"941":0.009519947791680933,"942":-0.044952590674964224,"943":-0.04888075652212136,"944":-0.14343805034818283,"945":0.020192363201668388,"946":-0.16270230285247142,"947":-0.02337138197966767,"948":0.014296015265392772,"949":0.004537484845446111,"950":-0.025535834280504384,"951":-0.02929671847116964,"952":-0.028844979143166995,"953":-0.033382014915918974,"954":-0.043011183898634904,"955":-0.012009741715859737,"956":0.030734479780678108,"957":0.04599320913284799,"958":0.11414846455720006,"959":0.18260872638342265,"960":0.11961106324435512,"961":0.09506344169074328,"962":-0.08021629489703144,"963":0.0034081472279376634,"964":0.02385082541084228,"965":0.0008300494815969137,"966":0.06514549177387642,"967":0.13865268368356076,"968":0.1431771416689233,"969":0.08274036957187662,"970":0.047132324405772676,"971":0.01302793882391524,"972":-0.021092263487507507,"973":0.016773505781202472,"974":0.045215929926910946,"975":-0.028939303964698227,"976":0.12565037159473108,"977":0.18369790402995637,"978":0.1397649055539982,"979":0.03270121030715966,"980":0.03874313764901237,"981":-0.035260234989757694,"982":-0.009916720891970964,"983":0.035974869303650764,"984":0.052529374693129884,"985":0.1460362560052582,"986":0.15815073510804967,"987":0.12205011537323297,"988":0.050565228780443526,"989":0.02850728139286464,"990":-0.0010358761146432374,"991":-0.025066645348470723,"992":-0.011057868787360568,"993":0.06883341607183932,"994":0.13118389483736828,"995":0.1829997615495175,"996":0.12769901596018504,"997":0.0553829944894566,"998":0.015304311976772478,"999":0.04659903613039233,"1000":0.01005537004347684,"1001":0.010397040494617659,"1002":0.060580182240581294,"1003":0.11848843461915144,"1004":0.12499442952480921,"1005":0.11424312832231827,"1006":-0.007754348163213468,"1007":-0.0031804995085059976,"1008":0.034310023511569816,"1009":0.0038036056240927625,"1010":-0.017242269031261435,"1011":0.04032236497763015,"1012":0.08142835060745698,"1013":0.10156784857856953,"1014":0.1330354782436828,"1015":0.0515808101140362,"1016":-0.006027929966611021,"1017":0.037562075780557924,"1018":0.032201353031981635,"1019":0.02787118193387667,"1020":0.0641164269746142,"1021":0.05218010767528661,"1022":0.03853649470104309,"1023":0.05405947929389254,"1024":0.05174215704663819,"1025":0.01102738467772375,"1026":0.0403581470015292,"1027":0.02670271940459015,"1028":0.037900314290176595,"1029":0.05931858092194784,"1030":0.04968812079177131,"1031":-0.04361772592139484,"1032":0.06267733877266077,"1033":0.02738515297266011,"1034":0.029230423051632214,"1035":-0.01599600557223556,"1036":-0.03127664531785148,"1037":0.02828903695079398,"1038":0.07475088588902751,"1039":0.056468578751379186,"1040":-0.004619687929788401,"1041":0.02197285479666722,"1042":0.05819927532853216,"1043":-0.012283138387885754,"1044":0.01439230987921949,"1045":-0.011584766366137676,"1046":-0.006529524296374505,"1047":0.04180690824327889,"1048":0.021696265727789803,"1049":-0.12474286732505357,"1050":0.03236263369947008,"1051":0.02734068010678175,"1052":-0.023296362897591225,"1053":0.01692357166956491,"1054":0.039867495455587265,"1055":0.024251161181946986,"1056":0.04162330141883862,"1057":-0.006341105666063255,"1058":-0.024247371984471022,"1059":0.012124710623752666,"1060":-0.00677068418836362,"1061":0.0515201303959182,"1062":0.024442819638116228,"1063":0.029994058823821185,"1064":0.03362062287531969,"1065":-0.012219325211604197,"1066":0.02295886357498948,"1067":-0.057132905843509094,"1068":-0.035551521177426874,"1069":0.03756771503729238,"1070":-0.019256144771824267,"1071":0.024081865115039344,"1072":0.03727397046310787,"1073":0.032358438424664786,"1074":0.05192860208613759,"1075":-0.04131722321736655,"1076":-0.10306949075542353,"1077":0.013156914866373964,"1078":0.004032034601591343,"1079":-0.003848196534501883,"1080":-0.02525890523391766,"1081":-0.03610693945740858,"1082":-0.08140527771787126,"1083":-0.008547485768812074,"1084":-0.005149023206459943,"1085":-0.09602406000397457,"1086":0.007148403557810333,"1087":0.007583809659222658,"1088":-0.01998589744309451,"1089":-0.042655372350023035,"1090":0.0006842494640893445,"1091":-0.0048458677738089945,"1092":0.025029691833479265,"1093":-0.05028665097467204,"1094":-0.05440867291466924,"1095":-0.0018623598839025018,"1096":-0.027807089020450846,"1097":0.008133785347229684,"1098":-0.009732731018427986,"1099":0.016706134827370458,"1100":0.01651202061600488,"1101":0.002101241823450341,"1102":-0.01043532338335072,"1103":0.052578266134096274,"1104":-0.0013598165082701955,"1105":-0.005367917388137271,"1106":0.0652231564383938,"1107":-0.022998177115545127,"1108":0.02195605329199288,"1109":-0.014773160711287633,"1110":-0.009271829882764475,"1111":0.010152996008404006,"1112":0.0028822073151186065,"1113":-0.03368696636505938,"1114":-0.01454330305776108,"1115":0.036818921270027026,"1116":0.01828730311494874,"1117":0.0010889991357443082,"1118":0.019484711419862546,"1119":0.07072036902308836,"1120":-0.014042245912413374,"1121":0.04404154755997621,"1122":0.03729249992559975,"1123":0.012119398310619136,"1124":-0.011301470947960923,"1125":0.012862611848959779,"1126":-0.005373424889830899,"1127":-0.01334193654216619,"1128":0.01071698499273222,"1129":-0.026702630228836507,"1130":0.020848292270159604,"1131":-0.028910908171615953,"1132":-0.005774247653003287,"1133":0.034930722898692014,"1134":0.015903660444678093,"1135":0.0007254047449194638,"1136":0.024999315548707532,"1137":-0.06127986360852246,"1138":-0.013294088802133185,"1139":-0.0022828381450887853,"1140":-0.011035907484527626,"1141":-0.019728198417170936,"1142":0.01271696858861249,"1143":0.020857831589182946,"1144":-0.05204999039136343,"1145":0.007256358602844132,"1146":-0.04379690048502824,"1147":-0.024447398474754016,"1148":0.007887395381156416,"1149":-0.003097781673918884,"1150":0.0006560507074473171,"1151":0.0014176045243931353,"1152":-0.020158883024655887,"1153":0.027958632836413495,"1154":0.005127409396054534,"1155":-0.008160198461574264,"1156":-0.06712886323734163,"1157":-0.03993535737746391,"1158":-0.06791449053582056,"1159":-0.051779795489987124,"1160":0.0002795879452249906,"1161":0.020602908140002863,"1162":-0.020150886982732378,"1163":0.02696281084408335,"1164":-0.0038298796547061495,"1165":-0.04182598258800776,"1166":0.06948676367808858,"1167":-0.04447558193030665,"1168":-0.0014713760370803075,"1169":-0.02556668123021237,"1170":-0.018295020234691907,"1171":0.02286993575597594,"1172":0.011849237439194586,"1173":-0.03754226192718116,"1174":-0.014213116163577871,"1175":0.06649774264529572,"1176":-0.01245618752884294,"1177":-0.012836831653205363,"1178":-0.007355090305241106,"1179":-0.027279516175805874,"1180":0.04110571043062023,"1181":0.018059303704570134,"1182":-0.03037067495927103,"1183":-0.05003562532853778,"1184":0.10464878379606225,"1185":-0.04813765651007115,"1186":-0.05880610923972671,"1187":-0.013679197321129929,"1188":-0.026074529833875836,"1189":-0.03965247912796515,"1190":-0.015106331257101953,"1191":-0.008186554304041593,"1192":-0.002067854584749292,"1193":0.08538261073098655,"1194":0.004786394434480369,"1195":-0.026261857161477515,"1196":-0.048605757092270226,"1197":-0.035662318440433466,"1198":0.02694986759143635,"1199":0.006846775146423869,"1200":-0.00485352048687668,"1201":-0.03699884272485423,"1202":0.0011130213362939676,"1203":0.006240439110506136,"1204":-0.05085940645542624,"1205":-0.055434079954775534,"1206":-0.0204696523790317,"1207":0.015547629371956813,"1208":-0.01380226103538686,"1209":0.003376664141588079,"1210":-0.07512983733711055,"1211":-0.006124659021472542,"1212":-0.08269575152640025,"1213":0.0009674089753256168,"1214":0.010084566491678555,"1215":0.03202245962679541,"1216":-0.015552388534412272,"1217":-0.00579647324901341,"1218":-0.0061839819555183995,"1219":-0.05981274998798494,"1220":0.004610271919993677,"1221":-0.023494581074419853,"1222":-0.03691880446504362,"1223":0.03777680669196546,"1224":-0.017627819248602926,"1225":0.00780469032599813,"1226":-0.03263250732050564,"1227":-0.054274505160944474,"1228":-0.07654653975985104,"1229":0.004320287791718714,"1230":-0.06158830620970614,"1231":-0.0024318258388724865,"1232":0.011580310707765367,"1233":-0.03484727983594374,"1234":-0.03430529200078127,"1235":-0.051395164118894936,"1236":0.042311678714467255,"1237":-0.05180386464043111,"1238":0.020379962145682856,"1239":-0.034969462500644914,"1240":-0.03517384753227462,"1241":0.028332267122871544,"1242":-0.020062674322297427,"1243":0.013133738293261924,"1244":-0.007632414155158472,"1245":-0.03618520636396769,"1246":-0.05785454290922177,"1247":-0.033555355022743955,"1248":-0.07805948004226662,"1249":-0.0370501860495385,"1250":-0.051197860802528077,"1251":-0.005159099415465382,"1252":-0.055043180958335436,"1253":-0.01752238146772371,"1254":-0.11289047100071903,"1255":-0.08388583550026164,"1256":0.06545681632633599,"1257":-0.07663130905933085,"1258":-0.05118522548987421,"1259":-0.021885846761365627,"1260":0.0015641895060774075,"1261":-0.011211717894004646,"1262":-0.0490510337391177,"1263":-0.03519069179384801,"1264":-0.09920495498672027,"1265":0.016353090339311312,"1266":-0.12034046252903983,"1267":-0.09324507649179177,"1268":-0.0485080269947385,"1269":-0.012109892602474737,"1270":-0.057862791007866385,"1271":-0.04018860444969978,"1272":-0.06963228949318238,"1273":-0.03693880720993581,"1274":-0.03225744136867839}},{"sx":1,"sy":1,"depth":1275,"w":{"0":-0.032599041374546285,"1":-0.018481023546009206,"2":-0.014698271686205104,"3":-0.04975926101562296,"4":0.03614026170707883,"5":-0.040413301239740566,"6":0.062217016832349856,"7":0.047854606788644706,"8":-0.04146371109061416,"9":-0.006055160034666205,"10":0.005213546548633717,"11":0.010801082155729206,"12":-0.06105847968473498,"13":0.03759837311864004,"14":-0.016722406134966752,"15":0.056885978803851926,"16":-0.029640503713209435,"17":0.013115132153418894,"18":-0.008617672975325997,"19":-0.00974473103032263,"20":0.019110336836252403,"21":-0.05767344171342623,"22":0.012196902598370809,"23":-0.06600036565091733,"24":0.024239432410423253,"25":0.013197432048419498,"26":0.022347591845288565,"27":-0.05550789883500774,"28":-0.016629226896249946,"29":-0.0038452901512826963,"30":-0.009615749905327022,"31":0.016109737400657576,"32":-0.031143478729857624,"33":0.017892427481737683,"34":0.05736674578276645,"35":0.019778564737561507,"36":0.023928828904172337,"37":-0.011611340044773575,"38":0.003935667725428135,"39":-0.019833941240385334,"40":0.052690045532982746,"41":-0.026920321912862064,"42":-0.0021641278651967034,"43":0.03909703762156615,"44":0.018136531134493566,"45":-0.005257118175713367,"46":-0.00646340118711092,"47":0.018689199606979776,"48":0.02231935563744904,"49":0.07398547633334837,"50":-0.04150221154333358,"51":-0.014577231238638409,"52":-0.009292244494738993,"53":0.033314167737810596,"54":0.03270009523769595,"55":-0.007147218251061773,"56":-0.031245434655831975,"57":0.0006493467482094488,"58":0.056256305816342535,"59":-0.0036917309995333535,"60":0.028355523291859943,"61":-0.01948101685750409,"62":-0.02782794059701048,"63":-0.02790023328068536,"64":0.020893058964309874,"65":0.023927599568304835,"66":0.007696097205576064,"67":0.011444786078903868,"68":-0.03191929196177542,"69":0.0014960024737735405,"70":0.010444080649942731,"71":0.04254124330115796,"72":-0.01875173184116844,"73":0.006246931302895544,"74":-0.012232845877741538,"75":-0.0009170081612534155,"76":0.059451366310959444,"77":0.03919297973078465,"78":0.05670472611972479,"79":-0.012177581405237647,"80":0.0035409478019160076,"81":0.0015737880907573738,"82":-0.05799085012486668,"83":-0.040950957111978825,"84":-0.07063104948651391,"85":0.10372941926077661,"86":-0.006764061705612713,"87":-0.04700389162327431,"88":-0.003514985117033036,"89":-0.014467484763304412,"90":-0.011246790523533546,"91":-0.011643466493033638,"92":-0.03802910840857814,"93":-0.011959329040857144,"94":0.12718039520196792,"95":0.023905175184626103,"96":-0.004885439519829893,"97":0.01281604208895431,"98":0.0044998084470733125,"99":0.007637322525275504,"100":-0.00947109966662121,"101":0.010138776195750982,"102":0.056837692984757826,"103":0.09970072360019869,"104":-0.03260757219195285,"105":0.012539166636067595,"106":-0.015881201736846907,"107":-0.016108652350575084,"108":-0.004839302725774118,"109":0.007682889164238487,"110":0.007434660074133375,"111":0.03376995447552813,"112":0.1697412148239781,"113":-0.01580640921483084,"114":0.03135538088098088,"115":0.016037445007572263,"116":-0.011108270408453125,"117":0.029334851045429024,"118":0.014125196936531291,"119":-0.002240067697022042,"120":0.04363338925208672,"121":0.16028314720165535,"122":0.015190083555778154,"123":0.024612462962914108,"124":-0.04539449386922315,"125":-0.020922994848210846,"126":-0.015392598950696192,"127":0.03977002697853533,"128":0.02934898311297656,"129":0.028505597359892602,"130":0.1629732190080813,"131":-0.048892981171146085,"132":0.030986656247404806,"133":-0.028357058913515157,"134":-0.0026544961923668023,"135":0.04598991586585555,"136":0.021065123064544517,"137":0.0027393395854970193,"138":-0.0018907693380768944,"139":0.19840773504933257,"140":-0.03415115463182386,"141":0.007278672072137356,"142":-0.009806096422958821,"143":-0.0043635905031316116,"144":0.018369035882236904,"145":0.02698545614364741,"146":-0.0023414661481062477,"147":0.08706036176295422,"148":0.22073900133786223,"149":-0.06890086271064283,"150":-0.024166040483432294,"151":0.06884689217350648,"152":-0.006579791361138759,"153":0.00719491467828965,"154":-0.06235434560299903,"155":-0.013176382731397113,"156":0.06678121596790988,"157":0.28153883664679535,"158":-0.04594773733610251,"159":0.056303120925580194,"160":-0.006067195792822969,"161":0.04563239358697435,"162":0.04640539381939927,"163":-0.038332461998185345,"164":0.03269179765913148,"165":0.04731338140000776,"166":0.3272836770861042,"167":-0.07261808762848034,"168":0.00921360665380568,"169":0.02879569150862781,"170":0.01180812937174904,"171":-0.024838533882920982,"172":0.01699630444789947,"173":0.006203222749643252,"174":0.11217711903269226,"175":0.3637404481174741,"176":-0.0032762284243734005,"177":0.06448372480231379,"178":0.03729544557321748,"179":-0.021269074024135515,"180":-0.006997821216639816,"181":0.009062085363158404,"182":-0.03944372548822589,"183":0.07452976581721316,"184":0.3840612009764992,"185":0.1621311625884878,"186":0.04113854772207562,"187":-0.013894811884263695,"188":0.03249980608012554,"189":0.00547976490958309,"190":-0.03701599859651013,"191":0.013540822589320867,"192":0.061621608338025845,"193":0.43726776667994127,"194":0.044447890070485344,"195":0.0027450901612914805,"196":-0.01938504241432953,"197":0.02075490395470206,"198":-0.026178789093854356,"199":-0.015191852381750358,"200":0.004834712036698828,"201":0.12264615782110083,"202":0.5762763829582126,"203":-0.1251054243390163,"204":0.012325230384237868,"205":-0.037609608638103205,"206":-0.0077132077192108225,"207":0.003800279384823707,"208":0.040481493675059294,"209":-0.0011633624133966815,"210":0.12688203462161732,"211":0.5961724427799179,"212":-0.23217478557531707,"213":-0.03634441701375406,"214":-0.012193435218915846,"215":0.021749970801923504,"216":-0.03260754640315283,"217":-0.0387853742282658,"218":-0.03411980498389516,"219":0.14594653449696932,"220":0.5184259972755274,"221":-0.5117290075569333,"222":-0.046368803412770776,"223":0.016938227442499933,"224":0.02495714247674283,"225":-0.02878130072268137,"226":-0.018927685232571698,"227":-0.019921267725584554,"228":0.10703380564843169,"229":0.40100612430536403,"230":-0.532925457023311,"231":-0.02524516392678782,"232":-0.02934198430450911,"233":0.011063011455053014,"234":-0.03795541404186074,"235":-0.022118817805331335,"236":-0.025129061956693087,"237":0.12802862240615354,"238":0.12327150539684235,"239":-0.5073863023039241,"240":-0.0500836326588446,"241":0.024602044009591557,"242":-0.029766043392959126,"243":-0.035947387499896656,"244":0.0014265700794046897,"245":-0.020833305671166636,"246":0.16729721957636362,"247":0.004245385658697652,"248":-0.5462717981514238,"249":-0.022351502480739218,"250":0.02651998729323271,"251":0.017157438345473675,"252":-0.012716902123833265,"253":-0.010990337679678693,"254":-0.039363938425528856,"255":0.05166304586885348,"256":0.0030997221707269786,"257":-0.5427708564231961,"258":-0.06504106321796323,"259":0.007501813507389645,"260":-0.003868717005142257,"261":0.005014485049075932,"262":-0.0013383611554548076,"263":-0.03519866594076988,"264":0.02599691462959584,"265":0.05823166284301881,"266":-0.5474413135914862,"267":-0.02728549963467671,"268":0.03759599458756104,"269":0.02145336979033328,"270":-0.01821483680635726,"271":0.023504846616143268,"272":-0.01066011193344179,"273":0.08788357136987275,"274":0.437414201779183,"275":-0.5419352828912816,"276":0.016459763444673176,"277":0.03915075967404769,"278":-0.033461175929096164,"279":-0.014176216727704713,"280":-0.002788065727334358,"281":-0.036352640636959185,"282":0.06349357490487281,"283":0.4204474886721507,"284":-0.5179712350304,"285":0.04063866661248163,"286":0.0045195010053192125,"287":0.03228546969917521,"288":-0.04079918997076378,"289":-0.004913761365744615,"290":-0.036875559067377287,"291":0.06114014325635786,"292":0.38117670646346036,"293":-0.5456161034896481,"294":-0.045605595618729816,"295":0.009651773178817043,"296":0.0023268855714126957,"297":0.014628682933006853,"298":0.0009792131941698192,"299":-0.033105611245317496,"300":0.02180969847399861,"301":0.36768425283880224,"302":-0.5333208254027605,"303":-0.009934656565845171,"304":0.017042736613929327,"305":-0.026810826846004814,"306":-0.006349987532989756,"307":0.008749155797886975,"308":-0.03045367280315769,"309":0.067364294234043,"310":-0.035843187956061735,"311":-0.5660357123424746,"312":0.01275437155794786,"313":-0.005769131874494554,"314":-0.037156217789860314,"315":-0.03459313104254918,"316":0.035666702901769466,"317":0.00284884418926612,"318":0.02091505485796831,"319":0.06735469578024486,"320":-0.07507967747041372,"321":0.0036921817491190616,"322":0.009685506876828063,"323":0.009121837480503655,"324":-0.005141711814016462,"325":-0.036628825376294985,"326":0.013264395333793243,"327":0.029439004337558562,"328":0.06561790366556869,"329":-0.07270606204094361,"330":-0.014713027897253214,"331":-0.032851587598886824,"332":0.020605001713282615,"333":-0.01884091368304883,"334":0.011848998646584659,"335":0.006318206094946635,"336":0.0630518157141103,"337":0.024261603573936433,"338":-0.023434082300823188,"339":-0.017177974684447664,"340":-0.02485555960372526,"341":-0.0024841910732245546,"342":0.03047190137371293,"343":-0.007757476457625685,"344":-0.018434802353174632,"345":0.0600955411292889,"346":0.05483718392210775,"347":-0.01442195793486027,"348":0.04919730556712942,"349":-0.010474964729705832,"350":0.005625173105573749,"351":-0.009003706497817173,"352":0.039545042936517005,"353":-0.008726091111124662,"354":0.027940505277632206,"355":0.013286361772766302,"356":-0.061638554356631764,"357":-0.036600219308177986,"358":0.021374697663137213,"359":0.057259850878379474,"360":-0.004048899379204139,"361":-0.011686457174195176,"362":0.004118538023253651,"363":0.024579697270238055,"364":0.05327206790259324,"365":-0.002965825115279341,"366":-0.012316918335610057,"367":-0.005562678343249532,"368":0.014510453377121934,"369":-0.031287614667537815,"370":0.005855547821599835,"371":-0.016596557572040708,"372":0.029478620296119196,"373":0.04463977923751918,"374":-0.04116233117667761,"375":0.02431449432787955,"376":-0.017815565752859717,"377":0.008268981061147283,"378":0.03457893622704126,"379":-0.015610955576561726,"380":0.005179113074012194,"381":0.010448355721874057,"382":0.07617048234462052,"383":0.004126327294444693,"384":0.0030227795516683765,"385":0.0003877552414984903,"386":-0.0026908523793921263,"387":-0.025683347453824,"388":-0.041390398180129004,"389":0.011950156521292487,"390":0.015324376767738214,"391":0.10809934929060795,"392":-0.026458255124941484,"393":0.016260388757119135,"394":-0.023149554701281782,"395":0.02096097281480708,"396":-0.05207529312127303,"397":0.014106634237404502,"398":-0.014348812948746893,"399":0.050167403975025816,"400":0.07497739675214783,"401":-0.053324413086562814,"402":0.07846299517175048,"403":0.0026218475470277235,"404":-0.038628877765313874,"405":-0.008655811036867734,"406":-0.00005388447071852784,"407":-0.008776221402202106,"408":0.025813951731111808,"409":0.09174268335209135,"410":-0.02621952406809779,"411":-0.04438604584001192,"412":0.03914889219242835,"413":-0.027873237286993553,"414":0.022617256906856995,"415":-0.029143198843136188,"416":0.0159089209262837,"417":0.03682845700377056,"418":0.0642774925810953,"419":-0.026979874358936614,"420":0.019800135190159673,"421":0.0056836879104930575,"422":-0.04326445824505437,"423":-0.012635425922363615,"424":0.009605074153023087,"425":-0.02716648875340451,"426":0.043954729913645914,"427":0.10370882999027704,"428":-0.006978293110208119,"429":0.01150790828699375,"430":-0.008139997195206182,"431":0.02258426637057225,"432":-0.013118152572550008,"433":0.012902272189460062,"434":0.03407605123822305,"435":0.06876694064947622,"436":0.1205645097780131,"437":-0.016716116406247285,"438":0.03172790678703538,"439":-0.024135082532365237,"440":-0.028313984101040614,"441":-0.021550679174208897,"442":0.0017684418117544334,"443":0.03471607546645433,"444":0.05356907576980155,"445":0.11847328211413705,"446":0.028055947226298228,"447":-0.011853701102326834,"448":-0.002401594554940744,"449":-0.019162876258388056,"450":-0.015445511338208047,"451":-0.005523954371946199,"452":0.005838716296076059,"453":0.048979685974270305,"454":0.14131635375630602,"455":0.011853824124824908,"456":-0.018917849555810606,"457":-0.03140452192737902,"458":-0.015613074134388793,"459":0.04336887717333121,"460":-0.022034466553838592,"461":-0.0019467966133658399,"462":0.07375701634384296,"463":0.14425503585918378,"464":-0.01825230514388016,"465":0.008893977175934615,"466":0.014066775583643238,"467":0.0024547373478890325,"468":0.05750203273119525,"469":0.03503293593905505,"470":0.004369476376499503,"471":0.1349456483103054,"472":0.14429627561272648,"473":-0.08228278044702524,"474":0.054370434495377484,"475":-0.01734698312165425,"476":0.04927149410498772,"477":0.00036409087125843754,"478":0.036729212117342765,"479":0.004841645268696922,"480":0.09845342723520988,"481":0.16809879755561052,"482":-0.1005358447901849,"483":0.0026437087571766224,"484":-0.03155557679331901,"485":0.007258095116540791,"486":0.0007388036180275196,"487":0.04134958388787326,"488":0.01865818497590076,"489":0.09754622564527514,"490":0.14355060559135818,"491":-0.09135749222438008,"492":0.011003874243625115,"493":0.031399766053032234,"494":-0.020367698783067607,"495":0.013233055709474341,"496":-0.010247617675658268,"497":0.048052130559079004,"498":0.06523596481904512,"499":0.07276922296033386,"500":-0.12346569998032643,"501":0.04285904898566375,"502":0.01697183849951884,"503":-0.020499572677625887,"504":0.017671152835046767,"505":0.02132605612280485,"506":0.023333804827878037,"507":0.08089306139998584,"508":0.047608394250301,"509":0.010954162063394536,"510":-0.009086178488113208,"511":-0.0008600350363130372,"512":0.00963126202012176,"513":-0.014654192502611721,"514":-0.002609558626832586,"515":0.058945495484095375,"516":0.07887395156739085,"517":0.003601820097202638,"518":0.037446705482166734,"519":-0.08187970751353423,"520":0.0260615131939837,"521":-0.050079732144446346,"522":0.018616949918045963,"523":0.015653268674415882,"524":0.027876140126762948,"525":0.031572366571631275,"526":0.09770701562905154,"527":-0.005395967012795988,"528":-0.033435980906394665,"529":-0.05013528035567947,"530":-0.03625623990432155,"531":0.0057907897005241545,"532":0.004774734388347303,"533":-0.004290064271645273,"534":0.026656997386603414,"535":0.08146051993842648,"536":-0.12826538892648634,"537":-0.031220661071995903,"538":-0.07594231619083072,"539":0.000819125785776626,"540":0.008070239030682052,"541":-0.0028393266723330274,"542":0.007126966266563586,"543":0.06100626720396639,"544":0.13128844224397282,"545":-0.33409127878075445,"546":-0.03721159318334731,"547":-0.05834101989413166,"548":0.04563582070374422,"549":0.03904850095313752,"550":-0.007624218668854521,"551":0.026025466524119464,"552":0.007962138327213774,"553":0.09150597554729506,"554":-0.41315547741622827,"555":-0.040859001011809164,"556":0.000246797219209346,"557":-0.04942837049341725,"558":0.028096153547412222,"559":0.02558167467521658,"560":0.00846174768726721,"561":0.009217601825403286,"562":0.02836625328236634,"563":-0.37993699172258627,"564":-0.04790713761507021,"565":-0.042233200820327825,"566":0.005304878332839652,"567":0.009560084417700213,"568":0.0015872643382212176,"569":0.01904424946742607,"570":0.058788822540747285,"571":-0.03182059755393827,"572":-0.47555490925873284,"573":-0.020276862992682634,"574":0.0013360815569562685,"575":-0.032511626092131915,"576":-0.01770661971754875,"577":0.03397981729389165,"578":-0.0013260367334477637,"579":0.05353668346740691,"580":-0.031388690899065666,"581":-0.3905180558501021,"582":-0.02699665677137499,"583":0.03131683236909735,"584":0.053937165791942354,"585":0.013165792606181222,"586":-0.023969542682376756,"587":-0.021495960672221863,"588":0.015598659074254687,"589":0.010391064070714284,"590":-0.4018803869310153,"591":-0.036315458987537824,"592":-0.02828446385758846,"593":0.030817954619707096,"594":-0.004135214662015438,"595":0.008336931549219955,"596":0.022976767173660637,"597":0.05146022861609929,"598":0.05774659986525063,"599":-0.4006377139382439,"600":-0.013268330683614674,"601":-0.03192017225184873,"602":0.009520334659976887,"603":-0.01875716731540179,"604":0.023417985441865272,"605":0.024914222827627078,"606":0.04587697484368447,"607":0.041623753960151486,"608":-0.4007948712016559,"609":-0.041286351566600606,"610":-0.018082786613987087,"611":0.007565737663490427,"612":0.01129893731545993,"613":0.002068886934832739,"614":0.006746503188568905,"615":-0.04213221760379301,"616":0.01829623626546967,"617":-0.3237421896046723,"618":0.001571970153824638,"619":-0.03016981785852812,"620":-0.02426594799478304,"621":-0.020882903968289495,"622":0.00545684130523908,"623":-0.015643967721736943,"624":-0.05199749206446223,"625":-0.0018895955757002412,"626":-0.13495959103415933,"627":0.02053340067053573,"628":0.026555164898088412,"629":-0.02179132601790108,"630":0.03785348516982096,"631":0.0345665979125916,"632":-0.06996440787035628,"633":-0.014360422413992182,"634":-0.0067159589220001275,"635":0.006469944458020192,"636":-0.009791913274123758,"637":-0.02626465699437931,"638":0.0569965736244221,"639":0.06270825712853358,"640":0.01801682314092431,"641":0.04574013308885425,"642":0.011099186555416127,"643":0.005657612463509269,"644":-0.007658170510050361,"645":0.01897340504101239,"646":0.018699769252562688,"647":0.08159498847451296,"648":0.09367953426103401,"649":-0.034202730462200195,"650":0.031348859874729754,"651":-0.025615725918058385,"652":-0.00020740867612538405,"653":0.0025377621449685465,"654":-0.0070434888385576995,"655":0.02314214359036035,"656":0.037194002908036615,"657":0.014848290281132067,"658":-0.027118376066918914,"659":0.03505154550858444,"660":0.014064205079600923,"661":0.010357424384046859,"662":0.030854809352940254,"663":0.007037272638808135,"664":-0.030072651263630776,"665":0.04653608804779016,"666":-0.02205015992334334,"667":-0.027987080583912843,"668":0.0024872977696449687,"669":0.023875159955084532,"670":-0.004798837847104424,"671":0.039474904954927524,"672":-0.00030335814788240315,"673":-0.022066315525750422,"674":0.03133972008127697,"675":0.020311123270573946,"676":0.007314974148290831,"677":0.023339782361764375,"678":-0.033187991126135394,"679":0.012913238995981527,"680":-0.03523373639118602,"681":0.001975359168752483,"682":0.013640626913287974,"683":0.0446488580071793,"684":0.03627448240979297,"685":-0.03642553231791989,"686":0.032312707501543234,"687":-0.04290096112322969,"688":0.010907669762161284,"689":0.060392717890196346,"690":0.015826156328446733,"691":0.0551184448693412,"692":0.07600080329074738,"693":0.07563796086269314,"694":-0.013922804023927277,"695":0.06568036827499704,"696":0.02451245561645291,"697":0.017882183893073417,"698":0.009277360988589198,"699":-0.006520889575327177,"700":-0.0013769938299885176,"701":0.0846002970315337,"702":0.10622607157507834,"703":0.0025387389994834175,"704":0.03670539741154237,"705":0.03673128631096012,"706":0.01864063008803973,"707":-0.03584334435320436,"708":-0.0017985296011578734,"709":0.049184989192913926,"710":0.08402553927522799,"711":0.09516010217978307,"712":-0.0036120280110620317,"713":-0.017625949625678785,"714":0.034720229609749985,"715":0.026827704984768788,"716":0.022887097989480604,"717":-0.023253944560053152,"718":0.010237585149321967,"719":0.034457928915101264,"720":0.04639542704078233,"721":-0.015426175712188442,"722":-0.015090246001371077,"723":0.010698886990540541,"724":0.02229214191867747,"725":0.032710572709928096,"726":-0.017325609136852275,"727":0.0071388244509557825,"728":0.03957539743956211,"729":0.03879375965736874,"730":-0.00911261372851249,"731":0.018092583777723166,"732":-0.013745498430452826,"733":0.018960258378228952,"734":-0.003804323536152379,"735":-0.0010856087902146253,"736":0.025530281282680044,"737":0.046127075230133686,"738":0.011528867661718938,"739":-0.01697193609494079,"740":0.017566751569980645,"741":0.010898728832606546,"742":0.029829637227572755,"743":0.00437447926328351,"744":0.010608476291093804,"745":0.0010394783242957896,"746":0.053018236971153716,"747":-0.01139572005158775,"748":-0.0277783160276283,"749":-0.013503201611197925,"750":-0.00107742365578799,"751":0.003597476230954378,"752":-0.012045979781937315,"753":0.010880950248790667,"754":0.03604080603484986,"755":0.06976537245191024,"756":0.010279184842388147,"757":-0.05958609888668134,"758":0.050181074915255086,"759":0.005940966082177659,"760":-0.021332964119054595,"761":-0.016846882770275233,"762":0.012754058753610268,"763":0.035404652185943734,"764":0.07244369586935184,"765":0.0274793162865097,"766":-0.05395308329521015,"767":0.0418260516524572,"768":-0.028724521710816707,"769":0.012228336336419102,"770":0.02490755360284208,"771":0.016959526104630286,"772":0.01501731903572808,"773":0.006507303718161009,"774":0.04430196528043846,"775":-0.027503462111367352,"776":0.005120695297059671,"777":0.043065775407823484,"778":0.029222818076796993,"779":-0.017689197371453854,"780":-0.03708346786712236,"781":0.07058304738640239,"782":0.0016274886952432636,"783":0.01179735576231996,"784":-0.06380756551988685,"785":0.020095069067534117,"786":-0.0014315016039204783,"787":-0.023331381034081694,"788":0.04981751854462866,"789":0.037951113949139394,"790":0.03851654168298032,"791":0.07565854617798068,"792":0.0322242300687716,"793":-0.045960177918772334,"794":-0.022535248534471836,"795":-0.01551313023094787,"796":0.019102905899883248,"797":-0.0005654265202354521,"798":0.001496109747737148,"799":0.011562125561639897,"800":0.032751743953239924,"801":0.06764277569524804,"802":-0.1079845977416706,"803":-0.05535256118577443,"804":-0.03113350722365483,"805":0.022884966906966103,"806":0.030829835585783304,"807":0.032658372695670616,"808":-0.016319688621857693,"809":0.0038700673079259296,"810":-0.040567437864490616,"811":-0.1437939687892823,"812":-0.03061194925612525,"813":-0.029930210643395558,"814":0.01909212970854868,"815":-0.010823866165033759,"816":-0.05394349535130273,"817":0.027872854264793,"818":0.03959604235452998,"819":-0.05315992492275341,"820":-0.16820877556759617,"821":-0.0461058462904125,"822":0.06081832270603846,"823":0.0004287422854974988,"824":-0.007593770689631636,"825":0.04176165623438397,"826":-0.0014231037038702936,"827":0.02748463817301158,"828":-0.020611616832404863,"829":-0.10844979110280267,"830":0.00015997589499197498,"831":-0.009343615127271691,"832":-0.0013492074903542774,"833":0.005504970257847747,"834":-0.009094120317450804,"835":0.007790492372321518,"836":0.00012063355447091228,"837":-0.021853317642210546,"838":-0.07666064461929753,"839":-0.07676047399984921,"840":0.00848870137659825,"841":0.025639140379463115,"842":-0.005047780102189297,"843":-0.010659452286032566,"844":-0.008462671330645004,"845":0.035031200064228635,"846":0.05088723130357814,"847":-0.035492842067344606,"848":-0.05855735040579464,"849":-0.008091225169695392,"850":-0.008931267886010537,"851":0.004909049367633769,"852":0.029869914721296045,"853":-0.044551901120101725,"854":0.02515035018679369,"855":0.05836786525009312,"856":-0.0849651304577759,"857":-0.08815590319218203,"858":-0.015916057343738393,"859":-0.018793330882073578,"860":0.00978505454105586,"861":0.0066680253974762925,"862":-0.002760251492735033,"863":0.018444374337863688,"864":0.0510176968843587,"865":-0.06316731218404753,"866":-0.06988890971728595,"867":-0.01903800856861416,"868":-0.020738857785119094,"869":-0.04405889085811273,"870":0.0015649475827371948,"871":-0.0049914905938070585,"872":0.0017955366230018,"873":0.066210889688136,"874":-0.1404927340584546,"875":-0.015749103086712547,"876":-0.04069231025397743,"877":-0.03210808965855222,"878":0.002565094099091624,"879":-0.014164147309855457,"880":0.020325126791421094,"881":0.012780437201948276,"882":0.040370765653253635,"883":-0.22435738786712459,"884":-0.0766095005303913,"885":-0.035762172738807906,"886":0.02043923365630296,"887":-0.0025278991826868974,"888":0.006110927942390197,"889":-0.04091556760951442,"890":0.031721623206315025,"891":-0.006543208474722538,"892":-0.19338224273347396,"893":-0.05970961989728017,"894":0.012567553197975478,"895":-0.01385900567639298,"896":-0.05234098721487694,"897":0.016654477093500205,"898":-0.009178799971987934,"899":0.010649282969995988,"900":0.005559554750869962,"901":-0.22171639655978065,"902":-0.07151344852433224,"903":0.04071145532631976,"904":0.02632910727285721,"905":0.0200684305775741,"906":0.050516655671835664,"907":0.05100873408057813,"908":0.032951059830751736,"909":0.012749374464079333,"910":-0.21194144638835347,"911":-0.015903772666530543,"912":-0.0033371379394409534,"913":-0.01256149716516597,"914":0.028758000332798087,"915":0.020642345479755294,"916":-0.05389275552825624,"917":-0.015669688551534684,"918":-0.008490514241073324,"919":-0.1868075449226224,"920":-0.030215329942173033,"921":0.0219104210489749,"922":-0.025900311043106892,"923":-0.007327017345465752,"924":0.023604382865248626,"925":-0.027420617684244926,"926":0.03969361960664179,"927":0.0075632245864497285,"928":-0.1524764637487111,"929":-0.026807770714200117,"930":-0.03646568875379612,"931":-0.04261105891242035,"932":-0.05589403076957929,"933":-0.003088269291031104,"934":0.06046307283873708,"935":0.0035209264981914254,"936":-0.046302248362970005,"937":-0.10239508000617967,"938":-0.011780996899810645,"939":-0.007286153253829264,"940":-0.01875811088611143,"941":-0.055695068768741064,"942":-0.004571283304828199,"943":0.0028418150130531572,"944":-0.030573464196924992,"945":-0.03005427313595841,"946":-0.07493687241084776,"947":0.00918999133831371,"948":0.015327291188392923,"949":-0.016867941625865437,"950":0.0039638872911898744,"951":0.04878331512887224,"952":-0.040945946577440315,"953":0.026446224443923968,"954":0.018307011905778693,"955":-0.007149463788726031,"956":0.010116468701143869,"957":0.030535511950344305,"958":0.016283462157885103,"959":0.04842867557191134,"960":0.007275449945174668,"961":0.03882410984609853,"962":0.0015615994010157177,"963":0.006639253202509876,"964":-0.022286951478077615,"965":-0.0009991252640527966,"966":0.0030479100126344374,"967":0.04390300117438388,"968":0.10247381519684069,"969":-0.019960782209988606,"970":0.0333879513972951,"971":0.011612562498575216,"972":0.008388905872825215,"973":-0.03140101868451506,"974":0.029052391428981545,"975":0.013780724966943802,"976":0.08173726137690471,"977":0.0018985013511235514,"978":0.025082570080438002,"979":0.04302561576766629,"980":0.021016186788432152,"981":0.007686705982734251,"982":0.015106202382513416,"983":0.02144482888085996,"984":-0.025522077650052724,"985":0.06321450884069416,"986":0.01973895698569749,"987":0.03235853151689166,"988":0.0695383334991797,"989":-0.025168609974168303,"990":-0.03135226024623357,"991":0.0066719361669907995,"992":-0.012962577372180152,"993":0.035127321763703756,"994":0.04334238973071531,"995":0.04732495585421542,"996":-0.001191270922507749,"997":0.045189911331398866,"998":-0.01839972125921864,"999":-0.0008649476500735299,"1000":0.016491955981777214,"1001":-0.03022546952030539,"1002":0.04921239560366044,"1003":0.01342704466760328,"1004":-0.004535723639412662,"1005":-0.013340043001319262,"1006":0.0040128015585507186,"1007":-0.002489532295320743,"1008":-0.02095048648784421,"1009":-0.05430284405156952,"1010":0.015050842942345218,"1011":-0.029101286050551307,"1012":0.04342922875981702,"1013":0.01078687969198582,"1014":-0.015196453162540901,"1015":0.03962581001894391,"1016":-0.00592351801899191,"1017":-0.012069044052863643,"1018":0.035478554500938064,"1019":-0.011213938359318778,"1020":0.012734858950104398,"1021":0.022961681760393676,"1022":-0.031686060695182636,"1023":-0.04520045744173461,"1024":0.06142725090273887,"1025":0.0155229462419234,"1026":-0.024461249759199617,"1027":-0.02105104162860741,"1028":0.031963608940537694,"1029":0.0008092056451057814,"1030":0.014297377605246573,"1031":0.027676531898842317,"1032":-0.017502787668363905,"1033":0.020545366744882342,"1034":-0.023852894542485896,"1035":0.0344177586104107,"1036":-0.0016631050641983383,"1037":-0.014459118604288723,"1038":0.023700928579584418,"1039":0.019098155868472796,"1040":-0.008843859079868401,"1041":-0.03303608154877841,"1042":-0.022711557446546776,"1043":0.026899537963214953,"1044":0.010884999926785455,"1045":0.01326219843294899,"1046":0.015280453109017576,"1047":0.022262299946522165,"1048":0.019007392049773714,"1049":-0.0019417079773254343,"1050":-0.03998692004392632,"1051":0.007258411500032341,"1052":0.03807470095484403,"1053":-0.04609146962860099,"1054":0.01189080377778689,"1055":0.016674511380083187,"1056":0.000313571070220194,"1057":0.06757232544352679,"1058":-0.04285643221533297,"1059":-0.015238217801898884,"1060":-0.0000612696667756255,"1061":0.026429463519034448,"1062":0.029213802799322997,"1063":0.0058652592633302355,"1064":-0.02526973450680942,"1065":-0.0032459559595846414,"1066":0.004997521523717681,"1067":-0.04931659270408811,"1068":-0.010752420843441947,"1069":-0.033193639786095366,"1070":0.05181618827401699,"1071":-0.0017204700768658928,"1072":0.021770634977084036,"1073":-0.0333619594854098,"1074":-0.022186253217089637,"1075":-0.018617248570740656,"1076":-0.009820902754981828,"1077":-0.059973003279029616,"1078":-0.02004791548234735,"1079":-0.012859293884576595,"1080":-0.00906097785832625,"1081":-0.018322922135690884,"1082":-0.015613413854040708,"1083":0.009614127660422358,"1084":-0.028913856031056232,"1085":-0.04242928539049547,"1086":-0.06745709954035693,"1087":-0.01409715851146865,"1088":0.004701503105798278,"1089":0.02684971067602536,"1090":0.007843275294582626,"1091":0.021086811110006175,"1092":-0.050676568590067084,"1093":-0.012349661227802846,"1094":-0.056859715819475375,"1095":-0.0018769818661230463,"1096":0.02046210293438506,"1097":0.01035322243753982,"1098":0.029788296470583602,"1099":0.005018359811283215,"1100":-0.013520022304416367,"1101":-0.03642281417590081,"1102":-0.0028152040709178553,"1103":0.020319083336792176,"1104":-0.009953692421981863,"1105":0.018393350470935814,"1106":-0.03190027761625577,"1107":0.028087629310281467,"1108":0.010001473599517039,"1109":-0.032333573824868914,"1110":0.016096437417656335,"1111":-0.022246366141610626,"1112":-0.054661550605081904,"1113":-0.04753653338066488,"1114":-0.04335435127200074,"1115":-0.009324028451441379,"1116":-0.01813642627648498,"1117":0.0000610942302152928,"1118":0.00529192535466148,"1119":-0.01647872167030163,"1120":0.005269222709366452,"1121":0.019689450124374366,"1122":-0.013394653597407371,"1123":-0.04165114676486733,"1124":0.007163444307518659,"1125":-0.03596658246352089,"1126":0.01093216511191272,"1127":0.021465569298548325,"1128":0.03215640963384469,"1129":0.0311581423016598,"1130":0.021904035651951,"1131":-0.08205234775878802,"1132":-0.06846210128019908,"1133":-0.03459859677878461,"1134":0.022074375840867612,"1135":-0.004745234786147504,"1136":-0.007495778697696826,"1137":0.05981725361237691,"1138":0.0008611252386053296,"1139":-0.027849347592768886,"1140":-0.07295366081657385,"1141":-0.0601691530696764,"1142":0.00078346975633334,"1143":-0.01976003442216113,"1144":-0.045023805429651946,"1145":0.005646840582359996,"1146":0.015781429849176392,"1147":-0.06422590240981824,"1148":-0.04422259756157712,"1149":-0.045341947413108236,"1150":-0.030519608784722173,"1151":-0.015344703804994147,"1152":0.004809653280010252,"1153":-0.0070154571958617054,"1154":-0.008905033262612555,"1155":0.008784403014539276,"1156":0.0059109172646889235,"1157":0.010397503934221782,"1158":-0.031077816123078673,"1159":-0.050033836310423574,"1160":0.018575638692441002,"1161":-0.024513311435659803,"1162":0.022770838361272683,"1163":-0.003740949428200965,"1164":-0.032914518473474486,"1165":0.020348278267741524,"1166":0.04340558674085489,"1167":-0.0854153466064813,"1168":0.0009062410207157839,"1169":-0.0036715281915416335,"1170":-0.010017525741352359,"1171":-0.008616446228757043,"1172":-0.009709982004834534,"1173":-0.020066057346566985,"1174":-0.019787159789885385,"1175":0.06764430362199367,"1176":-0.04188739605355675,"1177":-0.04963848458090631,"1178":0.021793619953396046,"1179":-0.005218098029958734,"1180":-0.02347681400355125,"1181":-0.008415407957625536,"1182":-0.010641947552192553,"1183":0.032762919929508416,"1184":0.04256881970148555,"1185":0.0011540505892805285,"1186":0.010818141888550967,"1187":-0.010806846193648889,"1188":-0.02338213331395104,"1189":-0.008541438763589797,"1190":-0.03371638622385041,"1191":0.023662161782035493,"1192":-0.038962674614203836,"1193":0.09643078151021174,"1194":0.013767189390428272,"1195":-0.040966191773591155,"1196":-0.03547721887859319,"1197":-0.015419711904766325,"1198":0.010266991649953108,"1199":0.017206166240232773,"1200":0.00013140807465031586,"1201":0.039732651161832604,"1202":0.008701383412224843,"1203":-0.011916293249932016,"1204":0.007878428464997107,"1205":-0.01862334140512126,"1206":-0.015740536787907256,"1207":-0.014430051006748568,"1208":0.03125917838450487,"1209":-0.03947045570833386,"1210":-0.012392633960201615,"1211":-0.015432006300120208,"1212":-0.04714018991164958,"1213":0.007443978301263959,"1214":-0.02745066651092711,"1215":-0.01391277878760591,"1216":0.017100493787612064,"1217":-0.03798909847152817,"1218":-0.0221987357016726,"1219":0.046962198504016735,"1220":-0.00814601159561014,"1221":-0.05882130917469001,"1222":-0.04709334402596295,"1223":-0.008222035102379024,"1224":0.008421973021441785,"1225":0.030483814245169653,"1226":0.014040177277046194,"1227":0.011734957537141131,"1228":-0.021976100971151536,"1229":0.01633846388224089,"1230":-0.03442108142744056,"1231":-0.03961405972914122,"1232":0.028067943417321977,"1233":0.005735420763722854,"1234":-0.002241123872813859,"1235":-0.011456107130584411,"1236":0.003768152750541205,"1237":0.018708033916636807,"1238":0.04510962225280923,"1239":-0.06273842121704645,"1240":0.0024737852489009242,"1241":-0.028936362799478248,"1242":-0.03385587925977295,"1243":-0.01822917719312737,"1244":-0.016780420393900375,"1245":0.014253886501658656,"1246":-0.0278599308755516,"1247":0.0035492629334057274,"1248":-0.09870481001563913,"1249":0.025847855506557302,"1250":0.014883729160217133,"1251":0.020190619695779007,"1252":-0.03228523695705405,"1253":-0.037255004436309865,"1254":-0.002088631778654525,"1255":0.0019011228969724155,"1256":0.0224949337535719,"1257":-0.07861934139669921,"1258":-0.07735449669064157,"1259":0.0025536379006931577,"1260":-0.031359351233719586,"1261":-0.03427568477887876,"1262":0.010038516865468392,"1263":-0.019747644693837583,"1264":-0.008318692751474033,"1265":-0.034397429425743024,"1266":-0.14829893802451988,"1267":0.00974980878876799,"1268":0.027974666562500864,"1269":-0.00913648532494098,"1270":0.02580889453645617,"1271":0.035066868202799195,"1272":0.01901717353325189,"1273":0.011589694373500251,"1274":0.029982266868532174}},{"sx":1,"sy":1,"depth":1275,"w":{"0":-0.0339125119223404,"1":-0.02056478995181164,"2":-0.00549270325543781,"3":0.007449696892665912,"4":0.033664377324637035,"5":0.01045000399795111,"6":-0.014373425495958794,"7":0.08709300592514112,"8":0.015600563676000679,"9":-0.03500339744534676,"10":0.01122226773146938,"11":-0.013979538026313148,"12":0.029669841632687526,"13":-0.019074660632586525,"14":0.0024885575952586867,"15":0.00799297936449319,"16":-0.017011761860789072,"17":-0.045995214268234615,"18":-0.06807888775873441,"19":0.012042504793513011,"20":0.007215971217943549,"21":-0.026164738014964127,"22":-0.0005274125144802409,"23":0.06943425035312897,"24":0.03339193440593315,"25":0.004203375408740391,"26":-0.01886742706792854,"27":0.03301959649210371,"28":-0.04280579382543371,"29":0.0509906386803361,"30":0.03261384762179649,"31":-0.03253695498833607,"32":-0.04006978586058083,"33":0.02130549068706921,"34":0.0006813500350303079,"35":-0.05282531605490891,"36":0.014106113740748126,"37":0.009213548058787668,"38":-0.051201376006622536,"39":0.026868027172536196,"40":0.03301288427768241,"41":-0.0062410085122671256,"42":-0.024078724713596275,"43":-0.0007153550471639712,"44":0.018553138147688192,"45":-0.015852422845029794,"46":-0.0055902023992440986,"47":-0.011070985793870364,"48":0.006674065622811038,"49":0.016604593724451555,"50":0.003449489353546422,"51":0.005386667619677024,"52":-0.03474079642785578,"53":0.01483317273107276,"54":0.016559841074627053,"55":0.027086474324570623,"56":-0.006138405860855615,"57":0.018379239058050043,"58":-0.01233490167165822,"59":-0.005394507772431854,"60":0.01976028260186974,"61":0.017981901139888453,"62":0.03610998367080962,"63":-0.05934975863841016,"64":-0.05524088651726237,"65":-0.0055087149203172595,"66":-0.0010461067840999189,"67":0.019047972604284733,"68":0.0059656395748003185,"69":0.030017934071994077,"70":0.0014688933318646516,"71":0.0034965316378373643,"72":-0.0043680792675223675,"73":0.0284771630563681,"74":-0.05266518272178533,"75":0.022477144093668466,"76":-0.016746891340470044,"77":-0.017667050826130244,"78":0.0009967353519197222,"79":0.015149185598070413,"80":0.0033092169501777817,"81":-0.024233680570291006,"82":0.010797151536171105,"83":0.011793276629101498,"84":-0.002883404959261064,"85":-0.026648982956000867,"86":0.01961378191868097,"87":-0.012156398139252272,"88":-0.002814644109466164,"89":0.007460248996632823,"90":0.02747165868320081,"91":-0.011401957738256458,"92":-0.00617573370606214,"93":-0.010855594831934138,"94":-0.016641965202969525,"95":-0.0007231628735949164,"96":-0.024982863423199195,"97":-0.06246182120351565,"98":-0.0228335736944145,"99":0.030603278314224144,"100":-0.029105431587367815,"101":0.027369639983309744,"102":0.023885721481644296,"103":0.003723063125152471,"104":-0.007716478145633259,"105":-0.007874799982437267,"106":-0.030024823786498688,"107":-0.01852654639175814,"108":0.01607847452787928,"109":-0.028219029509985148,"110":0.012547610400620886,"111":-0.028595066607462846,"112":-0.0069739170265501445,"113":0.007215191995749703,"114":0.01717937730108285,"115":0.02863861873289853,"116":-0.055322270383982,"117":-0.0007370286874272833,"118":-0.002094658033877576,"119":-0.03354396877276858,"120":-0.001371845938588315,"121":-0.008025710772109215,"122":0.004754587967001159,"123":0.003989586512459915,"124":0.02602209527482881,"125":0.014798677240583548,"126":-0.025207234159513234,"127":0.006043568905226383,"128":0.014933298630139166,"129":0.0157269540800963,"130":-0.01197148560778303,"131":0.009300318005360162,"132":0.014909488494758856,"133":0.024164633404381606,"134":-0.038239837901452634,"135":-0.0028252141224029536,"136":-0.011168493807144287,"137":-0.01755964724440475,"138":-0.003545815769914161,"139":-0.025558991142284222,"140":-0.013227500770307628,"141":0.010912127877476595,"142":-0.01924501522190625,"143":0.015552189689339113,"144":-0.012503217322041156,"145":0.0019265738676210447,"146":-0.0023904279713523476,"147":0.04004213961412289,"148":0.016758113325575814,"149":-0.024572351184569997,"150":-0.023863925754520995,"151":-0.021213004645818722,"152":-0.023775620844632157,"153":0.0022008829447248373,"154":0.001516602735248213,"155":0.03764867793572829,"156":0.0576130615352684,"157":0.0016717019875123545,"158":0.03652549382819674,"159":0.03295983589172458,"160":0.008819374007454476,"161":-0.030629740355986795,"162":-0.00843199762533029,"163":-0.027461401107116642,"164":-0.006293542251906934,"165":0.020991218928339855,"166":0.0029959086482230723,"167":0.005774719700125888,"168":0.010878254629048137,"169":-0.0039060628860912816,"170":0.011878990469041572,"171":-0.007189082308757781,"172":0.03431596187103429,"173":0.01871827623974961,"174":0.011524688130754765,"175":-0.025554093841431792,"176":0.04548755800750396,"177":0.051575157314149314,"178":-0.03350736463290156,"179":-0.010162537532136303,"180":-0.01192807104224628,"181":-0.009104966978094401,"182":0.015131057222712274,"183":0.042288992552738755,"184":0.009301569776725669,"185":0.02478444306959603,"186":-0.02678012666324316,"187":-0.015523995123182996,"188":-0.0198103407591138,"189":-0.022187986842657367,"190":0.015401084276741979,"191":-0.0047845187682171745,"192":-0.015932681900987858,"193":0.0001992409454014071,"194":-0.004966685253213799,"195":-0.0022966655861984815,"196":-0.02319637246889691,"197":-0.0036929445826344,"198":0.004003754682008009,"199":-0.015437199436244933,"200":0.009864031284926737,"201":0.045268535980329906,"202":-0.05847981975486057,"203":-0.004614521247814529,"204":-0.011037215172909063,"205":-0.03977681060023801,"206":-0.012583499464540618,"207":0.005104059411642034,"208":0.015816086263749005,"209":-0.0005534796353159174,"210":-0.01746687695377967,"211":0.04761790298416096,"212":0.03087499871974409,"213":0.03288336462601335,"214":0.015593324365016968,"215":-0.015905414409276272,"216":-0.01098406575324347,"217":-0.02694459999366003,"218":0.014800155750158623,"219":-0.04290384192619034,"220":0.05807920357431831,"221":0.007786572946992959,"222":0.014349195651180277,"223":-0.013060459929613416,"224":-0.006714500733170799,"225":0.0023528972018435367,"226":0.0009189001845059941,"227":-0.042425980299514485,"228":0.0029983174135963207,"229":0.020321941606475026,"230":-0.0069556662560398665,"231":-0.011915533982556632,"232":-0.0008677154160568615,"233":0.022066768330367036,"234":-0.024433950632651805,"235":-0.010485261213377802,"236":0.00023595758724369385,"237":-0.029010436733077138,"238":0.001616801235337383,"239":0.02722186537200861,"240":-0.03195326979500524,"241":-0.02621001936594868,"242":-0.005278686066095473,"243":-0.009111921394532402,"244":-0.03169421509674633,"245":0.023287577839385648,"246":0.011040967548019113,"247":-0.003805649404896212,"248":-0.014409039379610878,"249":0.04084643357917928,"250":0.040088528530891794,"251":0.018738419107703328,"252":0.02886008776241699,"253":-0.0010920799507084843,"254":-0.005630883523995772,"255":0.008522063359844593,"256":-0.006571087349813081,"257":0.03549294430491703,"258":-0.03475315910153116,"259":-0.05354502614274923,"260":-0.05928959787080606,"261":0.009185730078172106,"262":-0.0668987219454275,"263":0.00913240311506428,"264":0.014210906149865763,"265":-0.030518310186261808,"266":-0.022349866668012815,"267":0.008883558477895162,"268":0.013833339213939314,"269":-0.05267234528478417,"270":0.009037518739938232,"271":-0.02583660456833708,"272":0.005225294952129814,"273":0.022829000456716864,"274":-0.015994251736198343,"275":-0.053763926940444684,"276":0.012508172192258585,"277":0.01828005671697807,"278":0.029866651551631644,"279":0.008171568364326308,"280":0.008027110700482627,"281":-0.03146950554322274,"282":-0.020447234973542425,"283":0.021923266938939572,"284":0.0002679949361446869,"285":-0.006635720364846342,"286":-0.08009194800257127,"287":0.015661790326382048,"288":0.0009418380987144622,"289":0.008347731572498969,"290":-0.02971566880345153,"291":-0.00019635734942687242,"292":-0.0019422180993130186,"293":-0.012211251144152977,"294":0.025044668809861656,"295":0.00817223862847296,"296":-0.002774710051896442,"297":0.003504187643902546,"298":0.02158616537590677,"299":0.022869477036258194,"300":-0.004577684581555961,"301":0.0006020018519516957,"302":0.03381821389658933,"303":-0.03204472748462291,"304":-0.020079959203779602,"305":-0.0008079658650802063,"306":0.0018298251909372387,"307":0.02579160197045078,"308":-0.0037989135859577954,"309":0.027265500579625148,"310":-0.01962091124374577,"311":0.03258978863237134,"312":0.026384843188938745,"313":0.01048389711958179,"314":-0.033013997689786655,"315":-0.011158360403866875,"316":0.025578345659034732,"317":-0.055315027261905715,"318":0.03223321996963245,"319":-0.029073594203871306,"320":-0.0016965837102176436,"321":0.006163853151951688,"322":-0.023237736221372568,"323":-0.0015567334051972863,"324":0.013459131453182706,"325":-0.01354625640755617,"326":0.002299881641559806,"327":-0.0020201362659913514,"328":0.004981955937254436,"329":0.02539201097820328,"330":0.007495673229797,"331":-0.011266161984115628,"332":-0.032755852252158685,"333":-0.008333891289050318,"334":0.028405261257581284,"335":-0.03366462309293777,"336":0.0009169077204463807,"337":0.01864738468326891,"338":0.0004288503729086064,"339":0.00564196993032354,"340":-0.03191530703154307,"341":-0.005621792044820817,"342":-0.029521162843214405,"343":0.01967684333230951,"344":-0.025143918472291905,"345":-0.0017169086823036579,"346":-0.03151773050670768,"347":0.038105281723045135,"348":-0.00000830110753549773,"349":0.04978305132941535,"350":0.021913339138404625,"351":0.0022330779002501418,"352":-0.021711963824053358,"353":0.017308112825849147,"354":0.01917482044072603,"355":0.01133995832542421,"356":-0.02782985184199437,"357":0.012617578282791444,"358":-0.016522954297868618,"359":0.019893467700801595,"360":0.005915924098610443,"361":0.017083732930254607,"362":0.015531661503239392,"363":-0.023104747447633404,"364":0.004354007238316775,"365":0.05396929772966946,"366":0.02206821923388369,"367":-0.0022147134553885937,"368":-0.001318551324747647,"369":-0.012556848825400231,"370":-0.023092115374950803,"371":-0.03521946142299425,"372":0.003553473646782744,"373":0.033862055124112805,"374":0.006188055969216361,"375":-0.009159760364370535,"376":0.0023414200171497047,"377":0.025708587127820287,"378":-0.010760003862148535,"379":-0.03314064677260799,"380":0.014104540543790012,"381":0.00574669308229049,"382":-0.031381238124507244,"383":0.0065175011698475225,"384":0.04613983103017322,"385":0.008583533080117181,"386":0.044573146314887784,"387":-0.03754927183253698,"388":-0.010577278534304332,"389":-0.04734111098201685,"390":0.04788236278579457,"391":-0.004586014022811386,"392":-0.06361926063693102,"393":0.021276151128315636,"394":-0.014534542437079093,"395":-0.008173640393902703,"396":0.03724530497133915,"397":-0.021220775596239787,"398":0.01048107836171103,"399":0.008331696305117176,"400":-0.0031688560842427663,"401":0.00623045831748218,"402":0.02073653981924164,"403":0.023008400955614232,"404":0.003666495933135897,"405":0.014578688227276902,"406":0.023720232048870287,"407":0.019847164020738512,"408":-0.016026373952278326,"409":-0.02144835145663505,"410":-0.010967311731980053,"411":0.019227907901923687,"412":-0.0052512201047328995,"413":-0.029939544677230565,"414":-0.008819576635610981,"415":-0.021902460604522642,"416":-0.023121511114212255,"417":0.0009256757810448691,"418":0.009678149279079439,"419":-0.027544513002789532,"420":0.017796633356795204,"421":0.032028151892454663,"422":-0.008720568585130734,"423":-0.00786373887323999,"424":-0.021299765810752658,"425":-0.031805076907264127,"426":-0.020493494096475377,"427":-0.02973196842019282,"428":0.005165749490810914,"429":0.011502201498656479,"430":0.009538559315053997,"431":-0.02142105642021529,"432":0.030536215500180108,"433":0.07089826371337024,"434":0.027134407473736653,"435":0.004678738185316151,"436":0.020673414599198203,"437":0.022387023605846105,"438":-0.03075671455057998,"439":0.030983063507857792,"440":-0.010181045969155195,"441":-0.04032654492063436,"442":0.02340040315467038,"443":0.004759943388548929,"444":-0.02447503721695102,"445":0.014002569607604187,"446":0.028276895153522687,"447":0.0029591227497014895,"448":0.011094252311237788,"449":0.011278045996705077,"450":0.037439083294716534,"451":-0.018071851180567616,"452":-0.026687028082569918,"453":-0.00938454189945312,"454":0.01122650332770993,"455":-0.010507958365086676,"456":-0.049264315859456134,"457":-0.022397427752606443,"458":0.035725494158923274,"459":-0.006235164861881205,"460":0.003984064928112762,"461":0.0328448169519172,"462":-0.012113156775342523,"463":0.03129882290400456,"464":-0.005022866850582492,"465":0.02630896749305516,"466":0.00737248012506567,"467":0.023474103872115765,"468":-0.04712178461713053,"469":0.00026335306156841695,"470":0.009425583936238754,"471":0.016388963101816617,"472":0.008704684301171984,"473":-0.02095038630105573,"474":0.0015111349765275154,"475":0.03628505802681138,"476":0.0009492902999806898,"477":0.0046209862801481275,"478":0.021845238093050477,"479":0.02054802091954889,"480":0.034318612370139785,"481":0.02039326766159749,"482":-0.0203441560419379,"483":-0.007313733307361854,"484":-0.02768873019225193,"485":0.016242367833020896,"486":-0.03717783591139578,"487":-0.030632200120124693,"488":-0.01947124322121074,"489":-0.02595837679877476,"490":0.03066974116933936,"491":0.008759797271543471,"492":0.006422494213527426,"493":-0.005127183229342963,"494":-0.006712002726016607,"495":-0.029764152517087365,"496":0.06230492414699902,"497":0.00025622343499342976,"498":-0.0013870684816925526,"499":-0.0030258064042003557,"500":-0.02080939763335838,"501":-0.008901904739596504,"502":-0.02181324931459289,"503":0.024164758131568435,"504":0.02245485563940015,"505":0.004945967490957687,"506":-0.011841691968927684,"507":0.003348316074105885,"508":-0.02229583448306707,"509":0.038079936243131704,"510":-0.009742021013168126,"511":-0.04550905807960794,"512":-0.04613223676705718,"513":-0.005955283916184966,"514":-0.0018818572094559194,"515":-0.02696282403595161,"516":0.00036842858773564115,"517":0.0013969150697980886,"518":-0.02635311436754805,"519":0.025655986871213086,"520":0.009401687963428215,"521":-0.03458673981142612,"522":-0.028367289833467202,"523":0.03896399818221774,"524":0.02912726536193208,"525":0.001505453715619133,"526":-0.008553513501818332,"527":0.0569436479761851,"528":0.005950446819419186,"529":-0.007345776751435741,"530":-0.023863339795827505,"531":0.027906926159223553,"532":0.003545411668953266,"533":0.004385217227122627,"534":-0.01802206057106987,"535":-0.03254933882104832,"536":-0.012933325049137544,"537":0.01397984396935683,"538":-0.0041259097533613434,"539":0.030702822641920636,"540":-0.009538220072816142,"541":0.003334511834340222,"542":-0.006275533423385431,"543":-0.008969450130463215,"544":0.022577690832235688,"545":-0.009464725094517368,"546":0.0011518808700098386,"547":-0.025441804886120634,"548":-0.028126872591737392,"549":0.012151443894841886,"550":0.018068072893069338,"551":-0.010069372790739725,"552":-0.014744005442147842,"553":0.02223495003055038,"554":0.00593206448214871,"555":0.01707633515212903,"556":-0.0012658118998660412,"557":-0.0363386346479367,"558":-0.02292456159952954,"559":-0.0053008028098599745,"560":-0.04131319998463193,"561":0.01589630422129967,"562":0.00828795622218598,"563":-0.023125280314065938,"564":0.00960657028511178,"565":-0.0007245651941481791,"566":-0.013106528399607763,"567":-0.01817044831732329,"568":0.017795963726735094,"569":-0.010938903020239768,"570":0.00875973759696514,"571":0.011758992874547142,"572":0.004431300420043245,"573":0.029125456683592395,"574":0.07782707448817869,"575":-0.002681499123882789,"576":-0.04577443668838455,"577":-0.0008789160828955713,"578":-0.01935233276110357,"579":0.030989050455831606,"580":0.03598779929010308,"581":0.020884285732918416,"582":-0.012976813073505967,"583":0.03136516108145739,"584":-0.010595887999778083,"585":0.008081227835104458,"586":-0.025193532987440495,"587":0.04627515857697942,"588":0.0016852208363770675,"589":-0.0042249331192470525,"590":0.010628836880752945,"591":-0.03487365531830813,"592":-0.03584686496796846,"593":0.03018541211895222,"594":-0.004737839689375767,"595":-0.001517565800450226,"596":-0.009464060034535862,"597":0.009757453109024053,"598":-0.03945284459330879,"599":0.02022349517165963,"600":-0.01793224139856961,"601":0.04108897360147603,"602":-0.04201671126476694,"603":0.007102072043598434,"604":-0.024425724571200475,"605":-0.06404961650206821,"606":-0.011193173446363475,"607":-0.016449241330268802,"608":-0.014480537900367697,"609":-0.02414630016374269,"610":0.0029808390828097216,"611":-0.009872923070103989,"612":0.0013945325815286594,"613":0.03566368027294803,"614":-0.005507456589082002,"615":0.004268037683624276,"616":-0.05887829876875222,"617":-0.004868104202754737,"618":0.005638113099043577,"619":-0.019001569838914326,"620":0.060654254778856845,"621":-0.011702490500563992,"622":0.04203826447803603,"623":0.017801375379273374,"624":0.04607461587039373,"625":0.002524822384475521,"626":0.013224427765171114,"627":0.008665846652647679,"628":0.017521718937193037,"629":0.03743639391531423,"630":-0.05019578371759621,"631":-0.05842891915849585,"632":-0.032243054420538125,"633":-0.041044120790517245,"634":-0.014569823143945802,"635":-0.009553031464634395,"636":-0.0489919900282751,"637":-0.017796601158701002,"638":-0.008392206342197754,"639":0.0064151691527665495,"640":-0.02068489744128175,"641":0.008499905766346497,"642":-0.015983495959412727,"643":0.00273130550331066,"644":-0.012755122787230178,"645":0.02177264575280857,"646":-0.002303949197254073,"647":-0.0260729900156739,"648":-0.010850440059369248,"649":0.04133551796862925,"650":-0.013398588261426973,"651":-0.01322721552315668,"652":0.007950148636038733,"653":0.002323941047067993,"654":0.038369882089814136,"655":0.006310360741109729,"656":-0.0015718915672226004,"657":0.018975556477058935,"658":-0.012682522819924893,"659":0.02603739859937968,"660":0.0229425573206992,"661":0.015043831345268112,"662":0.027148734402006148,"663":-0.04383977321102765,"664":-0.04221034810360672,"665":0.00507486742241788,"666":0.028791778774570693,"667":0.0031252062009110904,"668":-0.04529133925287506,"669":0.025438274738957455,"670":0.055139797181669406,"671":0.030122843315776523,"672":0.007485835955055069,"673":-0.03237606295943002,"674":0.010555526721767449,"675":0.003707613182535685,"676":0.010723353162208914,"677":-0.009221950758981903,"678":-0.01836458641713035,"679":0.0029445340127216106,"680":0.023246254436827263,"681":-0.005324855400492376,"682":0.03607795783527626,"683":-0.03422834342250062,"684":-0.03309591542153143,"685":-0.0011065643794406382,"686":-0.04490900654751699,"687":-0.0466412393651502,"688":0.004991267899979805,"689":0.010509932037462444,"690":-0.016259093051927954,"691":0.0012571119640587866,"692":-0.005756900964158604,"693":0.006877544085537125,"694":-0.012286450795274685,"695":0.024958548562862563,"696":0.044384151566926607,"697":-0.022425303671092453,"698":-0.031111612449666464,"699":-0.0052197803459223865,"700":-0.011883833017341259,"701":-0.02872186381259368,"702":-0.010516622687050312,"703":-0.024994287960163033,"704":0.028635601221849175,"705":0.03165244582094215,"706":0.057084125956926704,"707":-0.020087698434015148,"708":0.0152635454175117,"709":0.003136425934007112,"710":0.028805881046618752,"711":0.046616301311701275,"712":0.008048282483495508,"713":0.01839610299330828,"714":-0.024658978052004874,"715":0.05968063885502077,"716":-0.03382135641347065,"717":0.006419342990182599,"718":-0.002418472373153335,"719":-0.02939077734677835,"720":0.042793256698704464,"721":-0.042033363978907126,"722":0.023057048055465715,"723":-0.004448654810982506,"724":-0.0074748547161681295,"725":-0.009080329818518352,"726":0.0037168841861225247,"727":-0.01638787623363516,"728":0.014899039429197519,"729":-0.009745493329915212,"730":-0.04036066231205704,"731":0.0074699698240517105,"732":-0.015290105154901739,"733":0.011244922585340007,"734":-0.013923990240004703,"735":-0.020908111264628926,"736":-0.03498035642472497,"737":-0.041612266080632225,"738":0.06531009784734293,"739":0.01580145317282026,"740":0.03858939566502609,"741":0.027403530777317074,"742":0.021772385278480307,"743":-0.017791230671190008,"744":-0.018615208349809738,"745":0.005767546693101347,"746":-0.007487760156244403,"747":0.00526161832476606,"748":0.047545600802111794,"749":-0.07835136146421645,"750":0.005402949034372362,"751":0.008580475820791456,"752":-0.01591154260637977,"753":-0.06029485412977649,"754":0.03161591956218149,"755":0.02342815400548843,"756":-0.0073243737213581185,"757":0.05388669866268593,"758":-0.05185338759634597,"759":-0.013020077362500077,"760":0.01395714475774221,"761":-0.01916652459128714,"762":0.0023978951892644185,"763":0.024386261638060718,"764":-0.014436020603697558,"765":-0.006931225636382512,"766":-0.014906782517274645,"767":-0.006572236872772741,"768":-0.00584221468997999,"769":-0.004364007311598709,"770":-0.042736322370497584,"771":-0.01579128696957552,"772":-0.025844641162234703,"773":0.02643878342499469,"774":0.012680910081960749,"775":-0.025536685203337402,"776":0.050165488857471394,"777":-0.022903345896761605,"778":-0.021348917805875927,"779":0.018899962187645176,"780":0.03388278644616723,"781":-0.036026372708692626,"782":0.026732207250950848,"783":0.016835298007279093,"784":-0.007583556182702157,"785":-0.0009996525240559022,"786":0.00938746606723324,"787":-0.017551840752451073,"788":-0.034871295212673264,"789":-0.01173745367326817,"790":0.0004969069529379488,"791":-0.017460345484424027,"792":-0.03504436522837455,"793":0.031344294070329126,"794":-0.017354452572044744,"795":-0.008907898264296095,"796":-0.04249368052905373,"797":0.017900918906078638,"798":-0.01495841671692408,"799":0.0468367480594786,"800":-0.0053796250956736165,"801":0.02410772547982527,"802":-0.009841414935173563,"803":-0.02664328456770548,"804":-0.010646085202473286,"805":0.009211012257523889,"806":-0.005927650901780203,"807":-0.006298387856939306,"808":0.04855748293217603,"809":0.02520067267769746,"810":-0.06575361688461412,"811":0.007561394139942213,"812":0.04893687141362388,"813":-0.010853620808635847,"814":0.030604021843849135,"815":0.001816793857134688,"816":-0.008957995556090233,"817":-0.017499948575080432,"818":0.04141918961170335,"819":0.002266602641653775,"820":-0.04264840122146428,"821":-0.02352864415914167,"822":-0.05462720128485748,"823":-0.03334110712778156,"824":-0.022512098481930698,"825":-0.023554210039281116,"826":0.0004872797798442844,"827":-0.03088467267064856,"828":-0.008585594720365622,"829":-0.0007895101841975613,"830":0.020991692662117856,"831":0.0281638045498164,"832":0.008263008453914495,"833":0.032541036432739937,"834":-0.00740377213414157,"835":0.002033947076348896,"836":0.013404679726505797,"837":-0.027271442569642708,"838":0.02763660239059769,"839":-0.022545191166058454,"840":-0.0060975947989881036,"841":0.01293562027809924,"842":0.0316578516076049,"843":0.016901515885152315,"844":-0.01663409524479183,"845":0.00043662101540882574,"846":0.006043406894232,"847":-0.00011020218619821357,"848":0.03807197156355861,"849":0.04591753021161769,"850":-0.010020695545216425,"851":-0.005786822582288086,"852":0.018697437288053596,"853":0.01779363990839011,"854":0.012791431624614604,"855":0.011982424819331861,"856":-0.023045433133458797,"857":0.0268762320997369,"858":-0.0070451414608552,"859":0.0041792746912150715,"860":0.00804701198529652,"861":-0.007703960675989023,"862":0.00260129977027324,"863":-0.03150503403688535,"864":-0.013410415932328161,"865":-0.03672345959051753,"866":-0.02959624238326922,"867":-0.005914248545743917,"868":-0.015649151038765675,"869":-0.011569394668523098,"870":0.0005208956122760507,"871":-0.0239776488501152,"872":0.027907018884980025,"873":0.001739667432590533,"874":-0.009282658404502651,"875":0.020165259172401077,"876":0.0035577069199097294,"877":-0.03883413660496276,"878":0.013785782129054408,"879":0.02232120071122429,"880":0.026573752852956368,"881":-0.014127854206385114,"882":-0.0040839912077205165,"883":-0.010204094379043849,"884":-0.0012911484494841587,"885":-0.002100502824947723,"886":-0.020394506522169682,"887":0.00022779690264522904,"888":-0.04151946420073152,"889":-0.050623298995682985,"890":0.011466551204831898,"891":0.025243035427658,"892":-0.024810648406297042,"893":-0.0025794605678288256,"894":-0.06032203656829919,"895":0.011463747933062138,"896":-0.0017291736727065813,"897":0.05146688371215214,"898":0.02314882607693771,"899":0.03067385711820275,"900":0.005912268825219789,"901":-0.018501665416501823,"902":0.003577400290452848,"903":0.02578250149766658,"904":-0.006504543955566489,"905":0.006409611022933748,"906":0.010386687881714656,"907":0.00492436891072822,"908":0.002967796124155475,"909":0.018411088211049833,"910":0.011216477340022608,"911":0.022270784867408244,"912":-0.05662169042905263,"913":0.06086038443842211,"914":0.011814399537301038,"915":0.0352546262440876,"916":-0.02533858848311534,"917":-0.0025275403250223775,"918":0.0329173282107305,"919":0.03409979330414508,"920":-0.018190257740087833,"921":0.020272583843335596,"922":0.0031572496455524197,"923":0.01774876340797027,"924":-0.027070567636415886,"925":0.009474631126422998,"926":-0.05156977785802627,"927":0.004095097798243059,"928":0.019015782957592146,"929":0.040394211642234744,"930":0.00025043162300291663,"931":0.026431410438947527,"932":-0.028028619229869586,"933":0.001714263037849725,"934":0.012230004995305998,"935":-0.01269052267850686,"936":0.02733220848436891,"937":0.0027192405477383893,"938":-0.009006011951930376,"939":0.025279316162151927,"940":0.049887381917472745,"941":-0.011052853647452838,"942":-0.008637396552208118,"943":0.030584238376998005,"944":-0.018468938573552907,"945":0.019014007866341193,"946":0.01469408571771441,"947":-0.07070714398322521,"948":0.0002769363380349607,"949":-0.024294212561800952,"950":0.004850239562631172,"951":-0.043551202497293794,"952":-0.02731791495720666,"953":-0.012310806929926638,"954":-0.013316590317795553,"955":-0.050065500783678316,"956":-0.0009718017569981135,"957":0.03599206498218651,"958":0.024699397638405736,"959":0.009986266500863232,"960":-0.011580098182653289,"961":0.017989908235854474,"962":-0.01602704459908011,"963":-0.03572905019681351,"964":-0.007791277432276859,"965":0.03624795764076108,"966":0.02130768287298153,"967":-0.025495883151389325,"968":-0.013481841507273737,"969":-0.0007557926060044552,"970":0.0007054477198020863,"971":-0.020441907107016898,"972":0.025961397240489348,"973":0.007006112365023089,"974":-0.0036656694282014056,"975":0.01000066860479886,"976":-0.005824733017508057,"977":0.025350280922552024,"978":-0.03063297757658366,"979":0.0007727189371477156,"980":0.018014612034960166,"981":-0.010563362544063712,"982":-0.013023331281056877,"983":-0.008473706759141076,"984":-0.05628596536491514,"985":0.017199239165659828,"986":-0.03014439529871155,"987":0.012373374456760634,"988":-0.009611090681848036,"989":-0.00007612513234958108,"990":-0.04332839136363086,"991":-0.02013646169102605,"992":0.0037411115001582435,"993":0.0029925650148809073,"994":0.019355923375404368,"995":0.03498350743951139,"996":0.0012673736962177547,"997":-0.0170255196562872,"998":-0.007616493425944153,"999":-0.029441562206127078,"1000":-0.0261118441034659,"1001":-0.042414368025750444,"1002":0.0026475234256533612,"1003":-0.01733046212539398,"1004":0.0001713878734714405,"1005":-0.005804250207907656,"1006":-0.00250566654920857,"1007":-0.0037864905144635425,"1008":-0.009861883838994754,"1009":0.005986978843763231,"1010":-0.04455564968362216,"1011":-0.016199293799325526,"1012":0.011718629070847792,"1013":-0.01589734604303846,"1014":-0.025957124426335423,"1015":0.0205519729030204,"1016":-0.019948258612544467,"1017":0.02028570403050557,"1018":0.021384173476549456,"1019":0.012073245203166036,"1020":-0.016924532877858795,"1021":-0.025115474670454007,"1022":-0.019001753338637743,"1023":-0.033240559625870345,"1024":0.0015331343493767916,"1025":-0.012508260270121498,"1026":0.009065982767781982,"1027":-0.027332971913281462,"1028":-0.03580441144116297,"1029":-0.0009031647106312898,"1030":0.010617429776501354,"1031":-0.016359414723381906,"1032":0.0036600321943831785,"1033":-0.010674540127953724,"1034":-0.03327840256878656,"1035":-0.023961745363287552,"1036":0.019845243241323803,"1037":-0.04100504549384226,"1038":-0.00015490768985651187,"1039":-0.008280960986742185,"1040":0.0651263843264844,"1041":-0.009042272574846211,"1042":0.028700516011982348,"1043":0.0009708399260253341,"1044":0.03692705755264385,"1045":-0.021375319996556078,"1046":-0.019632253914744546,"1047":-0.028810851689661895,"1048":0.04389136876265098,"1049":0.02554149705058173,"1050":0.010436419946067286,