
//<![CDATA[

// a few things don't have var in front of them - they update already existing variables the game needs
lanesSide = 4;
patchesAhead = 30;
patchesBehind = 5;
trainIterations = 1000000;

var num_inputs = (lanesSide * 2 + 1) * (patchesAhead + patchesBehind);
var num_actions = 5;
var temporal_window = 3;
var network_size = num_inputs * temporal_window + num_actions * temporal_window + num_inputs;

var layer_defs = [];
layer_defs.push({
    type: 'input',
    out_sx: 1,
    out_sy: 1,
    out_depth: network_size
});
layer_defs.push({
    type: 'fc',
    num_neurons: 40,
    activation: 'relu'
});
layer_defs.push({
    type: 'fc',
    num_neurons: 20,
    activation: 'relu'
});
layer_defs.push({
    type: 'fc',
    num_neurons: 20,
    activation: 'relu'
});
layer_defs.push({
    type: 'fc',
    num_neurons: 20,
    activation: 'relu'
});
layer_defs.push({
    type: 'fc',
    num_neurons: 20,
    activation: 'relu'
});
layer_defs.push({
    type: 'fc',
    num_neurons: 20,
    activation: 'relu'
});
layer_defs.push({
    type: 'regression',
    num_neurons: num_actions
});

var tdtrainer_options = {
    learning_rate: 0.001,
    momentum: 0.3,
    batch_size: 64,
    l2_decay: 0.005
};

var opt = {};
opt.temporal_window = temporal_window;
opt.experience_size = 3000;
opt.start_learn_threshold = 500;
opt.gamma = 0.7;
opt.learning_steps_total = 100000;
opt.learning_steps_burnin = 1000;
opt.epsilon_min = 0.02;
opt.epsilon_test_time = 0.0;
opt.layer_defs = layer_defs;
opt.tdtrainer_options = tdtrainer_options;

brain = new deepqlearn.Brain(num_inputs, num_actions, opt);

learn = function (state, lastReward) {
    brain.backward(lastReward);
    var action = brain.forward(state);

    draw_net();
    draw_stats();

    return action;
}

/*###########*/
if (brain) {
brain.value_net.fromJSON({"layers":[{"out_depth":1275,"out_sx":1,"out_sy":1,"layer_type":"input"},{"out_depth":40,"out_sx":1,"out_sy":1,"layer_type":"fc","num_inputs":1275,"l1_decay_mul":0,"l2_decay_mul":1,"filters":[{"sx":1,"sy":1,"depth":1275,"w":{"0":0.021540487167226067,"1":0.03532018697998732,"2":-0.0074220101286282735,"3":0.005982321654754681,"4":-0.018473267834897594,"5":0.03060440810737567,"6":0.012798591548085918,"7":0.005720439938717049,"8":-0.034807478603175825,"9":0.011087919514489182,"10":-0.03783093161398402,"11":-0.00927230103663417,"12":0.05187888670002106,"13":0.010107822321753314,"14":-0.010700022364909039,"15":0.05091132193039812,"16":-0.0009591644874704495,"17":-0.011409829241693197,"18":0.03236096741066431,"19":-0.014317336328421396,"20":0.012236545256392126,"21":-0.016966619892079197,"22":0.004593829169749559,"23":-0.017289229765522385,"24":0.011823734666896,"25":0.00024644833154527124,"26":-0.012059080721112628,"27":0.028612659240104126,"28":0.031777576336367984,"29":0.044886559771713457,"30":-0.003039414051792172,"31":0.017056575505833445,"32":0.05468760565363914,"33":0.018895223276618578,"34":-0.03933642843779921,"35":0.012094491152307731,"36":0.007131012669964581,"37":-0.019640910760393898,"38":0.010013691102301592,"39":0.03520885233897914,"40":0.00007680053604287689,"41":-0.04739033159428227,"42":-0.04060359088612858,"43":0.037067925951462785,"44":0.01609823167416153,"45":-0.034092174314208745,"46":-0.053678052651612185,"47":-0.017601632115917854,"48":0.02657356145524957,"49":0.024480384122726538,"50":0.02915140049835443,"51":-0.03849798251604581,"52":-0.06582021513450055,"53":0.0031197632412330012,"54":0.010815323991760972,"55":0.00023589726338384996,"56":-0.037960338382529615,"57":0.00883087290999672,"58":-0.0011648883349969557,"59":-0.028748033581268016,"60":-0.02755730674939385,"61":0.02282868268623783,"62":0.01952486495127154,"63":0.005069782936638251,"64":0.004089229354474966,"65":-0.011175094134309354,"66":-0.013751322440103011,"67":-0.011398230255296116,"68":0.03824875727463704,"69":0.0006980912776401985,"70":-0.016761545810349665,"71":-0.00445758406059009,"72":0.04693635484416201,"73":-0.009465499876214175,"74":-0.014667475611418887,"75":-0.006913593693815872,"76":0.008947760054915372,"77":-0.0027295070229604343,"78":0.029452774653799318,"79":-0.003805358391107901,"80":-0.01959618963980842,"81":-0.04942242289062592,"82":0.04246010156656415,"83":-0.008111647743153573,"84":-0.010883997191248837,"85":0.016497738259762987,"86":-0.020503296587208165,"87":-0.034663653556709244,"88":0.05123317432915816,"89":-0.00404263565685787,"90":-0.0424446553927242,"91":-0.017644192970400686,"92":-0.013178929152540264,"93":-0.03214795821650832,"94":-0.035081664178620776,"95":-0.006107594239047827,"96":0.03821141680902247,"97":0.015411437088382987,"98":-0.032495118909956114,"99":-0.001704720973811433,"100":-0.013537225004003383,"101":0.04013097799491024,"102":0.06982701195042812,"103":0.015155044227110634,"104":0.025665242811835683,"105":-0.04711841846182638,"106":0.005156078862232424,"107":0.022310811559506597,"108":0.015520566626396025,"109":0.016040598538428236,"110":0.01727811451452203,"111":0.042559018150701546,"112":0.02728697692338983,"113":-0.018088796846922085,"114":-0.013937926480635217,"115":0.0125322615135716,"116":-0.0042250091602362575,"117":-0.031295050902660125,"118":-0.021881174319008937,"119":0.04031287884065276,"120":-0.025463886491373006,"121":0.027155686363360867,"122":0.002530736097537817,"123":-0.0014893681019860427,"124":-0.03280414244336685,"125":0.0055012116193506565,"126":0.020924208364881486,"127":0.03230888071831616,"128":0.008720892236804494,"129":0.010189553371464748,"130":0.005378917558749115,"131":0.01755640342498046,"132":-0.03565843926452873,"133":-0.03602124900303508,"134":-0.029160032563615504,"135":-0.06353551506884779,"136":-0.013702423103912512,"137":-0.008149226092352486,"138":0.008685204639315621,"139":-0.007570633588114964,"140":-0.023235077357614473,"141":-0.002977614874335465,"142":-0.005146407582881395,"143":0.005893806659058947,"144":0.022544498884832207,"145":-0.023297211172265412,"146":0.017791335945587225,"147":-0.003327099302663373,"148":0.024714691325749064,"149":0.010212774838220572,"150":0.004822608057453561,"151":0.02002473534101204,"152":0.04491419318985179,"153":-0.01743977276444956,"154":0.00022947006883088862,"155":-0.046037082693624054,"156":-0.06319778798829757,"157":-0.023923921664426237,"158":0.013892552483368147,"159":-0.009585326798161462,"160":0.0168101488609482,"161":-0.01635156231216841,"162":-0.03902664159848609,"163":-0.06358242823386392,"164":0.035717539278965746,"165":-0.02968999556337207,"166":0.0033398310611560894,"167":-0.0014459054486503826,"168":-0.01443430167399645,"169":-0.00003532139904774087,"170":-0.0005280290632675329,"171":0.010310898169631117,"172":0.007820068296011656,"173":0.01767701214645511,"174":0.0033207167982413368,"175":0.03128109684463664,"176":0.011873750927536198,"177":-0.001055497636701065,"178":0.023904646709642336,"179":0.0018601903585955509,"180":-0.04007067728267184,"181":0.008068270522006123,"182":0.02364754516178135,"183":0.04687597609729581,"184":0.017572622381199117,"185":0.02524592558401984,"186":-0.006899604267997005,"187":-0.020674202781239347,"188":-0.016192691958386563,"189":0.035227367688872434,"190":-0.0007047172943095307,"191":0.019595901358278676,"192":0.03990400411316131,"193":-0.0521948804552325,"194":0.028329329112949542,"195":0.01486658140781363,"196":-0.02293474183658034,"197":0.04648159732409319,"198":0.012416674837495931,"199":-0.015077825580692709,"200":-0.0070039061491875025,"201":0.009285403054947846,"202":-0.013894013719577524,"203":-0.016542634033462074,"204":0.006128372057266113,"205":-0.017986676143363734,"206":-0.03806280709171883,"207":-0.00025678378828812316,"208":-0.06280287103230459,"209":-0.011951114789820123,"210":-0.008353531938328315,"211":0.020054247290560004,"212":-0.036805433080656945,"213":-0.04884835701497211,"214":0.03483459235474649,"215":-0.03823628952515871,"216":0.005938830711949398,"217":-0.010887630910998168,"218":0.023441279524139404,"219":0.03135494344892745,"220":-0.011025768501798164,"221":-0.012667817085632069,"222":-0.0277279672249833,"223":-0.06408862400213874,"224":0.023272012072986157,"225":0.020489280410490966,"226":-0.020605117658888384,"227":-0.04026575864909932,"228":0.01930213772723062,"229":0.01072082356112385,"230":0.03908607896959496,"231":-0.018920588487217168,"232":-0.01299982756262693,"233":0.010168567346647103,"234":-0.025555527408986246,"235":-0.004208665570296603,"236":0.00895948086919533,"237":0.003996769034145912,"238":-0.016680986318835554,"239":-0.019758173115879275,"240":0.010448754021185967,"241":-0.015531553578099773,"242":-0.013453254774906328,"243":0.0027988237173326813,"244":0.03704750452377741,"245":-0.023844794040430627,"246":-0.021528481127188363,"247":0.009021255584075443,"248":-0.009203674184714806,"249":-0.023413585488052793,"250":0.015753367956887226,"251":-0.005574760434660631,"252":0.023701689579003385,"253":-0.06914736394172684,"254":-0.025538782961451394,"255":0.008977522096745282,"256":0.0015032157384487236,"257":-0.04471508505027208,"258":-0.015804205478572097,"259":0.0013869481974559342,"260":0.02828243337274205,"261":-0.020875926227100543,"262":0.009484484329006115,"263":0.005958538290945477,"264":-0.004505555323767606,"265":0.010296842833396262,"266":-0.052670139118699,"267":-0.030607746161462206,"268":0.024795907702595387,"269":-0.004042518812729067,"270":0.001337329832497263,"271":-0.005458708485224979,"272":0.006633183158305124,"273":0.02857010009476956,"274":-0.007653344813457467,"275":0.01769505421771107,"276":-0.022945852859538315,"277":-0.0045717502201528155,"278":-0.01566824547349315,"279":0.008714960773429379,"280":-0.03255352458291211,"281":-0.009695840682541217,"282":0.03566844159903541,"283":-0.02161271864329669,"284":-0.03640627974275818,"285":0.011382805591917686,"286":-0.01897140267325799,"287":-0.02446569750994958,"288":-0.01695211348641606,"289":0.013720304616304047,"290":-0.0010885270572950935,"291":-0.0076561864481401445,"292":0.019337690924710934,"293":-0.047141160428784655,"294":0.005444063913588673,"295":-0.0017822694113426535,"296":-0.008165551166140959,"297":-0.0165289641035734,"298":-0.03989879061788158,"299":0.03418138499337095,"300":-0.01725437713623762,"301":0.008718342541899547,"302":0.011275628418759256,"303":0.005329058540822915,"304":-0.03926646221382629,"305":-0.012118661633174694,"306":-0.016468728746392772,"307":-0.016394814853061556,"308":-0.006360392401225728,"309":-0.011142285688353341,"310":-0.027258060103870687,"311":0.05175071916779924,"312":-0.033422038581346035,"313":0.0028267346096678366,"314":0.017428127093355148,"315":-0.0011566855598195357,"316":0.022426475248336592,"317":0.03141733917779655,"318":0.00930415072554295,"319":0.021754882907548633,"320":-0.023219483192160183,"321":-0.016904914918533135,"322":-0.05678120206120351,"323":0.0025097167299819785,"324":0.0025273845895417988,"325":-0.002188488558021347,"326":-0.05610074704597556,"327":0.00920594691306311,"328":0.02404860477226618,"329":-0.0027193224143198863,"330":0.014257959285949416,"331":0.022877575746725064,"332":0.006176002869995674,"333":0.01531483659779407,"334":0.004809068103205719,"335":0.03049588227954825,"336":0.0013154023030307591,"337":-0.0069311136942643336,"338":-0.005397747935497084,"339":0.030036970816594358,"340":-0.005899125709173964,"341":-0.025093102462683137,"342":0.04217684442684458,"343":-0.005876746052888463,"344":0.02538042011326509,"345":0.030430017811366214,"346":-0.03152079852878368,"347":0.017882670260972986,"348":-0.009112766824191355,"349":0.00753948665634877,"350":0.009543348742083752,"351":0.014691915294147281,"352":-0.001142670063467413,"353":0.016794956030054774,"354":0.04510108096127596,"355":0.0050615618920405465,"356":0.02660678054226097,"357":0.04339009091342034,"358":0.00771130982952276,"359":0.028150704585229513,"360":0.00776217212417158,"361":-0.010383759604655578,"362":-0.017682729946615815,"363":0.013712052338027879,"364":0.013169143425750691,"365":0.04579796013111725,"366":-0.04332409760736899,"367":0.07036117329093242,"368":-0.008721389980301898,"369":0.031459718170945616,"370":-0.0011565435329330628,"371":-0.0505081664871481,"372":0.06334716928743477,"373":-0.015245070720537239,"374":0.002034687026160315,"375":-0.0005085495114869371,"376":-0.015967899772899787,"377":0.01825826254899053,"378":-0.0008803716210489197,"379":0.0077616070349794,"380":0.0008456002444430724,"381":-0.0058705182749803604,"382":0.014029848727339318,"383":-0.009764655779482222,"384":-0.00010571126332376823,"385":-0.044435992824807355,"386":-0.028450508829612486,"387":-0.042420624471572174,"388":0.027566595467957956,"389":0.00016217718666241301,"390":-0.013966233345514558,"391":-0.05068792286347124,"392":-0.0035520507964518864,"393":0.029072523891633038,"394":-0.004079623041679468,"395":0.06946892315889878,"396":-0.008226524241630496,"397":-0.02014861525301711,"398":0.035024078830412524,"399":0.021180118848911494,"400":-0.013328532271775436,"401":0.02559337126565058,"402":0.031551720767150605,"403":0.017535685759917163,"404":-0.05324253480569935,"405":-0.04661627786478865,"406":-0.0038246796312559196,"407":0.015747406873560212,"408":-0.05374703950761361,"409":0.03654713313900381,"410":0.041329110404135165,"411":-0.028512394383592474,"412":0.025194499255703898,"413":0.0033397760301281504,"414":-0.029517980619791256,"415":-0.04972467436615388,"416":0.007917346318837337,"417":0.014751370034961688,"418":0.026194713262775497,"419":0.04911638923125539,"420":-0.0027757631668800316,"421":0.014852108443802477,"422":-0.02280359337847998,"423":-0.034421507737342205,"424":-0.006305428536095039,"425":0.02019777161574046,"426":0.047808391238921236,"427":-0.01719953014884461,"428":-0.03115992526902538,"429":-0.0019189919026430437,"430":-0.020810733960198245,"431":0.012099230926828906,"432":-0.010690356666941698,"433":0.000007862301155827022,"434":-0.009173044527782063,"435":0.03195109800180577,"436":0.011133350066737532,"437":0.03993794121781469,"438":0.05237213064347078,"439":0.00669825021960473,"440":0.0379460144805933,"441":-0.011193389542589107,"442":0.009285904381578931,"443":0.010720722585351738,"444":-0.061904813967382115,"445":-0.019726779383169087,"446":0.037608634648961824,"447":-0.041863470327841795,"448":0.002637416168449008,"449":0.036936431474107856,"450":0.033028366548433594,"451":-0.0032107789856921356,"452":0.01751130313460979,"453":-0.007796386688994426,"454":0.015766812101237652,"455":-0.03368827003861214,"456":0.010639258721348226,"457":-0.06096763801420407,"458":0.00905048419647604,"459":0.011875213721214539,"460":-0.01077920236277354,"461":-0.016474939992866294,"462":0.01271697868678791,"463":0.02324844758403957,"464":-0.012703625703940683,"465":0.0018987258374682237,"466":0.008559573395391358,"467":0.020350474806619567,"468":0.0014458228087589802,"469":0.016511794887987825,"470":0.07904058902620646,"471":0.009648309507978866,"472":0.012965637742842944,"473":-0.027032285611544995,"474":0.00008429365050130494,"475":-0.01980517922420581,"476":-0.03214735822322391,"477":0.018115571948733873,"478":0.00344518217055012,"479":-0.05493363131586478,"480":-0.01828021189183385,"481":-0.006627171906968996,"482":0.013519319801649032,"483":0.008646217753890802,"484":-0.0007825335374491684,"485":-0.004238177013773064,"486":0.008512620037755865,"487":0.000563163426441595,"488":-0.031997306035196744,"489":-0.0018021705906480065,"490":0.005913795789173012,"491":0.021255450397908035,"492":-0.034520697024652484,"493":-0.0230341440085865,"494":-0.017775702835012702,"495":0.012351391157861095,"496":0.017843123353429257,"497":-0.015729167525701238,"498":-0.006256913969601914,"499":0.033731185321518656,"500":-0.04156041975246989,"501":-0.024177249311227465,"502":0.00645512603435669,"503":-0.016661080773472146,"504":0.009970859009078235,"505":0.014818120483432761,"506":-0.0033124455489710537,"507":-0.039125293043551536,"508":0.028859957085241403,"509":0.004905726889953244,"510":0.00530289141748426,"511":-0.035761262734296605,"512":-0.032075212339117296,"513":-0.040788368624583224,"514":0.006831678341039121,"515":-0.02913276636683019,"516":0.017817817650526813,"517":-0.022162333453748066,"518":-0.034858847032079567,"519":0.011131991643576667,"520":-0.03986910080928958,"521":-0.023010635928062326,"522":0.02097447105129094,"523":0.020806335570598807,"524":-0.025357536562833547,"525":-0.013922402138382644,"526":-0.022112781969734294,"527":0.037483791261650114,"528":-0.01065337753487797,"529":0.046211308040090625,"530":0.005847538187122965,"531":-0.014740594102429666,"532":-0.049699793861756214,"533":-0.023439851195837854,"534":0.03584895798809081,"535":-0.00906381365748447,"536":0.02998096696819468,"537":-0.006166298116148196,"538":0.040456718115396535,"539":-0.007516219599776514,"540":-0.014907737054554381,"541":0.0016608437977777557,"542":0.014998243110100175,"543":-0.024040036013983832,"544":0.038852543374578205,"545":-0.004588325299792658,"546":0.007224694209313467,"547":0.023577662250929624,"548":0.041168079756156155,"549":0.005092673875074088,"550":0.04280102506964347,"551":0.01064711270265694,"552":-0.01072335667050513,"553":0.016977542862555282,"554":0.01745665310748013,"555":0.021500488617703147,"556":-0.0016793126727028271,"557":0.03076953346536261,"558":0.04293336943843336,"559":-0.0035749476966733893,"560":0.007125727700666701,"561":-0.051025555463759344,"562":-0.00778595840815498,"563":-0.016826032279341416,"564":-0.014732286243568394,"565":-0.023607990260056572,"566":0.004820676589964591,"567":-0.042116212186033994,"568":0.024628928170783333,"569":0.029352802113027734,"570":-0.0009602849210571639,"571":0.019016955531467875,"572":0.01651155841637219,"573":-0.0059920470215763045,"574":-0.017701776140421514,"575":0.018424788732784827,"576":-0.016480545803683907,"577":0.0035482244318015086,"578":-0.020312897105477495,"579":-0.016309971226565412,"580":0.025649818285431326,"581":-0.03431805274904681,"582":0.005721959329308856,"583":0.041230530910330396,"584":0.006905885944208033,"585":0.051793314129074626,"586":0.06437534660542828,"587":0.013789395189055005,"588":0.01069352277122934,"589":-0.017235799319506695,"590":0.00479601031319246,"591":0.043603911551547886,"592":0.0418917180657744,"593":-0.018606217698752474,"594":0.03969091792571084,"595":0.002330186734597605,"596":0.001321224303650362,"597":-0.005669013459807865,"598":0.028686444320482278,"599":0.02601258134748543,"600":-0.039230223126621507,"601":0.004411945629542807,"602":-0.0072137802601558425,"603":0.0002328256355358627,"604":-0.001831443202226194,"605":-0.007949723165990616,"606":-0.03838476054888871,"607":0.012419537082959571,"608":-0.01658512774151918,"609":-0.02511302015684724,"610":-0.010441951328950125,"611":0.004805104050955952,"612":0.03675489373779802,"613":0.008599379741967866,"614":0.029151577819454492,"615":0.00539604164243548,"616":0.01619126677406584,"617":-0.002059241814392769,"618":-0.05186832729391628,"619":0.025327644143832602,"620":0.033948112008419025,"621":0.01884431314651476,"622":-0.019738086406608627,"623":0.006785473778260543,"624":-0.022573551607802212,"625":-0.009208255597843105,"626":-0.015565347520105298,"627":-0.01801521094559678,"628":-0.0038158233516481393,"629":0.005738602046081161,"630":-0.03382373309992302,"631":-0.0670296081807938,"632":-0.055748889426577554,"633":-0.03932068478621291,"634":-0.05414631836680168,"635":-0.022327833798031046,"636":0.01673866605114659,"637":0.020349751554578282,"638":-0.002389713985507233,"639":0.002435770837578584,"640":-0.05736916998417806,"641":-0.015259660786952001,"642":0.0127026337593931,"643":0.012843735929267136,"644":-0.056264087601176994,"645":-0.003885472058338256,"646":-0.015608542134265307,"647":0.0024380902181231393,"648":-0.027956399429197268,"649":0.028431069197021513,"650":-0.02536890840461125,"651":0.01500501847136193,"652":-0.004554144211726741,"653":0.01174356560533516,"654":0.02264205074701873,"655":0.015662598575456377,"656":-0.012268814603960777,"657":-0.04302086495955675,"658":0.059870752807218576,"659":-0.008685766222853273,"660":0.029963913960724394,"661":0.041673547054884755,"662":0.010475152437245195,"663":-0.005346484763761614,"664":0.030837654265924937,"665":0.0059847807646508135,"666":0.004084788099779313,"667":-0.004555482640197052,"668":-0.03217187998178999,"669":-0.012851888792936653,"670":-0.0054190281760663345,"671":-0.0039482649637822415,"672":0.013457706376374803,"673":0.00985744988427346,"674":-0.013531260646905482,"675":0.020854340346236417,"676":0.01026801221172292,"677":-0.007001692715646711,"678":0.00965373709505087,"679":0.01120522681188208,"680":-0.0222214098141708,"681":0.016387571684134027,"682":-0.01728900426264096,"683":0.030318691100657,"684":-0.029472528736079973,"685":0.028134099770738583,"686":-0.026955973788110568,"687":-0.04084703932534781,"688":0.023694668344119662,"689":-0.023058018818249346,"690":0.004934651509148997,"691":-0.030563592163720503,"692":0.021391036862032108,"693":-0.008359294016786667,"694":0.027600145089364574,"695":-0.024293810121750394,"696":-0.0033053506504521326,"697":-0.02428179228010054,"698":0.03027008737019096,"699":0.012185855352324231,"700":0.011474343068035964,"701":0.023104008651108985,"702":0.0008698042107113982,"703":0.03119935827098071,"704":0.03601057856329764,"705":-0.007183831996505382,"706":-0.0070008788610225635,"707":-0.029904228018014907,"708":-0.022119015592481035,"709":0.02819199403975904,"710":0.030785905258418136,"711":0.01868363865265274,"712":-0.0284184581803818,"713":0.030534609341761533,"714":-0.008692885979782008,"715":-0.015685879211791792,"716":0.023316963465628907,"717":-0.023063750234975807,"718":0.014018516107050532,"719":0.014302705298099705,"720":0.008524009631209658,"721":-0.004088881392103102,"722":0.011636861365044342,"723":-0.025173769780616046,"724":-0.010934103487620972,"725":0.02850637306820261,"726":0.008853088853056277,"727":-0.014370753543582481,"728":-0.0069384474339581614,"729":0.02237714338205584,"730":0.002751042263305746,"731":-0.01866167417297607,"732":0.020318612188722288,"733":0.02681114275591605,"734":0.031222258817289114,"735":-0.026827952725386295,"736":-0.020741515466618742,"737":-0.028624625703648782,"738":0.011171809509546236,"739":0.031927338527192345,"740":0.019918197464891,"741":0.025513586877445163,"742":-0.004164539298424744,"743":-0.03954482665734212,"744":-0.007483961561752138,"745":-0.028485452515766143,"746":0.015213609749571345,"747":0.014107500504926648,"748":-0.020142718227720693,"749":0.04071339335299278,"750":0.0045509855107110295,"751":0.008196329776963638,"752":0.024927450500029678,"753":-0.024921986630255667,"754":0.013330028094711734,"755":0.019941560342366327,"756":0.01466993166370167,"757":-0.005166068807349388,"758":0.008482864908347383,"759":-0.009425436743787268,"760":0.0005328529649244772,"761":0.07230193066062295,"762":0.032584586974606984,"763":-0.02369779639105979,"764":-0.004706658518239851,"765":-0.0015414379615964,"766":0.004792804027105037,"767":-0.006657630184471853,"768":-0.0007797435855828017,"769":-0.04130549281520053,"770":-0.0013498376317559171,"771":0.029801046064460122,"772":0.060769438665145996,"773":0.008769650684724637,"774":0.019268865306517734,"775":-0.020795632356876953,"776":0.013504560528993011,"777":-0.030072063034284544,"778":-0.010087138836975146,"779":-0.022752100901873563,"780":0.014049805682360665,"781":0.0025038264022102436,"782":-0.003651710543638951,"783":-0.05518929538311359,"784":0.02338294024357624,"785":-0.01556657423470536,"786":0.004608151417215164,"787":0.06409922899611571,"788":0.00541232307573866,"789":0.027848834654241452,"790":0.0197174650786182,"791":0.026576547317315055,"792":0.00538518220335017,"793":-0.006060644973551381,"794":0.0018709742896126187,"795":0.07844288900727418,"796":-0.011682253031262094,"797":0.03446653177877759,"798":-0.026868503372978515,"799":0.019762671864651377,"800":0.017464790516738857,"801":-0.00965380344555,"802":-0.06533509049232723,"803":-0.005384902667765495,"804":0.00478586581697949,"805":0.0013871315390105434,"806":-0.008226108273490995,"807":-0.046681925293152224,"808":0.01204860891669569,"809":-0.014008859192661026,"810":-0.005994110562376156,"811":0.028746462440398097,"812":0.03499574504403814,"813":0.0068495067939295315,"814":0.0023405238023743984,"815":-0.03771740122071532,"816":-0.016415438049208156,"817":0.03452882599640578,"818":-0.03506303914993119,"819":0.008463452097426615,"820":0.035228321489381376,"821":-0.019207646749631123,"822":-0.006596202306836618,"823":0.035871500192917787,"824":0.003471838715182782,"825":-0.012933459495598251,"826":0.024940965027126054,"827":-0.009276730449728791,"828":-0.010640882363888875,"829":-0.01771682149932803,"830":-0.0067221244875922325,"831":0.05887735562737662,"832":-0.005175870893272133,"833":0.002924852356768926,"834":0.030586036014874453,"835":-0.026125791897608688,"836":-0.014994361783183507,"837":-0.016074829080525408,"838":-0.01787500939340827,"839":0.01672239826733141,"840":0.025545386227507818,"841":0.005762746258224316,"842":-0.024428962165949697,"843":-0.04585526841420128,"844":-0.018903704307546527,"845":0.003333582857228109,"846":0.0374086468693617,"847":-0.016104616611382707,"848":-0.039633851875378025,"849":0.010128288291516248,"850":-0.04458113508224359,"851":0.02619731897150647,"852":0.02530908620716725,"853":-0.05175577543022475,"854":-0.00862992956044507,"855":-0.011994065453622854,"856":-0.009860643843769081,"857":-0.008561891681635063,"858":0.011908539968544874,"859":-0.010165561829980295,"860":-0.023687130670253367,"861":0.014326109476963196,"862":0.004244132360328002,"863":0.016563334689797708,"864":-0.027508539612122827,"865":-0.002198370785570815,"866":0.003153489105426332,"867":0.047982871624229456,"868":0.04000483462534415,"869":0.008445402472464609,"870":-0.02660513215212075,"871":0.008706937466435844,"872":0.004964209435792451,"873":0.011128411935840212,"874":0.0012360532850995993,"875":-0.031651261681500224,"876":-0.015092556234745032,"877":-0.05620694540918959,"878":0.018847874736052157,"879":0.03639214581290597,"880":-0.0029819159128876916,"881":0.03825200806501826,"882":-0.025589118141378472,"883":-0.0033394333313425126,"884":-0.0625666436059579,"885":0.01114831673128669,"886":0.019926786663593835,"887":0.00580040688499485,"888":0.027259751434989366,"889":-0.02329653554582841,"890":-0.023072085359940493,"891":0.012160948050326201,"892":0.03756549067269574,"893":0.04468237942050748,"894":0.02807999792084484,"895":0.006432075518410738,"896":-0.005468632660671049,"897":0.02714884490671635,"898":-0.030978876847582812,"899":-0.008556750558765147,"900":0.01538710271299477,"901":0.02838073818896474,"902":-0.06351232194722387,"903":-0.0432338758568492,"904":-0.005273413860525608,"905":-0.03225295763643524,"906":-0.00391764996183362,"907":-0.0246204318424114,"908":-0.038328883876901886,"909":0.02176313154110766,"910":0.01527983004332112,"911":-0.023416384308305307,"912":-0.013017108800722241,"913":0.006748278749573642,"914":0.0022165163549339737,"915":0.016240608066538077,"916":0.028189098773230434,"917":0.004436600179742226,"918":-0.01902066374553808,"919":0.01673818883243372,"920":-0.024231786978725394,"921":-0.0006181603548935837,"922":0.054988734528465096,"923":-0.01879924094533662,"924":0.039175216102533265,"925":0.008568550338233177,"926":0.003470778389484241,"927":0.02445048023727446,"928":-0.013421491501044542,"929":-0.01735650003787552,"930":-0.0049544250145941654,"931":-0.024539289049380658,"932":0.04728102150281963,"933":0.04169228654384489,"934":-0.024724040868674284,"935":-0.02829464189339414,"936":-0.014375744965684235,"937":0.030116919971041982,"938":-0.001853547779742074,"939":-0.005741487508314829,"940":0.02068848976856149,"941":-0.0004987360249784368,"942":0.02583899770904898,"943":0.027580268576609907,"944":-0.008143901904553764,"945":-0.010791658893653485,"946":-0.03151039624309968,"947":0.02561786951822091,"948":0.032865941032107215,"949":0.055239959003649884,"950":0.0004355744362972818,"951":-0.017667429495337388,"952":-0.01558946642130841,"953":0.018482107608356994,"954":0.01971094064636632,"955":0.006076044390918055,"956":0.0029557596243353227,"957":0.014950655931655132,"958":0.01289465662160541,"959":0.022673387590795204,"960":-0.02651842966100638,"961":0.015081591485391193,"962":0.00857751504465892,"963":-0.0012570419235917404,"964":0.017302788430109187,"965":0.03270923616671751,"966":0.038466665923917676,"967":0.027111090603528835,"968":0.001176518842170935,"969":0.015189294360864043,"970":0.004679703113712826,"971":0.006483938740978831,"972":-0.004178995256206863,"973":0.0005634055821832675,"974":-0.026269026051974516,"975":0.010829599648537866,"976":0.04058668960477321,"977":0.006632499926191137,"978":0.02256995704809453,"979":0.008861735217051017,"980":-0.0015429918233168022,"981":-0.00868063057837023,"982":-0.02388041840118459,"983":0.0008901869734239323,"984":-0.006443970896068407,"985":0.03416043800521156,"986":-0.01973315740138356,"987":0.028176685314255184,"988":0.036499811890072044,"989":0.009879851449023482,"990":-0.016120399957790923,"991":-0.022457140049349712,"992":-0.04151334818527175,"993":-0.05478440497733815,"994":-0.016621906030371298,"995":-0.0360529826584214,"996":-0.03279458672556859,"997":-0.011560714398703835,"998":0.009195473647235011,"999":0.05666149060099302,"1000":0.004690178161044089,"1001":-0.017276807610119814,"1002":-0.05878054503887335,"1003":0.020961393811094523,"1004":0.05412944599629444,"1005":-0.029187419875579334,"1006":0.04241594094402806,"1007":0.015220364047874545,"1008":0.0014436223254709131,"1009":-0.003595090783379247,"1010":0.01769911166833962,"1011":-0.048642384548676865,"1012":-0.0158488125168793,"1013":0.0017618032520193131,"1014":-0.020483787577070835,"1015":-0.03492009210715536,"1016":0.0022696374096605756,"1017":-0.019809418220901435,"1018":0.011131145452226182,"1019":-0.036349661568790104,"1020":-0.022782476731241785,"1021":0.018917544566460876,"1022":-0.007055005919619484,"1023":-0.007690074121796328,"1024":0.020350563899911113,"1025":-0.005641458644526801,"1026":-0.020743048821720327,"1027":-0.045458938261048305,"1028":-0.04106924378465851,"1029":0.04003244957905529,"1030":0.00408881574801961,"1031":-0.0071225763654778835,"1032":0.012047244019975995,"1033":0.03765446504786879,"1034":0.029496947689767256,"1035":-0.021006818430260057,"1036":-0.03054221573750246,"1037":-0.035997477277281864,"1038":0.020391992885908258,"1039":-0.026523284727876628,"1040":-0.04323194508436544,"1041":-0.021097039146004356,"1042":-0.03599248694954873,"1043":0.020898830658147228,"1044":-0.017037742816036937,"1045":-0.0183071865616198,"1046":-0.006286740372572466,"1047":-0.03899343986655832,"1048":0.0008393240277663099,"1049":0.024703539834240333,"1050":0.011038703130399818,"1051":0.013844500692947233,"1052":0.02061863391480469,"1053":0.04735811382119981,"1054":-0.010008727472408413,"1055":-0.006055850457663264,"1056":0.03343859528908575,"1057":0.03058642397511588,"1058":-0.0230931352108748,"1059":0.0023111548820374285,"1060":0.005839353838182632,"1061":-0.0221371660073675,"1062":0.030667460224924007,"1063":-0.018586636471074492,"1064":0.015213673771720736,"1065":0.02023106506740927,"1066":0.0004317039773239904,"1067":-0.023797838440269933,"1068":-0.03463309644446084,"1069":0.001293190896386107,"1070":-0.023298161456839377,"1071":0.01332022338363548,"1072":-0.03640466142735748,"1073":-0.033382786991454645,"1074":-0.035676658089079966,"1075":-0.009778536163199684,"1076":0.014592499820094945,"1077":0.03538298729332936,"1078":0.002608324954820297,"1079":0.02270301814186132,"1080":-0.006314086589545997,"1081":0.04083686160122811,"1082":0.006472308570393278,"1083":0.04103961665407655,"1084":-0.015602680473662266,"1085":-0.01681606766023424,"1086":-0.00031153943182542123,"1087":0.01418860368385239,"1088":-0.014205372551861694,"1089":0.015199814006675264,"1090":0.006402988286771591,"1091":-0.015980241291529643,"1092":-0.0031883475205132118,"1093":0.017969029558787694,"1094":0.05642930173215525,"1095":-0.002326268811382416,"1096":0.020525500789744716,"1097":-0.032563953344405726,"1098":0.02506236786364408,"1099":-0.008813250356896403,"1100":0.01691461237978927,"1101":0.025713561194916506,"1102":0.03608195105243472,"1103":0.0556617732531411,"1104":-0.012010934171402496,"1105":-0.000520066035834892,"1106":-0.010814385870288457,"1107":-0.02162892594657261,"1108":0.024019230505488855,"1109":-0.051768214520967006,"1110":-0.04389821092654014,"1111":0.0043223409296766135,"1112":0.02375874181581691,"1113":-0.011288383697635069,"1114":-0.022046086772392785,"1115":0.04500917845827681,"1116":-0.016743037671580953,"1117":0.00596700469922156,"1118":0.029798448867927804,"1119":0.026845878364846327,"1120":0.03539224168844813,"1121":-0.012781501480109802,"1122":-0.03219516368011173,"1123":-0.029668382007777386,"1124":0.03478463236259138,"1125":-0.021267505842439773,"1126":0.021726931829785513,"1127":-0.002991783568063249,"1128":0.04078561429522166,"1129":0.027669178500980312,"1130":0.014450810717848187,"1131":-0.011969873978437982,"1132":0.022370525906853175,"1133":0.07603021014414209,"1134":-0.041681799652348625,"1135":-0.01878253287317447,"1136":-0.02208767435420334,"1137":0.01360254103472335,"1138":-0.0028115015935793117,"1139":-0.005809944703761275,"1140":0.02827774334603092,"1141":0.005086879238478563,"1142":0.049065868193381705,"1143":-0.04926740849968072,"1144":0.00353459118879266,"1145":-0.026857227073410178,"1146":0.035398908305441325,"1147":-0.024532839152864052,"1148":-0.01171749555561055,"1149":-0.020064880944927106,"1150":-0.017991725136756436,"1151":0.004983249679263622,"1152":-0.017504934162930627,"1153":0.004399317082166814,"1154":-0.022611372392606528,"1155":0.02904675442694023,"1156":-0.05077130742563543,"1157":0.00930965883822199,"1158":-0.003360298987610478,"1159":-0.019541928423411382,"1160":-0.019278794923243223,"1161":-0.00204433939569079,"1162":0.032241367356242175,"1163":0.012387314424029124,"1164":0.015126680350240883,"1165":0.01433551784494681,"1166":0.009943706237836655,"1167":0.043912529820237974,"1168":-0.018192323502780838,"1169":-0.015500339448154397,"1170":0.026325645433828076,"1171":0.017140326821926833,"1172":-0.035328321121729775,"1173":-0.058668600343264585,"1174":0.034936679095344675,"1175":-0.01431136656127002,"1176":-0.038177960877733744,"1177":-0.021697232679818147,"1178":-0.022386279670474036,"1179":-0.015730499090809945,"1180":-0.024474287955295437,"1181":-0.026877458265563717,"1182":0.014407730870766371,"1183":-0.0018391577126388914,"1184":0.04352522058797644,"1185":-0.022583588827133145,"1186":0.0019959289722438693,"1187":0.0021475413555287074,"1188":0.023531137067232144,"1189":0.03761482576615039,"1190":-0.0008384467513179705,"1191":0.007325323398854977,"1192":0.0064126437243417315,"1193":-0.0029175937024516273,"1194":-0.012599897660789056,"1195":-0.039401959460198165,"1196":0.032518099220622786,"1197":0.021315291378137317,"1198":0.0003385195112726769,"1199":-0.04272682605306806,"1200":-0.016019666342624903,"1201":-0.008029591619914836,"1202":-0.05229299142024756,"1203":0.01641131827077262,"1204":0.03168672172479068,"1205":0.011445079520303733,"1206":0.015830805174113137,"1207":0.007388837012099787,"1208":0.013368572974094078,"1209":0.02992248588344659,"1210":0.019916813668205198,"1211":0.0030307437459138973,"1212":-0.05379260440451062,"1213":0.016946541338970365,"1214":-0.018068374101632614,"1215":0.017920961528038633,"1216":-0.05605196746780862,"1217":-0.02262444150596895,"1218":-0.02847598457629059,"1219":-0.02214661674854451,"1220":-0.03340224046231128,"1221":0.012362692267748812,"1222":0.017849166321491017,"1223":0.01910505594925438,"1224":0.00022282106998884347,"1225":0.007402257269263946,"1226":0.02543378277127516,"1227":-0.006132569631309596,"1228":0.0003724648010607747,"1229":-0.0038137935448252654,"1230":-0.01100720748209299,"1231":-0.0005764313735523529,"1232":-0.023248375239378692,"1233":0.010560304222070651,"1234":0.04061199434284335,"1235":0.004259394467500826,"1236":0.04856277458150186,"1237":-0.004152747253870235,"1238":0.03761083314094087,"1239":0.014780005999619324,"1240":0.010800731305343758,"1241":-0.038300187754490185,"1242":-0.0027211489570432962,"1243":-0.03454014179318916,"1244":-0.022551323288405537,"1245":0.0349904078427999,"1246":-0.010101965966977324,"1247":0.0077261125405457265,"1248":0.0005738480194662532,"1249":-0.0341261884337451,"1250":-0.03564619294561509,"1251":0.01704292167848583,"1252":0.0682003481778148,"1253":-0.0016252799009589401,"1254":0.026755154601824285,"1255":-0.020073836351435895,"1256":0.024345214694169736,"1257":0.016921327929777307,"1258":-0.033651041950612984,"1259":0.02270091986605954,"1260":-0.013084490327413203,"1261":0.0005770720256396879,"1262":-0.01040892654804792,"1263":-0.002558566244522364,"1264":-0.02948787248792735,"1265":0.010041528520248085,"1266":0.026233455735378965,"1267":0.02564887616421941,"1268":-0.023596972394378458,"1269":-0.039358225528412366,"1270":-0.03127025798441128,"1271":-0.00546310936317666,"1272":-0.03674938016347276,"1273":0.007950492653723632,"1274":-0.023812059854305886}},{"sx":1,"sy":1,"depth":1275,"w":{"0":-0.03857638212335729,"1":0.004877576371095151,"2":-0.013933945044052223,"3":0.008501722869201067,"4":-0.05199088926805327,"5":0.011622549404371633,"6":-0.018391203356830258,"7":0.002974904679442095,"8":-0.07993386335487854,"9":0.0007860991707080468,"10":-0.02092715761417314,"11":0.02379097803497365,"12":0.023381993570556047,"13":0.0020769398222840185,"14":0.03603366433650678,"15":0.0045069478605511,"16":-0.02955155130381726,"17":0.020228456380210334,"18":0.011730013004599723,"19":0.03451435096245382,"20":0.020642211106359387,"21":0.031855513050734294,"22":0.0343350869376176,"23":-0.0011877944181398418,"24":-0.010207696201524124,"25":-0.015421148122664808,"26":-0.0033225902241063392,"27":-0.009205022468029529,"28":-0.01571206524305395,"29":0.036738703606662045,"30":-0.017437371408742176,"31":0.017456672575192747,"32":-0.019376642528502495,"33":0.04479816313601299,"34":-0.020064627432953213,"35":0.005167630016201823,"36":-0.03884957234450688,"37":-0.032031463986268216,"38":0.03184857426510235,"39":0.06113456341776779,"40":0.010529386464694883,"41":-0.04706416962301239,"42":-0.041140330228386465,"43":0.017638599372019517,"44":0.0191970077533735,"45":-0.003392162434581657,"46":0.0007969300103332757,"47":0.006187279717926819,"48":0.04480847421934698,"49":-0.040566419367351336,"50":0.013387896338595585,"51":0.008205661083992745,"52":-0.0018402964287239092,"53":-0.0027161523403708915,"54":-0.009463715029361785,"55":0.009092077920179766,"56":-0.022430410675469727,"57":0.010989203047400075,"58":0.027489497961359657,"59":-0.021196870490515805,"60":0.01833862512449722,"61":-0.035713998810451134,"62":-0.04826876438475404,"63":0.025143939389220864,"64":-0.002841976310893839,"65":-0.010350259230347363,"66":-0.01976830313134489,"67":-0.0218810220439036,"68":-0.02713556257593914,"69":0.0207622361336616,"70":-0.010331624769424303,"71":-0.03668238983682192,"72":-0.0078765639039378,"73":0.04401508267161491,"74":0.02983398986611411,"75":0.0071862097357018075,"76":-0.036674670348707014,"77":0.00017271127489057686,"78":-0.024548328880268422,"79":-0.015645675526072034,"80":-0.005994363493235647,"81":-0.02559738577534697,"82":0.026617611379091386,"83":-0.02009530884257974,"84":0.04834546292065931,"85":0.01776746898396667,"86":0.028050338269217233,"87":-0.008426931087530945,"88":-0.03393309141115499,"89":-0.024434187037235468,"90":-0.014131329141885408,"91":-0.047626353857733734,"92":-0.01124593021046018,"93":0.03188317036566343,"94":-0.008611753744528943,"95":-0.009131559365787112,"96":0.035361441946780675,"97":-0.0008824516206028734,"98":-0.013917752689798567,"99":0.03331166190591274,"100":-0.006668000926659653,"101":-0.0013870527400254625,"102":0.02501521350491629,"103":-0.010059960539569396,"104":-0.0017859798316901473,"105":-0.007661554797707542,"106":0.06438322693366481,"107":0.06369652722393325,"108":0.03028642385349063,"109":0.05963002959606704,"110":-0.04208649745029019,"111":-0.002949520058428162,"112":-0.028053250793990556,"113":0.012342505844321599,"114":-0.03140996679379885,"115":-0.043814657741147935,"116":-0.03235780046884305,"117":0.03398318543406112,"118":-0.009589918276554659,"119":-0.030071076295018616,"120":0.03975060907390775,"121":-0.0003544234492472608,"122":-0.05943527391432005,"123":-0.003936589623955359,"124":0.0359049230371935,"125":0.012073524672205264,"126":0.021619215747173074,"127":-0.003468430586687218,"128":-0.009033435877118993,"129":-0.022312677141152745,"130":-0.015404958999801488,"131":-0.012105678564415997,"132":-0.044305963511219924,"133":-0.020566620530710688,"134":0.033902186629313685,"135":-0.014856644220264056,"136":-0.026220728539952658,"137":-0.012398936513241525,"138":-0.010001060508122795,"139":-0.0159050469934999,"140":0.044571296541095165,"141":-0.05005192966312551,"142":-0.002509441848704076,"143":0.019498560444782227,"144":0.020567376098114657,"145":-0.015167962976635285,"146":0.005670371475028844,"147":-0.005337869484723964,"148":0.005547227185428661,"149":-0.0012382427681676526,"150":-0.04696962693849056,"151":-0.01209338211269194,"152":0.036853618531897725,"153":0.02341478236429765,"154":-0.018291835371513077,"155":0.0234937946486698,"156":-0.021575101540527244,"157":-0.003537249764055379,"158":-0.017208806408804553,"159":-0.017802811264217958,"160":-0.010376067300192459,"161":-0.01308494751012642,"162":-0.035436279302361234,"163":0.013003256639594436,"164":0.024475792041471243,"165":-0.05756841718666581,"166":-0.003938506396512406,"167":0.009205265662550177,"168":-0.03178939025871676,"169":0.033986395124416834,"170":-0.04271748252409541,"171":0.0037808353142078457,"172":-0.020404978175414052,"173":-0.006930373087891112,"174":0.006142859508284744,"175":-0.023043168849994165,"176":0.029999666149260376,"177":0.010686095147277995,"178":-0.016484326728247487,"179":0.02915293910536279,"180":-0.014188962663392092,"181":0.050493794869925814,"182":-0.004496299814935088,"183":0.0667527649139199,"184":-0.029978090004164543,"185":0.019216767952410237,"186":0.024860702844997206,"187":0.008750630981917586,"188":0.035854677729898275,"189":-0.012966168666027157,"190":0.0012175935486141531,"191":-0.007894930598265123,"192":0.03054587030374136,"193":-0.038630068804407995,"194":0.016214130987469877,"195":0.03128108167016085,"196":0.0019383766114166963,"197":0.014599881297104968,"198":-0.027573209062498893,"199":-0.02040691691369482,"200":-0.03603563687926962,"201":0.027592363541776996,"202":-0.07168655869431577,"203":-0.015017157027517897,"204":-0.03062500793654498,"205":0.00872952177846362,"206":0.02784651366473976,"207":0.018501608141672475,"208":-0.01224480325220172,"209":0.01582058529949815,"210":-0.012602127897745317,"211":-0.12075038115989016,"212":0.0055813179609898395,"213":0.0008699978052869291,"214":0.0317713473778828,"215":-0.022412218844338055,"216":-0.047722600180312214,"217":0.02659646154812537,"218":0.016424907965861407,"219":-0.00037525225704877595,"220":-0.03226861269923867,"221":-0.05694992801320242,"222":0.0011309423982142095,"223":0.04401854803112487,"224":-0.019402333574241086,"225":0.0013649340580125782,"226":-0.002721190493944647,"227":-0.0322159462381945,"228":-0.0011210413089193356,"229":-0.026023638910012026,"230":-0.0020765660881477068,"231":-0.044639990599035444,"232":0.0010184262458258193,"233":-0.01048436558586514,"234":0.04356989319953622,"235":-0.04498810875090141,"236":0.028045051125260696,"237":-0.02025143844609753,"238":-0.044630834066711665,"239":-0.051965969179678724,"240":-0.008882696564615685,"241":-0.0083019478548024,"242":0.049664212340729194,"243":-0.05840609153090363,"244":0.03191069470228189,"245":-0.0007590896335183956,"246":0.024641165162758865,"247":0.0004302281569960481,"248":-0.00918665222444448,"249":0.03302589941578211,"250":-0.013364056706577436,"251":0.028015486301351564,"252":-0.01832513140429294,"253":-0.0004857486596130396,"254":-0.03509709617930064,"255":0.07171722521443591,"256":0.03515743903625207,"257":-0.0018187797302802347,"258":0.03161696750922976,"259":0.0038396886794280524,"260":0.007687859200948035,"261":-0.036354617438636286,"262":0.0374930643614107,"263":0.06377233845922492,"264":0.018747899708832245,"265":-0.030585513439598207,"266":-0.04751135084728075,"267":-0.025129589006379488,"268":-0.027029087613088275,"269":-0.000704601802117276,"270":0.005245505017332949,"271":-0.00017037770899073012,"272":0.03453459921531486,"273":0.008978263741896003,"274":-0.09973634165166043,"275":-0.0922515412868861,"276":0.02965125209165786,"277":-0.02046132943174163,"278":-0.016378955541897732,"279":-0.004468617297947143,"280":-0.02945992222738722,"281":-0.00958038694877056,"282":0.0005079296242681079,"283":-0.10383191273776259,"284":-0.04823337803263867,"285":-0.0023314511147154086,"286":0.01906451231094793,"287":-0.016158239546362804,"288":0.009394883302647214,"289":0.023217744201038056,"290":-0.015068052448767843,"291":0.0009742306518220756,"292":-0.13092406266499837,"293":0.013001128270691324,"294":-0.014733644093539885,"295":-0.03506196043371725,"296":-0.03371021062260077,"297":-0.0186269947353167,"298":0.0140037016375084,"299":-0.02630907139888679,"300":-0.004630123078836523,"301":-0.1715530263145443,"302":0.004006997301893035,"303":0.028029807598729806,"304":0.009545172312680962,"305":0.04242081064087223,"306":-0.01884483969942894,"307":0.017234972387188387,"308":-0.02561725219244927,"309":0.024562486261512244,"310":0.011006390490668101,"311":-0.08864734267761201,"312":-0.06338242736556224,"313":0.02021942629453581,"314":-0.005206010404842621,"315":-0.011709996278811832,"316":-0.015684456659825877,"317":0.0592564458671144,"318":0.0025355278785030677,"319":-0.03678647341177957,"320":-0.00013373633501955831,"321":0.025084681333426645,"322":0.01823083429494914,"323":0.05228613990771176,"324":-0.006842787668621612,"325":0.02929898818419166,"326":0.012930813939776395,"327":0.019868351293049275,"328":0.0206919594489103,"329":0.03412373137738406,"330":-0.002368378247690336,"331":0.0025404195514342866,"332":0.00913766400036856,"333":0.05074814228938393,"334":-0.011898718922051974,"335":0.04353696046629506,"336":0.03606515863222254,"337":-0.0073972964390016105,"338":-0.0032363264547757404,"339":0.016828468370180847,"340":-0.01807063453271432,"341":0.04532093805278709,"342":0.00703215040285541,"343":0.011746059297533121,"344":0.01975449374692327,"345":0.02141338282293134,"346":0.005207453031600683,"347":-0.0007091716999322544,"348":-0.03743658054575465,"349":0.02136506147530459,"350":-0.024020235557471674,"351":0.028331028406151565,"352":0.042572211620756924,"353":0.02506509577167566,"354":0.025647979792359353,"355":0.014355814665567406,"356":0.013318701966903828,"357":0.009896967727834256,"358":0.004776317168831625,"359":-0.03685249042225602,"360":0.02372265318984337,"361":-0.00732467221680514,"362":0.04575282318250274,"363":0.021537989496582706,"364":-0.008986249931008538,"365":0.030614584901276547,"366":0.028471715377576343,"367":-0.020507400400466627,"368":0.0026604635245158774,"369":0.038631664737202476,"370":-0.022800237328238774,"371":0.0005358208308658416,"372":0.028257062963556658,"373":0.009879730056593204,"374":0.0002669650749601739,"375":0.0036555270272120915,"376":0.025443097558691986,"377":-0.01567095853934259,"378":0.011776010677317072,"379":-0.016205192084461768,"380":0.004029187022155609,"381":-0.03141337288797276,"382":0.03768223657023224,"383":-0.016498282393535405,"384":-0.01616472384788708,"385":0.030426983239895712,"386":-0.024682196130301447,"387":-0.0192793946060276,"388":-0.024068109731700628,"389":0.03371160799360348,"390":0.0400492967433198,"391":0.017066646394222933,"392":-0.0021855824508681017,"393":0.020704646132496538,"394":0.039942287556648914,"395":0.01947315134645418,"396":-0.027130817419065777,"397":-0.023174900663410238,"398":0.01840438526810314,"399":0.030161891476591284,"400":-0.0029892149433498848,"401":0.005085555901777427,"402":-0.0003011960799482892,"403":-0.006814973073630114,"404":0.0039809336304965914,"405":-0.050773116294761285,"406":-0.04417155108306636,"407":-0.02570591258280464,"408":-0.02204260125973768,"409":0.020985839063301155,"410":0.02279447360935231,"411":0.015089916055188491,"412":0.001813767885608856,"413":-0.000462973691920936,"414":0.031148879151660376,"415":0.0008577902488576409,"416":-0.004994393639305188,"417":0.0387368679646603,"418":0.013597155928524528,"419":-0.002870536364777874,"420":-0.05657162901906896,"421":0.0372483737088698,"422":0.010065089839815232,"423":-0.02846165574355448,"424":-0.010184522404463152,"425":-0.02947259568304083,"426":-0.028830995734474337,"427":-0.0060120864759257665,"428":0.029889095053104917,"429":-0.004200886344283696,"430":-0.0058413994086178676,"431":-0.012599636645072172,"432":-0.05095749723950295,"433":0.0044330627689301415,"434":-0.003907408803172014,"435":-0.0033444410442860315,"436":-0.019782302393779004,"437":-0.00541460421498735,"438":0.013369990816014317,"439":0.022026627348941338,"440":0.004717906199383157,"441":-0.027896164679520746,"442":-0.009355834484617041,"443":0.0025688353717761517,"444":0.0400541045364729,"445":-0.025521220523947143,"446":0.006068045182961316,"447":-0.008455841758784555,"448":0.01880497489317344,"449":-0.019197026558528,"450":-0.02233748158283801,"451":0.010509164227108332,"452":-0.020168563194942802,"453":0.03464254439055173,"454":0.00683703999420899,"455":-0.01026529542306889,"456":0.02047688759769609,"457":0.014100379810557881,"458":0.0004776194086934547,"459":0.02764674326401785,"460":-0.029583933333109515,"461":0.008520842723203985,"462":0.019718921852513584,"463":-0.032886771763172326,"464":-0.024102233432993874,"465":-0.024915876688348604,"466":0.04734812638731217,"467":-0.02239152820081356,"468":0.010368624826712872,"469":0.011659656778662916,"470":-0.01983674059053608,"471":0.04114047166895067,"472":-0.03571170162086437,"473":-0.00882415783249691,"474":0.01989573442189343,"475":-0.024635442309733028,"476":0.00915470150678056,"477":-0.021513377940227847,"478":0.004958145948796508,"479":0.043342961017476936,"480":0.0169078036683127,"481":0.014348670830030611,"482":0.01749582907870106,"483":-0.03845719161841341,"484":-0.003974340457636249,"485":-0.01245797785777467,"486":0.041289904497893014,"487":0.010485038128993098,"488":-0.005558799478119328,"489":0.07850305798561098,"490":0.030788989617356263,"491":-0.022136641441869758,"492":0.05702421934038472,"493":-0.02009779997740931,"494":-0.05404985787102543,"495":0.017360898272419257,"496":-0.00021624183672068538,"497":0.03591030648821458,"498":0.008622900475934843,"499":0.024758121466477847,"500":-0.030136590247639865,"501":-0.004057745349197449,"502":0.005666532814250554,"503":0.028578943208172836,"504":0.011460300874557853,"505":-0.005989686825037074,"506":-0.01938015136406228,"507":0.05809024195499807,"508":-0.032160271896504375,"509":-0.020292076560759303,"510":0.006739208975509215,"511":0.02656229512249377,"512":-0.03923848797613301,"513":-0.021313413324381022,"514":-0.012474847976205846,"515":-0.021480200098847282,"516":-0.010193487486375672,"517":-0.020627255626339658,"518":-0.0152698724445751,"519":-0.004937296411321461,"520":-0.002338316397528655,"521":0.030419723379615807,"522":-0.028228516998072377,"523":0.0003189395477001249,"524":0.0003438667635601988,"525":0.0426618672386649,"526":-0.0022474753782144776,"527":-0.011585902692506632,"528":-0.000047098650998812876,"529":-0.02709078479110394,"530":0.025157740030788547,"531":-0.021574908330370717,"532":-0.01790850370022365,"533":0.01953934109287398,"534":0.029926750475673346,"535":-0.025076516229004444,"536":-0.06310463460422001,"537":0.011764589466271885,"538":0.0019044591409946678,"539":0.009094756629318624,"540":0.05956691871066468,"541":-0.031103768967652646,"542":0.014278350355715933,"543":0.032701024169204736,"544":-0.01835990014875573,"545":-0.06892559044129164,"546":0.01683212023689445,"547":0.01915110059993419,"548":-0.02227608251699511,"549":-0.0011234663670711704,"550":0.015656972726332836,"551":-0.011726639535278702,"552":-0.03662711857075252,"553":0.00043894475485499435,"554":0.016706299800771374,"555":0.032249253966386955,"556":0.003043443894654238,"557":-0.0441642860106839,"558":0.023919282688658026,"559":-0.029283594120492317,"560":-0.03145481201248399,"561":0.026238283643643376,"562":0.04598890331179449,"563":-0.06997383679160912,"564":0.05478424551779872,"565":-0.002909692069054839,"566":-0.006673801723739154,"567":0.010791791173764708,"568":0.011478364508859909,"569":-0.003230560886408697,"570":0.022661902874689263,"571":0.02996738998314977,"572":-0.06667210079561177,"573":0.014342827517491826,"574":0.01705569914475861,"575":-0.002119612654452393,"576":0.0034912953744854966,"577":-0.035041466575091114,"578":-0.005957025131217426,"579":0.010232296011675652,"580":-0.03703108401492223,"581":-0.04982523788913072,"582":0.05725222850989964,"583":0.012890974206815148,"584":0.026681647358459175,"585":0.007642969470661586,"586":0.0352727163811517,"587":-0.016985523998762173,"588":0.02214970531137346,"589":-0.13295380935367263,"590":-0.021384806657515066,"591":0.018344633520805936,"592":0.0169798286218667,"593":0.004390114256764142,"594":-0.015313969285676852,"595":0.006545710666830646,"596":-0.01019786529902192,"597":0.017156741385610623,"598":-0.10476978949099201,"599":-0.03127395219220593,"600":-0.0018085001262241143,"601":-0.03160787592595571,"602":0.0018786747924892408,"603":0.02927873604607763,"604":0.0028092467102693508,"605":0.058403164271934274,"606":0.021382389343236673,"607":-0.09028830271173875,"608":-0.059716437281588854,"609":-0.04810557514416175,"610":0.03200899889382672,"611":-0.008600250605283232,"612":-0.009862164811321022,"613":-0.016045897966970063,"614":0.003974827710046141,"615":0.002173871628226904,"616":-0.14604847983088726,"617":-0.03119535144177224,"618":-0.0039282925282945625,"619":-0.01797638334001648,"620":-0.01403372126814267,"621":-0.0167473304087812,"622":0.026196606828277753,"623":0.005846902620062475,"624":-0.00391310286225405,"625":-0.03649909120481379,"626":-0.023628864646111622,"627":-0.03250031143866701,"628":0.009641287319062965,"629":0.03902952311566675,"630":-0.15955519382772282,"631":-0.08264468899258835,"632":-0.03116930230986209,"633":-0.029423266475957697,"634":0.022119818091846356,"635":0.037358438935225946,"636":-0.01309309934440125,"637":-0.027238910621509634,"638":0.014093346138162217,"639":0.04449422925135903,"640":0.025942384517689515,"641":-0.0132732178691922,"642":-0.012781809052525349,"643":0.051277072536384076,"644":-0.002689660794906814,"645":-0.020469129968998252,"646":0.002973864175347511,"647":0.017992318877553502,"648":-0.04445945438537743,"649":0.0474194459674879,"650":-0.017093542096150192,"651":0.004949708687813041,"652":0.025825361762071855,"653":-0.002816959663669197,"654":-0.009204404019725354,"655":0.006870781242451865,"656":-0.0012598738385666047,"657":0.007464474405924277,"658":-0.006903204140206438,"659":0.010973380426162482,"660":0.024617250203094056,"661":0.0033268262566888305,"662":-0.017965232401931253,"663":-0.0072852257961328985,"664":0.013009859919420734,"665":0.015756473267573835,"666":0.030069197686773214,"667":-0.020204268664977862,"668":-0.01827013756128298,"669":-0.006818826237269116,"670":-0.030766350411525627,"671":0.036020627864389344,"672":-0.0017631907775597327,"673":-0.040072331024497775,"674":0.01862965823688651,"675":-0.012476521535764605,"676":-0.03412174484763198,"677":0.022159111624596797,"678":0.014719438461944588,"679":0.0033237684493084628,"680":0.012127778586817371,"681":0.025406949447880897,"682":0.03151135369836124,"683":0.05213646385606596,"684":0.004591143227489095,"685":0.0227223789708566,"686":-0.003771158019253333,"687":0.02947955822265248,"688":-0.0197370200795161,"689":0.0025701670723417363,"690":0.01604843040341836,"691":0.05375121371170209,"692":-0.011947095759859415,"693":0.019098807801328034,"694":0.015476394074307618,"695":-0.05289337362632501,"696":-0.028423110059199407,"697":0.03993349999247824,"698":0.026044616828021647,"699":0.011043316517782597,"700":-0.005561601560119614,"701":0.00834795758661163,"702":-0.041218308085156107,"703":-0.012333378964409092,"704":0.004712022373040834,"705":-0.0072452517473241594,"706":-0.03192556771313631,"707":0.014621092775178021,"708":-0.009234929787428696,"709":-0.02683368810457704,"710":-0.01761048718283783,"711":0.002645549260526878,"712":0.017215839733856406,"713":0.005770357899548882,"714":0.018606649838494776,"715":0.02052063803783487,"716":0.043392785632108806,"717":0.016051454279612458,"718":-0.022938921539024673,"719":0.00044659306964382696,"720":0.0015124099619504682,"721":0.018887847334777025,"722":0.004065897268804537,"723":0.003804261299387502,"724":0.047784166459623814,"725":-0.011893682824778724,"726":-0.02997951288556172,"727":-0.01275966066272457,"728":0.024679806879650257,"729":0.03119590780234957,"730":0.003467874008399013,"731":0.010583953529930275,"732":0.03175335758530145,"733":-0.004875913921603938,"734":0.014262242255738638,"735":-0.01737114114204436,"736":-0.008496696045684359,"737":-0.008021913024263597,"738":0.012706851377133172,"739":-0.009484863946407344,"740":0.007879124315926649,"741":-0.04408572509154718,"742":-0.010801240125427486,"743":0.018819267395785565,"744":-0.01699257147090539,"745":0.01585111111146072,"746":0.0327941223953936,"747":0.015055030645988432,"748":0.018247684072953956,"749":0.008643109152368168,"750":0.001564919249170725,"751":-0.016263293511242498,"752":-0.011499398882846717,"753":0.010663894613140632,"754":0.0465674038033329,"755":0.007213850614813414,"756":-0.038814541386109576,"757":-0.014886342356183621,"758":0.017357628910746378,"759":-0.0018894527842792433,"760":-0.009023861667359,"761":0.049686177871038996,"762":0.03843455426585174,"763":0.00007912433112726944,"764":0.0472894553736455,"765":-0.034859971756743144,"766":0.010223154644821016,"767":0.021079977136566348,"768":-0.027207695561203792,"769":0.00683755773009103,"770":-0.01727021243348792,"771":0.003182932265994985,"772":0.018198109292736523,"773":-0.0013793544344527307,"774":-0.028073236102578763,"775":0.04322952629804823,"776":0.031314824000944264,"777":0.009849222950113935,"778":-0.024725564175970546,"779":-0.03714331228465491,"780":-0.011201232644903827,"781":0.0033388709128604824,"782":0.013499854330836036,"783":0.0006916879977294355,"784":0.00850923896069647,"785":0.010494531124279685,"786":0.02457257653795708,"787":-0.043442354544321375,"788":-0.010329269258315666,"789":-0.01242896787156962,"790":0.0035614316655736473,"791":0.0017911098053656478,"792":-0.04686914732782301,"793":-0.004272280837499995,"794":-0.017083732250860892,"795":0.02104783174305356,"796":0.009689427020872048,"797":-0.051800496731999934,"798":-0.057284417000179784,"799":-0.005922104161673016,"800":-0.02407476675899821,"801":-0.012233982973616886,"802":-0.005310209190953764,"803":0.0005953485907645999,"804":-0.004308792354480636,"805":-0.001320455776785997,"806":-0.0425350697785397,"807":0.02694112429126556,"808":-0.010592818714879644,"809":0.016552764636290268,"810":0.023177663978815898,"811":0.050670107136126914,"812":-0.02092899303366738,"813":-0.005588895267590529,"814":-0.016735129314096875,"815":-0.01975705147164472,"816":-0.02571908428752059,"817":0.020481368743065807,"818":-0.02126786596188775,"819":-0.03921015310320133,"820":-0.0018039490441172437,"821":-0.03569731090376449,"822":0.025474429317208704,"823":-0.03180411088629791,"824":-0.01530423684115877,"825":0.012118744280355833,"826":0.02218230700083052,"827":0.02116326596529506,"828":-0.019546234285745017,"829":0.005045199713580408,"830":-0.02236231018496841,"831":0.02688858317500522,"832":-0.014500250696961725,"833":-0.01132517817086985,"834":0.011116153532097658,"835":-0.000990536038690159,"836":0.021250642231441526,"837":0.010165689914901865,"838":0.031998507600135874,"839":0.014445428622107872,"840":0.023433996202893458,"841":-0.020809903381719567,"842":-0.04070456644403775,"843":0.027099464360353497,"844":0.024150438395076773,"845":0.053809282104256215,"846":-0.006887889313793124,"847":-0.017566475719557665,"848":-0.004194823702835285,"849":-0.006480783840754349,"850":-0.003675231894456345,"851":-0.018994570789485476,"852":0.010324417548771026,"853":0.0327804335758445,"854":0.018158058649120765,"855":-0.03566726111353082,"856":0.01428691376125112,"857":-0.046279736692547,"858":-0.017592813894789262,"859":0.016275334884050145,"860":0.016070553912264973,"861":-0.024286361345853033,"862":-0.04336370954794199,"863":0.020968788954455673,"864":-0.030726554672305634,"865":0.07813694563807715,"866":0.005251313852227446,"867":-0.010984043959947896,"868":-0.0356639643846452,"869":0.020832106197362334,"870":0.006756751009144073,"871":-0.03838240701862143,"872":0.021680449090051308,"873":0.008538725679989884,"874":-0.0004414470911726727,"875":-0.017004407200930393,"876":0.0438910547502764,"877":-0.02272272451351067,"878":-0.005748510493903188,"879":-0.005218668275996487,"880":0.014869775234057515,"881":0.0010319533378861498,"882":0.021120360429062648,"883":-0.01785472732663703,"884":-0.006710466455864631,"885":-0.0364546069349436,"886":0.003150013397866207,"887":0.007125704779676376,"888":0.04769295969694808,"889":-0.01420959115951954,"890":-0.03899521763168585,"891":0.002271119434738681,"892":0.013356679259823232,"893":0.0007361596043614868,"894":0.03986237402274027,"895":0.01996948938831437,"896":-0.022306672937328673,"897":0.020652680719534203,"898":0.034058409439436485,"899":0.04770673829118062,"900":0.051990696317561085,"901":-0.0031721155384175095,"902":-0.016731005821200146,"903":0.025393095955202272,"904":0.0011131900833430827,"905":0.02133479311124325,"906":0.006678098022260525,"907":0.0013448070592011166,"908":-0.026060079018524574,"909":-0.02437957936879951,"910":-0.010400221556276812,"911":0.013119451407200812,"912":-0.027877351016285256,"913":-0.004824777852702495,"914":0.008431082718213724,"915":0.013706064090442848,"916":-0.017656214090848155,"917":0.03324805903046384,"918":-0.03605768585779582,"919":-0.06417897709584007,"920":-0.004850121739735903,"921":0.0059868413510932314,"922":0.0013730316031170778,"923":0.04641117849106638,"924":-0.03958332955754948,"925":-0.0020909376711656926,"926":0.022184586144660623,"927":0.022774859020341043,"928":0.006373643184152253,"929":0.027741897710848878,"930":-0.023777735989776904,"931":-0.0029876707716662977,"932":-0.013887409931684556,"933":0.022915940987310646,"934":-0.013464163855781924,"935":0.06241268595681226,"936":-0.020959046616012094,"937":-0.017766333304825174,"938":0.0443468121297472,"939":0.016598060775540678,"940":-0.011840383300409181,"941":-0.02509680457702518,"942":0.006701975432684258,"943":-0.0060871081465131045,"944":0.0326172347875468,"945":-0.009865269524312796,"946":-0.022319344779138422,"947":-0.019044810494251992,"948":-0.02191664972406452,"949":-0.002891896714752678,"950":-0.13265463374445643,"951":-0.08991423860950552,"952":0.11564198260717483,"953":-0.11324265611884898,"954":-0.040279320791363864,"955":0.018938402485078852,"956":0.03490072858397691,"957":0.015624746979055656,"958":0.011522940108636633,"959":-0.008782003285331706,"960":-0.02378915908609571,"961":-0.013795152976093813,"962":-0.025870905484059802,"963":0.01103208667363663,"964":-0.03459442896706564,"965":0.037924979432919025,"966":0.020879528096670413,"967":-0.005884962988954589,"968":0.020930419417220153,"969":-0.0037176881085371665,"970":0.047330554534362634,"971":-0.02172154687709018,"972":0.002171543384652506,"973":0.0041174021005377535,"974":0.023646017125273797,"975":0.055225829757776866,"976":0.02147723744991601,"977":0.025249641145320093,"978":-0.02963930518779225,"979":-0.002766706318260058,"980":-0.014137702251132337,"981":-0.03346871066284067,"982":0.007775385206867016,"983":0.04004245773251421,"984":0.009125772482543282,"985":0.018139929074441223,"986":-0.030502884608228725,"987":0.031263890865982004,"988":-0.013525845532655829,"989":-0.009885127180326816,"990":-0.007405561386925114,"991":0.054616735661237786,"992":0.013283393290697549,"993":0.003655412758571838,"994":-0.0008138316438752488,"995":0.030252919100836936,"996":0.008171458364775194,"997":-0.010384951136584625,"998":-0.014839363588927847,"999":-0.02201054620066954,"1000":0.03271267427382932,"1001":-0.0018101429007132983,"1002":0.013161854210892405,"1003":-0.01033899922300958,"1004":0.008136900741544899,"1005":-0.0490272367545832,"1006":-0.017346676143387477,"1007":0.002912495890230479,"1008":0.007512112847627742,"1009":-0.017190080322351114,"1010":-0.005449941506788557,"1011":0.013439556085310372,"1012":-0.018304114225299345,"1013":0.02927823039750849,"1014":-0.019069151437694176,"1015":-0.018306729106805388,"1016":-0.010918401764294797,"1017":-0.006183554086613349,"1018":0.00611065402561236,"1019":0.0014393547092977086,"1020":-0.000008248015482577719,"1021":0.009989653919878123,"1022":-0.02207861185002688,"1023":0.005411520557594311,"1024":0.02979402475731606,"1025":0.03474966640701776,"1026":0.021679939613886434,"1027":-0.013079028761943855,"1028":-0.01757735660942559,"1029":0.02027651260496875,"1030":0.05853108069226127,"1031":-0.02368905526187279,"1032":-0.021361972566206335,"1033":-0.02495511827985088,"1034":-0.00847147880364562,"1035":0.008288898493279769,"1036":-0.06079194714302775,"1037":-0.008571967281891033,"1038":-0.03839697394844941,"1039":-0.03277287941441297,"1040":-0.03538843981829311,"1041":0.006263597142916225,"1042":0.007363312707647886,"1043":-0.014375630009371462,"1044":0.024216584651243413,"1045":-0.04029328055941438,"1046":0.0006380414523794617,"1047":0.051554902433798185,"1048":-0.016922790707051515,"1049":0.014679104159351251,"1050":-0.007608406276056607,"1051":0.00758321615696359,"1052":0.02389766578020753,"1053":0.0041364809819556736,"1054":0.004665000253634913,"1055":0.020656970929279976,"1056":-0.02106104944129695,"1057":-0.01686551533066404,"1058":0.010296583026710509,"1059":0.03998704467747802,"1060":-0.011699210906914668,"1061":0.017156655681163684,"1062":-0.04135023450231403,"1063":-0.0009801195938366743,"1064":-0.008260320674036061,"1065":0.010501709179326928,"1066":0.021940996636565322,"1067":0.0020146144888601703,"1068":0.011401429645554703,"1069":-0.06088334530783368,"1070":0.021335029505990748,"1071":-0.02203097617263301,"1072":0.009224057543805767,"1073":0.02963051377333693,"1074":0.013231741535108877,"1075":0.0016952930899889363,"1076":-0.00619960263276992,"1077":-0.017351684349710454,"1078":0.04123269386207919,"1079":0.0038369509467454624,"1080":-0.0424610930048895,"1081":-0.055787377551599314,"1082":0.0011958497435021372,"1083":-0.010555407477421837,"1084":-0.0016641205335124608,"1085":-0.03179074867458116,"1086":0.007514416698531308,"1087":-0.05944203273644726,"1088":-0.008605250823175018,"1089":0.030947909320274775,"1090":-0.017886945331337067,"1091":0.006074364401484491,"1092":-0.026160054603658927,"1093":0.02037233211604793,"1094":0.007098426596083681,"1095":0.01586040970308782,"1096":0.004479859045861937,"1097":0.005407313736767141,"1098":-0.005557010606868669,"1099":-0.03126508067907937,"1100":-0.014426907022342754,"1101":0.019940879827839247,"1102":-0.012638893243199318,"1103":0.006404333680674088,"1104":0.02789061139699214,"1105":0.008599109415695503,"1106":-0.00018021373026483968,"1107":-0.018786564108539478,"1108":0.05110971284924352,"1109":0.007286562774232256,"1110":-0.0046726860132508775,"1111":0.008204112884733019,"1112":0.02629023563228684,"1113":0.0006506228959414032,"1114":-0.03745503697470353,"1115":0.03824455894946525,"1116":-0.012952136465480091,"1117":0.000011809661272353285,"1118":-0.03411635436664623,"1119":-0.002706147315147948,"1120":0.0009473322204778823,"1121":-0.04688325278147899,"1122":-0.004649265757599388,"1123":-0.007438029612811552,"1124":-0.0037097985285751514,"1125":0.015548901883812144,"1126":-0.01813262925803735,"1127":0.029399243164602098,"1128":0.013109321574208873,"1129":-0.020307788481054034,"1130":-0.0752546058746687,"1131":-0.0169853336932475,"1132":0.05513085999064396,"1133":-0.051852881380098005,"1134":-0.013012233076340552,"1135":0.02370669057746864,"1136":0.027142220843084975,"1137":0.03445626012908474,"1138":-0.00693770695292769,"1139":0.014278750977815462,"1140":-0.010681615600578388,"1141":-0.03631242530754995,"1142":0.03373587851987233,"1143":-0.024302169482584436,"1144":0.026084900289679996,"1145":0.027790666868986198,"1146":-0.032620428609335964,"1147":-0.010875501703785644,"1148":-0.03415185909062009,"1149":-0.019676752257155403,"1150":-0.011425458171345205,"1151":-0.019737168852113338,"1152":-0.0032673792499483367,"1153":0.01653557270338365,"1154":-0.004944476720802724,"1155":0.0147146814508039,"1156":-0.032410994802848064,"1157":-0.028259573931906763,"1158":-0.02012604469619147,"1159":-0.041132424214959454,"1160":-0.0011205638646399343,"1161":-0.01886595506683425,"1162":-0.02226978809048458,"1163":0.015394464844044421,"1164":0.022886997052751674,"1165":0.002416871324315861,"1166":0.0015853611502298877,"1167":-0.0012939400835525856,"1168":-0.013696977309263406,"1169":-0.00745857885864575,"1170":-0.011512197021294355,"1171":0.03591775242180979,"1172":-0.02254111346834549,"1173":0.03011051950639698,"1174":0.03460827990741702,"1175":-0.011142757178725385,"1176":0.0314674167537414,"1177":-0.03185073840270136,"1178":0.010404236681741499,"1179":0.008654038092153097,"1180":0.019807153652830558,"1181":0.011732695346827339,"1182":0.04636243002570887,"1183":0.0025130096901371758,"1184":0.008810264441656817,"1185":-0.023630958999654457,"1186":0.012253217978168945,"1187":-0.016853147301252085,"1188":-0.028609619828643126,"1189":0.030956846584282483,"1190":0.014276907432440561,"1191":0.007615197434802757,"1192":-0.009361492643510903,"1193":0.02298864700359732,"1194":0.010786412344402573,"1195":-0.029174864948736813,"1196":-0.01015444942327553,"1197":0.03912380862012713,"1198":0.052618614255281186,"1199":0.007885749507316043,"1200":0.017513608248902173,"1201":0.02887147607282433,"1202":0.006280063930787798,"1203":-0.0330407134644183,"1204":0.012813728789313937,"1205":-0.0254121587746127,"1206":0.011311539398949189,"1207":-0.04196577607145529,"1208":-0.017218094312049587,"1209":0.04082166056581337,"1210":0.06141001512347102,"1211":-0.0271194658756906,"1212":0.01733888998812091,"1213":0.010510361143486645,"1214":0.006852049719825309,"1215":-0.0017890897683900215,"1216":0.010986404781848182,"1217":-0.01353269166779523,"1218":0.020578563829799106,"1219":0.0056060518709452984,"1220":-0.0030812302461675225,"1221":0.02477972510528237,"1222":0.006334563189747459,"1223":0.016081252872524338,"1224":0.010833087793744629,"1225":-0.008936103889273283,"1226":0.010627991666141897,"1227":0.01918980737594653,"1228":-0.002885710948365388,"1229":-0.01660082298340256,"1230":-0.029001989973978088,"1231":-0.030131417281514826,"1232":0.0005550734860494392,"1233":-0.019690857882313353,"1234":0.002772901447390115,"1235":-0.0038659400889626424,"1236":-0.002711607245815957,"1237":0.023079722020950027,"1238":-0.005557217843321338,"1239":-0.046510145637303185,"1240":-0.007264574021837474,"1241":0.0067713187076890325,"1242":0.018119742696153646,"1243":0.0048252537611802055,"1244":-0.017400313402775137,"1245":-0.025738973088028413,"1246":-0.0017199232530620565,"1247":-0.0058084451695289,"1248":-0.021794448262635546,"1249":0.016323509465320334,"1250":-0.03274542441017266,"1251":0.0008012336748285842,"1252":0.015941994188505497,"1253":-0.00669297155580219,"1254":-0.016787652746787167,"1255":-0.03207985340981698,"1256":-0.04838719062903074,"1257":0.0591543930330043,"1258":0.016513492034521755,"1259":-0.027924764441593874,"1260":-0.047829963479093775,"1261":0.008487543924347972,"1262":0.02210348830827813,"1263":0.020909416174120326,"1264":-0.0052996284770841584,"1265":0.0119240472924424,"1266":-0.037064750986442165,"1267":0.03474439885401592,"1268":-0.04259471939600609,"1269":0.01919227727402726,"1270":0.00622307324221752,"1271":-0.07119293928587248,"1272":0.007536635667430788,"1273":-0.1595995806360245,"1274":-0.08685625008721605}},{"sx":1,"sy":1,"depth":1275,"w":{"0":-0.008639799441469847,"1":0.011269655993423503,"2":-0.003021765531254064,"3":0.003944712778646358,"4":0.027955094096021905,"5":0.02017161034345227,"6":0.0517401728062633,"7":0.037381927805573215,"8":0.029057811252710657,"9":0.014257098160309198,"10":0.00951724357406137,"11":0.014082562860233688,"12":-0.006034061998072427,"13":0.013795217314741396,"14":0.014719529192412312,"15":0.02304738147999001,"16":-0.00924967704875084,"17":-0.006279731466201147,"18":-0.02638366215004055,"19":0.03225142665801229,"20":-0.033541971701126126,"21":0.058021137591366206,"22":0.031590604708116324,"23":-0.014200344158552224,"24":0.02556187228219559,"25":0.016619644067470418,"26":-0.01294944062139382,"27":-0.0060278654581676135,"28":-0.029962808865893628,"29":-0.02380063690460802,"30":0.03450738991732379,"31":0.00385839068244214,"32":0.015255083070740012,"33":0.02382397975714036,"34":0.024350904473272164,"35":-0.03179752096859474,"36":-0.009554406237786467,"37":-0.040974265966401094,"38":-0.007771473207982945,"39":0.022568788756239598,"40":-0.03238011271449177,"41":-0.00711576718739831,"42":0.02144670887241368,"43":0.029854376861959703,"44":0.01633513414332506,"45":-0.04017895059992092,"46":-0.007362445479688858,"47":0.0007536350670891088,"48":0.02094939847716122,"49":0.016267324946533376,"50":-0.008490316007077132,"51":0.016088765845269644,"52":0.01599891495189457,"53":-0.003516114300079473,"54":0.017095038454686847,"55":0.030244430224453223,"56":0.017091029043541806,"57":0.015233654422013233,"58":-0.004177220485644858,"59":0.0035549464693324186,"60":-0.003680218099615812,"61":-0.000053725484509634675,"62":-0.043703656185635084,"63":-0.01556630005772434,"64":0.007884427848981884,"65":-0.04294773102083469,"66":-0.03172870205261945,"67":-0.0182214964908179,"68":-0.0030577452660037366,"69":-0.036505629051242175,"70":-0.03168780794750822,"71":-0.02061204261934025,"72":0.004543159771499324,"73":-0.018135323518472458,"74":0.010178913678340989,"75":0.008290684986566287,"76":-0.002318471956707273,"77":0.027529210024151887,"78":-0.01215399130975416,"79":-0.006516591496988156,"80":-0.014117134086074207,"81":-0.0309007165826119,"82":0.007698538629905288,"83":-0.014502784887388926,"84":-0.024024833180907076,"85":0.01382930079162725,"86":-0.0243692750752945,"87":0.008175963031931303,"88":-0.0065254054469750435,"89":0.014996791181596815,"90":0.05246926505269393,"91":-0.012189405692562525,"92":0.013274189414313922,"93":-0.002437805657344365,"94":-0.010572565248897286,"95":0.02836403561970594,"96":-0.009338738350365385,"97":-0.009625562901244665,"98":-0.016500143045798516,"99":0.010930001761646647,"100":0.0028365020248381167,"101":0.0024445327356313264,"102":0.009341788851094124,"103":0.02417954194767348,"104":-0.019987491191307806,"105":-0.021006183078263213,"106":0.034123795262017406,"107":0.0022751192486242825,"108":-0.03483834821667189,"109":-0.01908601252403337,"110":-0.0036682897024262213,"111":0.003072742726251291,"112":0.0016992335460990925,"113":0.019043767947197986,"114":0.0411130171549916,"115":0.0008856470409871899,"116":-0.03857429134650386,"117":-0.029480712394721623,"118":0.0030681465462860033,"119":0.014570240843013565,"120":0.02574405845976058,"121":-0.037349600343066405,"122":0.03449980267084569,"123":0.04994775212409188,"124":0.020045904431163337,"125":-0.012002644469337064,"126":0.007938225285736993,"127":-0.0011690715595498997,"128":0.025658313901544775,"129":0.03029183175079598,"130":-0.012762171418986144,"131":0.018566595435979983,"132":-0.0027095196017144787,"133":0.03355551823755494,"134":0.033876736605502215,"135":0.020408894516590764,"136":-0.022654158083472438,"137":-0.0374666201374791,"138":0.025563757265100868,"139":-0.03660341377548169,"140":-0.008986800684158533,"141":0.03024064948528194,"142":0.056727923526354834,"143":0.0017245375663565228,"144":0.016302628577798753,"145":0.00558859201872943,"146":-0.019574295376764767,"147":0.07569573746475561,"148":-0.02039743774383005,"149":0.0025809062568412,"150":-0.026645363287547023,"151":-0.0192495592556887,"152":0.016799185087835688,"153":-0.019492874143876557,"154":-0.02211226971268575,"155":0.012506572202166171,"156":0.03478373410615392,"157":0.009732978706858303,"158":-0.011587419572188421,"159":0.026076954901286992,"160":0.027235558225220727,"161":0.03782086694973667,"162":-0.041775264920978224,"163":-0.01788925202071305,"164":-0.016022692473004967,"165":0.001481650428540374,"166":-0.024543079506427867,"167":0.011281969961754831,"168":0.02809439929652779,"169":0.04893288943304287,"170":0.011474194625086387,"171":-0.0154348517184811,"172":-0.008770503232373515,"173":-0.022527362898431078,"174":0.028769870389200924,"175":0.00917151563243979,"176":0.04349768060404518,"177":-0.015517056710380247,"178":0.002887736112055486,"179":0.011550260820928736,"180":0.03138114644345577,"181":-0.019205576647925642,"182":0.03547806857620278,"183":-0.006638120553460548,"184":-0.014293966119407076,"185":-0.02965892440232116,"186":0.01130255728545465,"187":0.02682395093194661,"188":0.04065342943758427,"189":-0.06253053777125636,"190":0.010283289765900686,"191":-0.012945101286123783,"192":-0.009958706631347524,"193":-0.012654152946129645,"194":0.0057586178403951065,"195":0.015713064942140822,"196":-0.01490363018672316,"197":0.005583192954256628,"198":-0.004643708958297867,"199":-0.021062687535299888,"200":-0.003036346511730551,"201":0.0004791990235206163,"202":0.012040078902315182,"203":0.020972607877187233,"204":-0.0039670619069267395,"205":-0.053932237609307244,"206":-0.006193890123659634,"207":0.0019413341175905704,"208":-0.04564283373665001,"209":0.0589291008518213,"210":0.0774317868122367,"211":0.03586139627440739,"212":0.04165921476402687,"213":-0.03343740042087556,"214":0.0013347664791689528,"215":-0.04130274133526945,"216":-0.016463734978139227,"217":0.007928570408713293,"218":0.0184391837881022,"219":0.0701176265756603,"220":-0.011460534212037922,"221":0.03812489846893217,"222":0.023330588756063694,"223":0.06280359680894737,"224":0.03007592713146791,"225":0.01815163895674935,"226":-0.008616912845568512,"227":-0.015622551044146336,"228":0.021931824272332624,"229":-0.0034526991285457605,"230":0.03558439246351799,"231":-0.029392286998921515,"232":0.03616715052701467,"233":0.03857828529166208,"234":-0.003501300206522748,"235":-0.023436952914632513,"236":-0.004552453971820593,"237":0.05781259981426828,"238":-0.058710598576051064,"239":0.03284341400934407,"240":0.0032610883095086462,"241":0.04682216490629992,"242":0.017054550924400162,"243":-0.022259676997953382,"244":-0.043078579518293164,"245":0.023371172501587476,"246":0.035878027101346334,"247":-0.031139849985904116,"248":0.04308102251362592,"249":0.045822148660698156,"250":-0.02954473470027019,"251":0.00713234658019037,"252":-0.03699323512646764,"253":-0.06001525507244722,"254":0.0003289990547780706,"255":0.044110603345092377,"256":0.0012745670150403465,"257":0.002339686849923159,"258":0.020219177147450213,"259":-0.02055545992818837,"260":0.00870468971542235,"261":-0.011758069291820638,"262":0.010537594627829973,"263":0.012859578229814745,"264":0.016780023428787635,"265":-0.022662968263442863,"266":0.06462928992553875,"267":-0.010502930704374636,"268":0.009168444687700306,"269":-0.013347231897565343,"270":-0.014130631272638118,"271":-0.05253002282901331,"272":-0.010657093157236305,"273":0.048730460957079114,"274":0.0661440568556293,"275":0.042412523388004955,"276":-0.030573244597621764,"277":-0.049803527945184674,"278":-0.03198870396837379,"279":-0.0033937713174469137,"280":0.011128450304948977,"281":-0.02242684027914717,"282":0.10329323540756902,"283":0.0605767869292623,"284":0.02308238788334625,"285":-0.04039379162587614,"286":0.0051899441969840395,"287":0.03878357452590026,"288":0.005401983184220982,"289":-0.05764539789804062,"290":0.026840006737752213,"291":-0.003765838430872062,"292":0.030997362054661578,"293":0.021080615865502535,"294":0.03498638654159844,"295":-0.027557555330037523,"296":-0.008391737693105653,"297":-0.00615018500775562,"298":-0.03821661805430265,"299":0.01528123376728949,"300":0.06622106258456424,"301":0.08204471418390111,"302":0.012521288064319363,"303":0.017074208862483453,"304":0.0073888310461019836,"305":0.05286329240676188,"306":0.035888169919529714,"307":-0.0448985893755782,"308":0.012109378950189513,"309":0.05560775530857229,"310":-0.015083241131946114,"311":0.03996236658824112,"312":-0.0013478134707656346,"313":0.025015168484847267,"314":-0.02327664839711303,"315":-0.035896477785542426,"316":-0.012142417035120505,"317":0.018699002216475687,"318":-0.033790461008291785,"319":0.013379162780434021,"320":0.023888200541165625,"321":0.0116024359524674,"322":0.01751056398301171,"323":-0.005893998186466782,"324":-0.05450107762267736,"325":0.011114826143921721,"326":0.014428756600466223,"327":0.03490868158142157,"328":0.032524740762262166,"329":-0.011895205994158936,"330":0.039911209037147864,"331":-0.007328243137523298,"332":-0.02112921681900162,"333":0.00032989926048598313,"334":-0.003400675112888668,"335":-0.05565065656745462,"336":0.03597534909801522,"337":-0.011237077681206029,"338":-0.018835362150488564,"339":0.009819074059103934,"340":0.009769180098418128,"341":-0.03569632903121167,"342":-0.04379920097731722,"343":0.017558698919348695,"344":-0.04934074202464811,"345":0.045598191686874304,"346":-0.004927914937113106,"347":-0.008252448549286607,"348":0.04605586627733238,"349":-0.04409725173045622,"350":-0.005748972356893153,"351":-0.005682130220301749,"352":0.002180948391103587,"353":0.03289432978623068,"354":0.04430304109718761,"355":0.0278252639011332,"356":0.003141827765286699,"357":0.01368199905437202,"358":0.002843126265970601,"359":-0.013176127414909873,"360":-0.02522655734232888,"361":-0.000532820731084452,"362":-0.00008532066574041404,"363":-0.010139813717711733,"364":-0.007307072687736467,"365":-0.03990686806059576,"366":0.017216587270718488,"367":0.016418042429151913,"368":0.03535837808968779,"369":-0.005154264250061303,"370":0.017354172298264848,"371":0.0432034315791357,"372":0.03152311975409455,"373":0.029237886870485067,"374":0.02201034531128529,"375":0.005259657153682752,"376":0.03625092586050799,"377":-0.013934360814573298,"378":-0.028132317177934834,"379":0.005247610470024032,"380":0.01819690183400452,"381":-0.036786353600095203,"382":0.008491673326765556,"383":0.010770216175177554,"384":0.0334260670946273,"385":0.006309574071512928,"386":-0.0012480779752061153,"387":0.012510426189593499,"388":-0.009571922444467165,"389":-0.0036905980488537915,"390":-0.01786514587228248,"391":-0.04061061622536116,"392":-0.008797697856716481,"393":0.013379827947803865,"394":-0.007405159273631901,"395":0.0007604016517672209,"396":-0.03017999140389592,"397":0.01305249575604042,"398":-0.003156407636670202,"399":0.024325338989523253,"400":-0.0068926909615036605,"401":0.017785841140113123,"402":-0.03754806954251627,"403":-0.010278151584651356,"404":0.03890833407550589,"405":-0.0057198485776837615,"406":-0.07395495304432963,"407":-0.004007599439938538,"408":0.0028241410780433327,"409":0.023854117047539224,"410":0.002935909257906624,"411":0.0215125920958337,"412":-0.015959299370379734,"413":0.0006658051959305951,"414":0.004798957742540166,"415":0.016823368807146022,"416":0.00350753962640422,"417":-0.00598772249475341,"418":-0.016852956326354657,"419":0.025118088482762004,"420":-0.0014708111872625193,"421":0.02738642204947838,"422":0.01285242658611244,"423":-0.03361487541745139,"424":0.001406881676130046,"425":-0.005416282006415956,"426":0.023505183555131693,"427":0.004058908767469616,"428":-0.028917290987256403,"429":0.042314976805864914,"430":-0.010581037379876784,"431":-0.007780696354611732,"432":-0.008395751977883266,"433":-0.008050208641181954,"434":-0.0186362095995656,"435":0.04498831136117778,"436":0.029861908807041388,"437":-0.003974006209067105,"438":-0.019498550315876387,"439":0.0009765658782128514,"440":0.04063414184196064,"441":-0.025340834840805408,"442":0.10878605202417939,"443":0.019417531840671538,"444":0.047479995484412556,"445":0.01330925668423035,"446":0.007700883864088758,"447":-0.02260141067208933,"448":0.003479377212328932,"449":-0.00849606721012642,"450":0.013048401261809721,"451":0.01020283163493123,"452":0.008116887785079656,"453":0.03814211415820598,"454":-0.01944200725103108,"455":-0.019575905868146174,"456":0.01540284625196218,"457":0.025884459010275702,"458":-0.026236379043388283,"459":-0.036797252122558737,"460":-0.06779101568878272,"461":0.0372944274604383,"462":0.05423989841099369,"463":0.02147187258538954,"464":0.03163191863876788,"465":0.06826731210808502,"466":0.03943549731247932,"467":0.032028364799061265,"468":0.035147318845479475,"469":0.028822459202767003,"470":-0.03145480796583549,"471":0.036704240208778015,"472":-0.016774205407424123,"473":-0.026789077717690533,"474":0.04249203800858845,"475":-0.02218346542924726,"476":-0.028233917781491816,"477":0.010291814455232017,"478":0.02758701693281489,"479":-0.0032357985584135353,"480":0.01708603839272731,"481":0.005610433311608186,"482":0.02451323252873635,"483":0.005734057942067065,"484":-0.029995668180433206,"485":0.022637281557004892,"486":-0.012064865058513494,"487":-0.030821532691808585,"488":-0.0271441653668426,"489":0.0075985903617373325,"490":0.010825448830746378,"491":0.024888367197027875,"492":0.021582273201228186,"493":-0.0029695090770959476,"494":0.01854611493186962,"495":0.012743539249720817,"496":0.016037949364048416,"497":0.0038463951288229613,"498":0.0549307287606821,"499":-0.0062668040733827625,"500":-0.02110242799604192,"501":0.06284003549554536,"502":0.025621657328281196,"503":0.017508034947531108,"504":-0.02024690941865517,"505":0.021358111489279633,"506":-0.002342584615081599,"507":-0.013508560569277055,"508":-0.02824052852979204,"509":-0.028811789981027285,"510":-0.002178908536257323,"511":-0.018848318804231108,"512":-0.002165256795892854,"513":0.013282178315995846,"514":-0.03620510534483922,"515":-0.012489652597731299,"516":0.009301856080164357,"517":-0.03288910251924899,"518":0.012123148524347404,"519":0.013644883064313735,"520":0.008403511739265571,"521":-0.015567495305126116,"522":-0.02871158938627285,"523":-0.0021987198283515597,"524":-0.014670630438816242,"525":0.04814286018512872,"526":-0.0704503215492845,"527":0.019846167209814497,"528":-0.00459961174857542,"529":-0.012447652870922636,"530":-0.03247867414031826,"531":-0.03450589619412626,"532":0.006177810326384788,"533":0.00677009838017707,"534":0.03395672969757879,"535":-0.02503048145095546,"536":0.0021749333632372237,"537":0.05342406539670136,"538":0.03550122851020318,"539":0.0072986838833254755,"540":-0.04877149562362269,"541":-0.019133221771267247,"542":-0.010329552756083688,"543":0.0817697886082724,"544":-0.018951887911256696,"545":-0.02173353157560299,"546":-0.03063861343548644,"547":0.0207267930451671,"548":-0.01654213044219267,"549":0.012074184941335348,"550":0.001607306690514276,"551":-0.007883956111885014,"552":0.06544433455640172,"553":-0.029330351211750132,"554":0.05194707670829455,"555":-0.010922254413398792,"556":0.04100365285030203,"557":0.04010278913122185,"558":0.03435728297164074,"559":-0.00573063151146674,"560":-0.027553977821603647,"561":0.04624820571733972,"562":-0.00899410405631127,"563":0.040479242442529935,"564":0.012427909836900643,"565":-0.023796075419856365,"566":0.0055618051092089,"567":-0.015895912735801543,"568":0.0027620990437323438,"569":-0.006180813909755309,"570":0.03878986783857994,"571":-0.008628741488932761,"572":0.043641328828697375,"573":-0.011853415242049845,"574":-0.0057426368101536,"575":0.019988820962410513,"576":0.010802221693899555,"577":0.06364873778535057,"578":0.037583307855028954,"579":0.07826588269014885,"580":0.06825909908814644,"581":0.020831151364384373,"582":0.001300609918342912,"583":0.014732163551305943,"584":-0.002657381095142327,"585":-0.048218955941001,"586":-0.03387222401267676,"587":0.025297688214303057,"588":-0.018034861156993678,"589":0.03625281079599027,"590":0.04817327683025918,"591":0.03020449074505354,"592":-0.002402641352411415,"593":0.0013724099421581555,"594":0.05190371289927062,"595":-0.017864629856405433,"596":0.009880512536086287,"597":0.03395614633010894,"598":0.051016460911031875,"599":0.04223900324439407,"600":0.0015023857339733424,"601":-0.0235866066962549,"602":-0.006220786462889047,"603":-0.01986371994895394,"604":-0.018399224373134727,"605":-0.0067019808507395705,"606":0.030763235591309994,"607":0.10114434571945857,"608":0.025167000375429904,"609":0.005715139998662175,"610":0.0016202562017441123,"611":-0.009398366074352522,"612":-0.018525413198245726,"613":0.05320247025159087,"614":0.01937015825399899,"615":0.06717103106026252,"616":0.09892995641802356,"617":0.01762634241817844,"618":0.019749276905240736,"619":-0.025297287655671463,"620":0.050046498690759125,"621":0.019339397107400177,"622":-0.023618794362432714,"623":-0.0068367253639765885,"624":0.02156825930612062,"625":-0.020545712238564242,"626":0.038942921470204415,"627":0.0005462835609584736,"628":-0.03946033351806887,"629":-0.008590066168444745,"630":-0.04959131876806164,"631":-0.11759282978892782,"632":-0.09638613664615767,"633":-0.05366900290370564,"634":-0.020360774033133147,"635":-0.016449644607120957,"636":0.0009917798308110588,"637":-0.025117823623207865,"638":0.04225411888421302,"639":0.028010107234720548,"640":-0.002442257650513901,"641":0.016541010054886403,"642":0.0737225484761418,"643":-0.02903681956047878,"644":-0.028820419117451746,"645":0.06392647839820462,"646":-0.0024902262902289293,"647":0.015828720706279702,"648":0.046722507879731826,"649":-0.03239882525207983,"650":-0.0053424549055873,"651":0.026076393321205305,"652":-0.014649989202051746,"653":-0.022120980152802172,"654":0.004607404336215122,"655":0.0011134466573881636,"656":-0.018651018366479394,"657":-0.0026149349916168322,"658":-0.051522321566870755,"659":-0.003839014749248,"660":0.012034143421743432,"661":-0.007458877075182341,"662":-0.06424151201076726,"663":0.02686621050414811,"664":0.006766203498115392,"665":-0.007875951454316998,"666":0.012613686291489854,"667":-0.047025005885359954,"668":0.02507883727803848,"669":0.031837484687908715,"670":-0.00024319740816869338,"671":-0.05708409489756805,"672":-0.005363489140896493,"673":-0.01968944215897382,"674":0.0046237389524788905,"675":-0.040955467730160816,"676":-0.0269719521365699,"677":0.007711493660092865,"678":0.0230286924544403,"679":0.00349608351290688,"680":0.009853207964960722,"681":0.03277262484251914,"682":-0.004247468023647185,"683":-0.015287993505870106,"684":-0.015942633349084648,"685":0.014794269755015844,"686":-0.025270144978881928,"687":-0.035201380600433936,"688":0.015576535213421287,"689":0.007048780612911086,"690":-0.015740765947981065,"691":0.011007160439774842,"692":-0.0009624655534646207,"693":-0.004044802194066758,"694":0.01446842607473917,"695":0.046706929693417006,"696":0.013450590022897538,"697":-0.0012454857036991506,"698":-0.019786932227822844,"699":-0.008612830846340404,"700":0.03961548179092584,"701":0.04718029421743566,"702":-0.0040638784173547765,"703":0.0049000596564371815,"704":0.013799353849417328,"705":0.028330684763811335,"706":-0.006553156515809701,"707":-0.027962745185053046,"708":-0.018521137117484453,"709":0.037485644140783474,"710":-0.00596624859371628,"711":-0.00766333981910181,"712":-0.008254455558641776,"713":-0.02312337621043081,"714":0.0062412645768161286,"715":-0.03353788257433487,"716":-0.028517516907353675,"717":-0.02535888231473497,"718":-0.05190502702027385,"719":0.002056604312656269,"720":-0.012725783973872308,"721":-0.01012859615338391,"722":0.0167315454805296,"723":-0.031063240204516063,"724":-0.037971982257027116,"725":0.019896388008370694,"726":0.012741468434850736,"727":-0.012121140737757757,"728":0.013880140248072851,"729":-0.005400003151032935,"730":-0.035721932502335296,"731":0.050293823114371305,"732":-0.020535328222217,"733":0.0006409479388391823,"734":-0.005771638409474365,"735":-0.02082274627428846,"736":0.035465081297542285,"737":0.01678557390239958,"738":0.012705495590525086,"739":0.00013563646504071477,"740":-0.011119666502564742,"741":-0.0055180316665458745,"742":0.014427371399818518,"743":-0.012100126192718854,"744":-0.00613528435671203,"745":-0.006437015189041961,"746":0.04469851217198274,"747":-0.021438788403205938,"748":-0.054121556294319605,"749":0.05531222338332679,"750":0.005774999957777941,"751":-0.014499245349205369,"752":-0.003236493514503292,"753":-0.0028253366079785797,"754":-0.034929410918624726,"755":0.021717223737736466,"756":-0.01599260420738988,"757":0.019017860109975276,"758":-0.0083036181078734,"759":0.05310471499342321,"760":0.0242387830889773,"761":-0.04812089389260072,"762":0.018695492219161305,"763":-0.007278963363070879,"764":0.02443205173238004,"765":-0.004296021489952762,"766":0.050907052824878625,"767":0.027797863044242952,"768":-0.010479532667663483,"769":-0.0384597629554944,"770":-0.031012257656162244,"771":0.010715286221933832,"772":0.026100267179670542,"773":0.018740540297931006,"774":-0.009082297598643206,"775":-0.0016560888048798362,"776":-0.023592705278512805,"777":0.01659742185259922,"778":0.0057555431599641835,"779":-0.026011269324265503,"780":0.013953655400798336,"781":0.042746957532362705,"782":0.040390924474316844,"783":0.014911538757339464,"784":0.007910391650552014,"785":0.025855252204201012,"786":0.0316480512633011,"787":0.037439341754840955,"788":0.0025521782219253544,"789":-0.039373822791631374,"790":-0.03461675411527122,"791":0.039224181923789264,"792":0.017322681663285242,"793":0.032672679957034996,"794":0.009898006927995529,"795":0.018208645766693107,"796":0.002420715319574044,"797":0.033700332720097176,"798":0.020031817441432325,"799":0.02278058630400511,"800":0.002683748873092071,"801":-0.02033202570906856,"802":-0.00344544703261687,"803":-0.02084661366721743,"804":-0.004522980581225037,"805":0.038345713682754655,"806":0.038329535030034265,"807":0.006441848157462412,"808":0.030409784350336817,"809":0.01876928826491277,"810":0.012798361123737589,"811":-0.012813865346799841,"812":-0.03370060791046758,"813":-0.024903412830329784,"814":-0.0005586339230354443,"815":-0.005004327380266358,"816":0.0010741034469528917,"817":-0.01858315559534388,"818":0.023123550550648166,"819":0.01980892713700381,"820":0.04429531706930841,"821":0.02622841714972447,"822":0.03357794175468256,"823":0.023399934597824884,"824":0.01447711559733739,"825":-0.011187837344548203,"826":0.0029098987281481266,"827":0.006838944249434273,"828":0.03158605809249062,"829":0.03412087871583066,"830":0.030508320915056435,"831":0.00042589890482076396,"832":0.003927272096978003,"833":0.0014375107954149112,"834":-0.017709977843683687,"835":-0.012470943691295169,"836":0.0501542252626354,"837":0.024349635596277834,"838":0.035301852551002405,"839":-0.03157695968660133,"840":0.026287018478223415,"841":0.013687543013061812,"842":-0.017330588418780716,"843":0.0049711613453036416,"844":-0.029461370958273357,"845":0.011825957241234834,"846":0.0052690338750099085,"847":-0.019186296960596004,"848":-0.007699075444725947,"849":-0.033642043588405106,"850":-0.008445626280029567,"851":-0.06026210853243557,"852":-0.0745118028173698,"853":0.02168540457158553,"854":0.0024924080137203593,"855":-0.04112993152536267,"856":-0.0019548884030909128,"857":0.02103206949650566,"858":0.014132527667802089,"859":0.019742844664306414,"860":0.02404501061575621,"861":0.008705728400625697,"862":-0.022106045054826724,"863":0.05781177559931325,"864":0.003830138250271453,"865":0.012655997487532546,"866":0.008049648465183988,"867":-0.016845110491183785,"868":0.03505882683127589,"869":-0.005385180097678712,"870":-0.015093621293837964,"871":-0.039409180904937204,"872":0.010184502855880047,"873":-0.00376412913820506,"874":0.0039537298741748154,"875":-0.007664265800763199,"876":-0.022964491063793908,"877":0.008363937771752698,"878":0.007069297990167491,"879":-0.0218291820541502,"880":0.005938244702712371,"881":0.03940720781279641,"882":-0.0480886148958223,"883":0.018128039385528233,"884":0.01714061320556938,"885":0.023558920958027574,"886":-0.01044828385491657,"887":-0.004476438818928473,"888":0.005684526046501608,"889":-0.02009717178537397,"890":-0.029425869668966684,"891":-0.023756866492944978,"892":0.02000697903417575,"893":-0.003709532997285032,"894":0.02898232443401678,"895":0.008486276160010409,"896":-0.005875764461471294,"897":-0.027491432875183734,"898":0.01891849034404251,"899":0.0022741017765608414,"900":-0.03130764453654095,"901":-0.00957477210993378,"902":-0.014161171179305643,"903":0.003946632459081069,"904":-0.0032296975837000394,"905":0.03451990154633049,"906":-0.022317856932864682,"907":0.03941039070568673,"908":0.002209111618043775,"909":0.09181608216114416,"910":0.012199088491564479,"911":0.017523343616121654,"912":-0.0036887530960486537,"913":-0.044396681147522626,"914":-0.006870932827981086,"915":0.008877194899292647,"916":-0.009025010836480774,"917":0.047190585701341804,"918":0.11639140445249976,"919":0.020206362837631765,"920":-0.012857797869010458,"921":-0.012604067527710395,"922":-0.006361095567676587,"923":-0.0033400219012684573,"924":0.03512852678272508,"925":0.019693989546819987,"926":0.04649375863117171,"927":0.10251068157992961,"928":-0.005822423530977739,"929":0.020721495246883607,"930":0.002503633578934625,"931":0.0030390891447992945,"932":-0.004067633535791915,"933":-0.025050585952322024,"934":0.020351099839540043,"935":0.022153549124120275,"936":0.06959737285418835,"937":0.012722190355392139,"938":0.06458430916212535,"939":0.017923556018018573,"940":0.017937206041096148,"941":-0.037503201613898196,"942":0.016873966623661665,"943":0.00924143470212711,"944":-0.008830766833696659,"945":-0.002872868681684947,"946":0.015275713543450288,"947":-0.040904671985529426,"948":-0.0057334734045040685,"949":0.0297914851023089,"950":-0.09622557194126326,"951":-0.07328096633077208,"952":-0.03832288352106756,"953":-0.11631834461091314,"954":0.0007262249036070565,"955":0.0128601612564058,"956":0.02790279007793495,"957":0.011639661517432806,"958":-0.0044788762473716714,"959":-0.020717841024360317,"960":0.03775410999751247,"961":0.00910647209338055,"962":-0.01847145562033679,"963":0.008616400594976703,"964":-0.030818797926038814,"965":0.023961162761275988,"966":-0.006367209230564683,"967":-0.019182610630219997,"968":0.01657716582758429,"969":0.04126151124833172,"970":-0.027871512881375574,"971":-0.06337356386815997,"972":0.014059156911306374,"973":-0.03679159253334714,"974":-0.02203910654252584,"975":0.008852288946811839,"976":-0.012302689499552408,"977":-0.02812492100690964,"978":-0.0034038095594709945,"979":0.06718297866051139,"980":-0.02874259906808685,"981":-0.003191112814052429,"982":0.008245365721799947,"983":0.007641926858689492,"984":-0.02341071520498843,"985":0.04801562553836753,"986":0.00020692141367140008,"987":0.018500972213067682,"988":-0.024797514655946037,"989":0.03573809675449274,"990":0.004042305582910629,"991":-0.06426785539573997,"992":0.022400621641374453,"993":-0.009684948765751896,"994":-0.030823869624506207,"995":0.0007857645641202692,"996":0.025981734568597693,"997":-0.007544739021530935,"998":-0.03884845747736824,"999":-0.02562270482967541,"1000":-0.014140804351350927,"1001":0.018056886499836233,"1002":0.03603153340738038,"1003":-0.005897066582139369,"1004":-0.01121545413496461,"1005":-0.050871451388273106,"1006":-0.03863035133418205,"1007":0.026526998973033587,"1008":0.006009208608632893,"1009":0.0016362477400925439,"1010":-0.008565760973430545,"1011":0.023092361620979756,"1012":-0.02345176019081522,"1013":-0.010385650807188248,"1014":-0.007725852284280211,"1015":-0.021075966607273913,"1016":0.005688219661127902,"1017":0.014177155610809239,"1018":-0.006603680724709999,"1019":0.004505486063205747,"1020":-0.03917973318741336,"1021":0.03203210288885172,"1022":-0.034639993708623584,"1023":-0.00672218004538065,"1024":0.010456551137842397,"1025":0.01016782600082502,"1026":-0.014802066305718469,"1027":-0.00024590011609830264,"1028":-0.010424075689675896,"1029":-0.051608974886949835,"1030":-0.05213265272887709,"1031":-0.011375444013810694,"1032":0.03657104609213209,"1033":0.026314283215453035,"1034":0.027149200013171736,"1035":-0.010683655562469937,"1036":0.022179742723491155,